tree
version=v3
num_class=4
num_tree_per_iteration=4
label_index=0
max_feature_idx=19
objective=multiclass num_class:4
feature_names=Column_0 Column_1 Column_2 Column_3 Column_4 Column_5 Column_6 Column_7 Column_8 Column_9 Column_10 Column_11 Column_12 Column_13 Column_14 Column_15 Column_16 Column_17 Column_18 Column_19
feature_infos=[0:19] [0:19] [0:20] [0:19] [0:20] [0:20] [0:20] [0:18] [0:22] [0:22] [0:18] [0:19] [0:22] [0:20] [0:19] [0:20] [0:8100000] [-1:1] [16:45] [-1:1]
tree_sizes=3300 3292 3290 3326 3355 3363 3346 3358 3357 3360 3331 3365 3372 3345 3360 3369 3371 3368 3348 3376 3371 3385 3357 3381 3377 3366 3375 3365 3379 3372 3370 3386 3375 3385 3356 3384 3377 3390 3369 3379 3379 3357 3362 3392 3397 3379 3351 3401 3375 3396 3384 3396 3402 3399 3386 3388 3371 3364 3394 3391 3387 3386 3399 3391 3398 3377 3425 3382 3400 3377 3400 3399 3404 3423 3409 3384 3390 3365 3408 3393

Tree=0
num_leaves=31
num_cat=0
split_feature=19 6 17 12 16 13 5 18 12 0 2 17 0 7 7 15 10 2 11 1 13 7 2 3 4 1 6 17 8 14
split_gain=1664.94 51.9056 33.1033 32.0913 24.3954 18.3816 14.8694 14.5416 9.84584 9.76754 8.38305 8.93898 8.11733 7.38802 10.6065 8.5644 7.48561 7.10513 7.41839 6.8645 6.71731 6.11346 6.0815 5.95756 5.92829 8.29008 5.76635 8.05672 5.55609 5.31022
threshold=-1.0000000180025095e-35 8.5000000000000018 -1.0000000180025095e-35 1.0000000180025095e-35 1.6796350000000002 4.5000000000000009 8.5000000000000018 27.500000000000004 5.5000000000000009 7.5000000000000009 1.0000000180025095e-35 1.0000000180025095e-35 12.500000000000002 4.5000000000000009 1.0000000180025095e-35 6.5000000000000009 5.5000000000000009 1.0000000180025095e-35 1.0000000180025095e-35 3.5000000000000004 3.5000000000000004 5.5000000000000009 6.5000000000000009 3.5000000000000004 3.5000000000000004 2.5000000000000004 4.5000000000000009 1.0000000180025095e-35 1.5000000000000002 5.5000000000000009
decision_type=2 2 2 2 2 2 2 2 2 2 2 2 2 2 2 2 2 2 2 2 2 2 2 2 2 2 2 2 2 2
left_child=3 2 -2 5 7 10 -4 9 26 13 23 28 -8 14 17 20 24 18 -5 -9 -15 -22 29 -1 -16 -26 27 -6 -12 -21
right_child=1 -3 6 4 8 -7 12 19 -10 -11 11 -13 -14 15 16 -17 -18 -19 -20 22 21 -23 -24 -25 25 -27 -28 -29 -30 -31
leaf_value=-1.3646280726848381 -1.449350330953542 -1.5095835959339492 -1.5462168091724504 -1.3830693405829779 -1.4687966479521306 -1.4581895659529005 -1.5230640722596047 -1.3917687393826932 -1.4852286524392779 -1.4889631989136296 -1.4128241799773575 -1.385646878716787 -1.4539804064293964 -1.4247969003997689 -1.3931407673263825 -1.3959875418833416 -1.3665234252188136 -1.459626839936536 -1.4539804064293964 -1.3971848139255827 -1.4985663184191054 -1.44770233798756 -1.441247698870797 -1.4141518001854878 -1.4925643687281831 -1.4121382428698235 -1.4601538403972023 -1.3969948621111887 -1.4745585196554161 -1.424737824476632
leaf_weight=39.570474967360497 9.2562514543533307 135.14127123355865 684.73120133578777 8.5620325952768308 5.7851571589708337 10.181876599788664 34.016724094748497 44.892819553613663 18.743909195065498 6.9421885907649985 14.5785960406065 33.55391152203083 4.8595320135354987 12.72734574973583 15.9670337587595 7.6364074498414984 11.107501745223997 18.975315481424332 6.4793760180473319 40.49610011279583 10.413282886147501 13.652970895171164 18.512502908706665 7.1735948771238318 4.6281257271766654 10.413282886147497 18.512502908706665 12.033126890659332 4.8595320135354987 30.777036085724831
leaf_count=171 40 584 2959 37 25 44 147 194 81 30 63 145 21 55 69 33 48 82 28 175 45 59 80 31 20 45 80 52 21 133
internal_value=-1.49829 -1.53806 -1.54331 -1.41748 -1.42554 -1.3942 -1.54451 -1.41919 -1.4558 -1.43129 -1.38766 -1.40128 -1.51443 -1.42797 -1.41852 -1.44417 -1.40174 -1.43928 -1.41362 -1.40773 -1.45417 -1.46971 -1.41571 -1.37223 -1.41436 -1.43688 -1.44061 -1.42031 -1.42826 -1.40908
internal_weight=0 868.005 732.864 427.176 317.258 109.918 723.607 262.183 55.0747 127.505 99.7361 52.992 38.8763 120.563 76.1327 44.43 42.1159 34.0167 15.0414 134.678 36.7936 24.0663 89.7856 46.7441 31.0084 15.0414 36.3308 17.8183 19.4381 71.2731
internal_count=5597 3751 3167 1846 1371 475 3127 1133 238 551 431 229 168 521 329 192 182 147 65 582 159 104 388 202 134 65 157 77 84 308
is_linear=0
shrinkage=1


Tree=1
num_leaves=31
num_cat=0
split_feature=19 13 7 2 16 5 17 14 0 7 15 6 16 8 16 0 18 5 16 16 6 13 2 13 10 2 16 3 16 18
split_gain=585.745 62.6046 47.2945 25.4997 19.4758 17.5109 17.7827 17.0893 19.2323 14.6798 14.1679 12.7838 12.2312 12.1816 11.4954 11.503 13.4292 12.0251 11.3357 9.9728 9.75295 10.5962 9.23609 9.21313 8.73499 8.6471 13.2338 12.6356 9.75244 9.35384
threshold=-1.0000000180025095e-35 1.5000000000000002 8.5000000000000018 1.0000000180025095e-35 1.8756450000000002 11.500000000000002 -1.0000000180025095e-35 4.5000000000000009 2.5000000000000004 6.5000000000000009 4.5000000000000009 3.5000000000000004 1.1521150000000002 3.5000000000000004 0.70094300000000009 5.5000000000000009 31.000000000000004 6.5000000000000009 1.5838250000000003 1.5148950000000003 5.5000000000000009 5.5000000000000009 5.5000000000000009 5.5000000000000009 9.5000000000000018 5.5000000000000009 0.84039450000000004 6.5000000000000009 0.56019100000000011 26.000000000000004
decision_type=2 2 2 2 2 2 2 2 2 2 2 2 2 2 2 2 2 2 2 2 2 2 2 2 2 2 2 2 2 2
left_child=1 3 5 -1 7 6 -2 18 11 -6 19 13 -5 -9 -12 17 -17 23 25 20 21 -10 -18 -16 -7 28 -27 -28 -3 -30
right_child=2 4 -4 12 9 24 -8 8 10 -11 14 -13 -14 -15 15 16 22 -19 -20 -21 -22 -23 -24 -25 -26 26 27 -29 29 -31
leaf_value=-2.1874558890129427 -2.1312221376663598 -2.2070930720228605 -2.1778416274516794 -2.1119864294182564 -2.1679615218794606 -2.1975139583594858 -2.2231043445856264 -1.9967501235767056 -2.1249739430722951 -2.0687401917257122 -1.9437762998444172 -2.1585085570961362 -2.163355709864407 -2.1312221376663598 -2.0673818885530895 -1.9437762998444172 -2.0937329701019713 -1.9906377592999029 -2.1687113052307483 -2.0150057182167553 -2.1525975402250026 -2.0281269268642914 -1.9922536716949197 -2.1499667214485543 -2.1036565732807802 -1.9804504855052323 -2.1271472281484916 -2.0166719034418392 -2.0723728630013314 -2.1256586767264394
leaf_weight=34.67668354511261 5.3348743915557852 2.8008090555667868 77.489050537347794 30.542155891656876 16.671482473611835 5.468246251344679 407.45103165507317 3.0675527751445797 6.0017336905002647 4.8013869524002066 2.6674371957778922 10.536376923322676 18.672060370445251 3.7344120740890503 9.2026583254337364 4.267899513244628 5.3348743915557844 3.2009246349334708 8.0023115873336774 3.3342964947223654 7.6021960079669944 5.3348743915557861 3.8677839338779449 5.3348743915557852 4.5346432328224182 3.0675527751445761 9.2026583254337293 3.6010402143001548 11.469979941844938 29.208437293767929
leaf_count=260 40 21 581 229 125 41 3055 23 45 36 20 79 140 28 69 32 40 24 60 25 57 40 29 40 34 23 69 27 86 219
internal_value=-2.18268 -2.11954 -2.21375 -2.15462 -2.10142 -2.22033 -2.22192 -2.09466 -2.07798 -2.14578 -2.06377 -2.12401 -2.13148 -2.07058 -2.0434 -2.05192 -2.01708 -2.07837 -2.11285 -2.09474 -2.10878 -2.0794 -2.05108 -2.09769 -2.15497 -2.10532 -2.07373 -2.09608 -2.11685 -2.11063
internal_weight=0 246.204 500.278 83.8909 162.314 422.789 412.786 140.841 73.4879 21.4729 56.1496 17.3383 49.2142 6.80196 33.8765 31.209 13.4706 17.7385 67.3528 22.2731 18.9388 11.3366 9.20266 14.5375 10.0029 59.3505 15.8713 12.8037 43.4792 40.6784
internal_count=5597 1846 3751 629 1217 3170 3095 1056 551 161 421 130 369 51 254 234 101 133 505 167 142 85 69 109 75 445 119 96 326 305
is_linear=0
shrinkage=1


Tree=2
num_leaves=31
num_cat=0
split_feature=19 16 0 17 16 16 18 16 15 10 18 4 9 7 0 2 5 9 7 6 9 7 0 14 3 16 16 10 8 7
split_gain=131.806 189.895 107.086 35.9511 33.4116 31.0553 25.7035 24.9482 19.84 19.2549 18.7942 18.7434 16.6634 13.6344 13.5818 12.8906 12.8445 20.0035 11.9325 16.8714 10.8896 10.3526 10.4089 19.2769 10.236 15.4551 11.6986 9.07266 9.0519 8.97983
threshold=-1.0000000180025095e-35 1.8756450000000002 8.5000000000000018 -1.0000000180025095e-35 1.2789600000000003 1.0004550000000003 31.000000000000004 2.1268550000000004 6.5000000000000009 9.5000000000000018 31.000000000000004 7.5000000000000009 3.5000000000000004 1.0000000180025095e-35 4.5000000000000009 4.5000000000000009 6.5000000000000009 4.5000000000000009 1.0000000180025095e-35 3.5000000000000004 1.0000000180025095e-35 1.0000000180025095e-35 3.5000000000000004 2.5000000000000004 11.500000000000002 1.4748300000000001 1.7046000000000003 4.5000000000000009 9.5000000000000018 9.5000000000000018
decision_type=2 2 2 2 2 2 2 2 2 2 2 2 2 2 2 2 2 2 2 2 2 2 2 2 2 2 2 2 2 2
left_child=1 5 3 -2 28 18 7 12 15 -5 16 -6 -3 -9 -15 -8 17 20 19 -1 -7 -22 23 -23 29 -26 -27 -18 -4 -13
right_child=2 6 4 9 11 10 8 13 -10 -11 -12 24 -14 14 -16 -17 27 -19 -20 -21 21 22 -24 -25 25 26 -28 -29 -30 -31
leaf_value=-2.7909954122051697 -2.6621870401031091 -2.7409344299007907 -2.813146393420412 -2.8360562968174321 -2.7876181051712496 -2.7514690856788038 -2.6195568741975972 -2.5922469241643786 -2.5245657436472722 -2.7708119820738841 -2.7851031746364896 -2.6259827447936486 -2.5259227597979912 -2.351743170646035 -2.5430890141045857 -2.778451128936323 -2.5649369741311601 -2.805264534423483 -2.8234416833524754 -2.6363629972949623 -2.5922469241643786 -2.5245657436472717 -2.7615686143703333 -2.7345461374953595 -2.4972082980487782 -2.759383818367676 -2.5859446280028666 -2.7240471178029551 -2.7543634360636968 -2.7402097877771894
leaf_weight=15.943517692387106 3.1276757195591918 2.0596888884902023 12.052994236350061 227.25234069675207 3.9668082296848324 12.129279009997846 2.0596888884901992 1.8308345675468443 1.7545497938990591 11.900424689054487 32.115889705717564 2.5936823040246946 1.6019802466034887 2.3648279830813412 1.5256954729557035 3.3565300405025482 1.8308345675468438 9.1541728377342206 37.684678182005882 1.9834041148424137 2.4411127567291251 1.7545497938990573 4.5770864188671112 2.8988213986158371 1.9071193411946294 1.9071193411946299 1.9834041148424146 1.7545497938990591 14.341537445783613 5.1110798344016075
leaf_count=209 41 27 158 2979 52 159 27 24 23 156 421 34 21 31 20 44 24 120 494 26 32 23 60 38 25 25 26 23 188 67
internal_value=-2.7981 -2.7585 -2.81759 -2.83061 -2.74571 -2.77969 -2.59942 -2.54495 -2.67069 -2.83281 -2.7572 -2.69207 -2.64687 -2.47973 -2.42678 -2.71803 -2.73267 -2.74245 -2.80747 -2.77389 -2.71829 -2.68382 -2.70803 -2.65537 -2.66399 -2.61381 -2.67096 -2.6428 -2.78121 -2.70176
internal_weight=0 140.822 286.144 242.28 43.8637 124.268 16.5538 9.38303 7.17077 239.153 68.6563 17.4692 3.66167 5.72136 3.89052 5.41622 36.5404 32.955 55.6116 17.9269 23.8008 11.6716 9.23046 4.65337 13.5024 5.79764 3.89052 3.58538 26.3945 7.70476
internal_count=5597 1846 3751 3176 575 1629 217 123 94 3135 900 229 48 75 51 71 479 432 729 235 312 153 121 61 177 76 51 47 346 101
is_linear=0
shrinkage=1


Tree=3
num_leaves=31
num_cat=0
split_feature=19 6 17 2 13 10 8 18 5 16 14 14 7 3 2 2 4 18 8 4 1 16 12 16 6 11 6 12 13 1
split_gain=3135.5 222.879 116.621 60.0342 16.8273 13.0926 12.6592 12.183 9.07618 8.00916 5.6957 5.3867 5.16042 4.78233 4.2934 4.09966 3.92518 4.15616 3.37442 3.12757 4.82015 4.49073 5.42716 3.47819 2.71126 2.4515 2.19804 2.19554 1.87486 1.87632
threshold=-1.0000000180025095e-35 8.5000000000000018 -1.0000000180025095e-35 8.5000000000000018 7.5000000000000009 12.500000000000002 2.5000000000000004 31.000000000000004 11.500000000000002 1.2789600000000003 6.5000000000000009 8.5000000000000018 3.5000000000000004 10.500000000000002 13.500000000000002 8.5000000000000018 9.5000000000000018 29.000000000000004 11.500000000000002 11.500000000000002 9.5000000000000018 1.2072450000000001 6.5000000000000009 1.0564400000000003 10.500000000000002 9.5000000000000018 11.500000000000002 10.500000000000002 10.500000000000002 9.5000000000000018
decision_type=2 2 2 2 2 2 2 2 2 2 2 2 2 2 2 2 2 2 2 2 2 2 2 2 2 2 2 2 2 2
left_child=-1 2 -2 5 10 18 -3 8 12 15 -5 -9 -8 -13 19 -10 25 -18 28 21 -21 22 -14 -24 -23 -6 -17 -28 29 -4
right_child=1 6 3 4 16 -7 7 11 9 -11 -12 13 14 -15 -16 26 17 -19 -20 20 -22 24 23 -25 -26 -27 27 -29 -30 -31
leaf_value=-0.60054809208441795 -0.60054809208441795 -0.46480758549178297 -0.44420115088129464 -0.45262574515654652 -0.48478277709738815 -0.51202167474139515 -0.46741797984933364 -0.45774416546546942 -0.55235619625271315 -0.56418902781853353 -0.50521195033039334 -0.47189294160513484 -0.55042852041944501 -0.5186766326885105 -0.5449719541494682 -0.49253177384094188 -0.56274238069920135 -0.51104885696839486 -0.47952071732525042 -0.50048297504497552 -0.54461107013690357 -0.51104885696839486 -0.48514118364533559 -0.5293555186966723 -0.47240145998647587 -0.52564112356339865 -0.50359058737539297 -0.54359403337422141 -0.46400438722792126 -0.46350238831300766
leaf_weight=589.3107203245163 12.769463062286375 14.365645945072172 903.43951165676117 17.238775134086612 7.3424412608146685 7.3424412608146659 6.3847315311431876 10.854043602943419 8.3001509904861468 17.877248287200928 7.3424412608146659 8.9386241436004656 7.9809144139289883 14.046409368515013 9.8963338732719404 9.2578607201576251 9.2578607201576215 6.703968107700347 7.0232046842575064 11.492516756057741 13.407936215400694 6.7039681077003506 12.13098990917206 7.0232046842575064 14.046409368515013 7.3424412608146667 6.7039681077003461 7.0232046842575073 12.450226485729216 12.769463062286375
leaf_count=1846 40 45 2830 54 23 23 20 34 26 56 23 28 25 44 31 29 29 21 22 36 42 21 38 22 44 23 21 22 39 40
internal_value=-0.506132 -0.459666 -0.450403 -0.448482 -0.49915 -0.445515 -0.509899 -0.513664 -0.520247 -0.537492 -0.468333 -0.486774 -0.510728 -0.500483 -0.514072 -0.522236 -0.523868 -0.541031 -0.444993 -0.509871 -0.524244 -0.502397 -0.515787 -0.501353 -0.484888 -0.505212 -0.51136 -0.524057 -0.444732 -0.44447
internal_weight=0 1197.46 1011.02 998.253 55.2279 943.025 186.434 172.069 138.229 49.1624 24.5812 33.8391 89.067 22.985 82.6823 31.2852 30.6467 15.9618 935.682 72.7859 24.9005 47.8855 27.1351 19.1542 20.7504 14.6849 22.985 13.7272 928.659 916.209
internal_count=5597 3751 3167 3127 173 2954 584 539 433 154 77 106 279 72 259 98 96 50 2931 228 78 150 85 60 65 46 72 43 2909 2870
is_linear=0
shrinkage=1


Tree=4
num_leaves=31
num_cat=0
split_feature=19 6 17 16 2 13 5 12 18 16 13 0 11 18 16 1 6 16 15 0 5 6 6 11 6 4 13 10 2 12
split_gain=1401.64 49.3511 29.7488 25.4667 17.5999 17.2603 14.5643 12.4012 10.6793 9.72537 8.13603 7.48031 7.31745 6.78169 7.83212 5.20069 5.1266 5.07095 4.80978 4.6928 8.99172 4.60781 4.59069 4.52562 4.39848 7.65233 6.14752 5.15854 4.84843 4.60958
threshold=-1.0000000180025095e-35 8.5000000000000018 -1.0000000180025095e-35 1.5148950000000003 1.0000000180025095e-35 3.5000000000000004 8.5000000000000018 5.5000000000000009 31.000000000000004 0.74174050000000002 5.5000000000000009 12.500000000000002 5.5000000000000009 31.000000000000004 1.6511900000000004 4.5000000000000009 5.5000000000000009 0.98152700000000015 5.5000000000000009 5.5000000000000009 1.5000000000000002 4.5000000000000009 12.500000000000002 3.5000000000000004 4.5000000000000009 5.5000000000000009 3.5000000000000004 4.5000000000000009 1.5000000000000002 4.5000000000000009
decision_type=2 2 2 2 2 2 2 2 2 2 2 2 2 2 2 2 2 2 2 2 2 2 2 2 2 2 2 2 2 2
left_child=3 2 -2 4 5 -1 -4 13 10 -7 15 -8 -12 -5 -15 24 21 -14 23 20 -10 -9 -3 -16 25 28 27 -26 -6 -30
right_child=1 22 6 7 8 9 11 16 19 -11 12 -13 17 14 18 -17 -18 -19 -20 -21 -22 -23 -24 -25 26 -27 -28 -29 29 -31
leaf_value=0.10934390934335612 0.042565995020305641 -0.017193075015841497 -0.047014459626100874 0.046315277808050372 0.020470033656608419 0.12251293391136596 -0.023794266030098193 0.019128864216864726 0.12757161385382831 0.05069306265830284 0.059097205848847548 0.042038627628453201 0.039703823545897174 0.13112256023673993 0.12024660481780391 0.082309316408913147 -0.0019092589148239061 -0.020223094386926859 0.033011444821193774 0.067835930199561009 0.080311319883199839 0.076421541790880176 0.0027232545208103489 0.062930422087020599 -0.012142418818706136 0.11225070692266798 0.077702786241209909 0.050548236971548616 0.074845790472156157 0.024160858823927309
leaf_weight=64.744320228695869 9.7794662863016111 92.064574897289276 651.81533095240593 43.211196392774582 7.133483186364173 5.7900780290365246 33.236397460103035 9.488104850053789 11.816326692700384 25.354399666190147 17.472303047776226 4.9586941599845877 7.2966035902500135 5.5183712840080288 4.9933613240718904 34.401568129658699 13.749407961964605 6.8385767489671707 7.8673084676265708 50.491981938481331 67.884044408798218 5.5694332718849173 42.193710803985596 11.099573776125906 6.6581660807132739 7.7093646377325049 6.6696492284536353 6.4701944589614868 26.065122649073604 5.4183360040187827
leaf_count=254 40 401 2959 175 29 23 147 39 47 102 71 21 30 22 20 138 57 28 32 202 271 23 183 45 27 31 27 26 105 22
internal_value=0 -0.0387014 -0.0440287 0.0700355 0.0762998 0.094631 -0.045256 0.047927 0.0695991 0.0640451 0.0595851 -0.0152475 0.0374585 0.0589294 0.0774198 0.0665422 0.0201642 0.0107113 0.0650514 0.0797624 0.0873181 0.0403201 -0.0109339 0.0807146 0.0583392 0.0667694 0.038613 0.0187541 0.0576897 0.0661229
internal_weight=0 834.048 699.79 459.711 358.215 95.8888 690.01 101.497 262.326 31.1445 132.133 38.1951 31.6075 72.6898 29.4786 100.526 28.8069 14.1352 23.9602 130.192 79.7004 15.0575 134.258 16.0929 66.1243 46.3263 19.798 13.1284 38.6169 31.4835
internal_count=5597 3751 3167 1846 1433 379 3127 413 1054 125 534 168 129 294 119 405 119 58 97 520 318 62 584 65 267 187 80 53 156 127
is_linear=0
shrinkage=0.05


Tree=5
num_leaves=31
num_cat=0
split_feature=19 13 6 17 2 2 16 12 0 16 15 13 14 4 16 16 5 4 6 9 8 7 11 3 3 8 12 0 15 16
split_gain=496.026 48.5663 45.8033 21.4974 19.7536 19.0272 15.6063 13.2092 11.4826 13.9594 11.3071 15.3927 9.51907 12.8986 13.0627 10.3676 9.17548 8.42006 8.3679 7.75448 13.6701 12.7087 15.3907 12.1283 7.06824 6.79911 6.51079 6.42023 7.14024 5.78687
threshold=-1.0000000180025095e-35 1.0000000180025095e-35 9.5000000000000018 -1.0000000180025095e-35 1.0000000180025095e-35 8.5000000000000018 1.2322950000000004 5.5000000000000009 5.5000000000000009 0.58665000000000012 6.5000000000000009 6.5000000000000009 4.5000000000000009 4.5000000000000009 1.9241000000000001 1.6511900000000004 14.500000000000002 1.0000000180025095e-35 5.5000000000000009 2.5000000000000004 1.0000000180025095e-35 4.5000000000000009 6.5000000000000009 2.5000000000000004 1.5000000000000002 5.5000000000000009 5.5000000000000009 2.5000000000000004 1.0000000180025095e-35 1.0408250000000001
decision_type=2 2 2 2 2 2 2 2 2 2 2 2 2 2 2 2 2 2 2 2 2 2 2 2 2 2 2 2 2 2
left_child=1 4 3 -2 -1 -5 8 12 9 -3 11 -9 -8 -14 15 -15 -4 24 -10 20 -11 -21 -23 -22 -6 26 -20 -19 -29 -30
right_child=2 6 16 5 17 -7 7 10 18 19 -12 -13 13 14 -16 -17 -18 27 25 21 23 22 -24 -25 -26 -27 -28 28 29 -31
leaf_value=-0.0084598146726565029 0.057669115493911016 -0.012020957704551459 0.0031996682530395625 -0.040905431215808093 0.040804866616971545 -6.0108648140613785e-05 0.01766391788720249 0.039400099121712745 0.12530127340851474 0.15845988633924116 0.13369821178327077 0.13931000520984657 0.021178752569759665 0.089251396825566404 0.020861473347291718 0.20536633234242171 0.072291537471073836 0.064761213091584224 0.079992983115604058 0.038978500879561492 0.0094110141885590821 0.069433452185235153 0.16309992882720936 0.11781980121106223 0.13821973862608047 0.11370979979462058 -0.011037607209695896 0.000834178722749334 0.10303292665628178 0.020182200403798655
leaf_weight=32.435117274522781 5.9785680323839179 4.9021693319082251 59.39076492190361 378.96218936145306 3.5903626531362525 30.831966876983643 29.011296212673187 17.624768465757377 20.186849802732468 6.9499411880970028 7.0754679590463629 4.9344317466020575 10.942635744810106 5.2952506840229017 3.9384113997220984 3.0180827081203461 5.2282474786043158 11.163665294647215 5.2875147461891157 23.831516981124878 4.7853422462940198 20.466102913022045 5.5816970765590659 5.598060131072998 3.8683614283800125 6.6911464482545844 3.1252636909484863 17.230013832449917 3.770961329340933 4.7781592011451721
leaf_count=239 42 35 446 2992 25 233 205 121 134 47 48 33 76 36 28 20 38 78 36 164 33 139 38 38 27 44 21 121 26 34
internal_value=0 0.0547264 -0.0303725 -0.0364591 0.0212022 -0.0378323 0.0683377 0.0518888 0.0808713 0.0694348 0.0785503 0.0612536 0.0367544 0.0606325 0.0958706 0.131406 0.00878981 0.0428702 0.104241 0.0753758 0.104186 0.0653642 0.0895049 0.067858 0.0913277 0.076094 0.046176 0.0330866 0.0193699 0.0567271
internal_weight=0 266.083 480.392 415.773 76.8366 409.794 189.246 81.8403 107.406 72.1148 29.6347 22.5592 52.2057 23.1944 12.2517 8.31333 64.619 44.4015 35.2908 67.2127 17.3333 49.8793 26.0478 10.3834 7.45872 15.1039 8.41278 36.9428 25.7791 8.54912
internal_count=5597 1846 3751 3267 550 3225 1296 567 729 494 202 154 365 160 84 56 484 311 235 459 118 341 177 71 52 101 57 259 181 60
is_linear=0
shrinkage=0.05


Tree=6
num_leaves=31
num_cat=0
split_feature=19 16 0 17 16 16 11 3 18 16 4 9 4 17 2 0 16 6 16 16 18 6 3 13 13 13 14 16 15 9
split_gain=110.318 131.237 97.5584 30.1605 26.5763 25.7504 18.5693 18.1563 16.7526 15.3477 14.2336 13.4974 13.2868 11.2381 13.5085 11.7984 10.9246 10.8449 10.234 14.212 10.1162 9.50582 19.4522 19.9718 8.42949 11.7329 12.872 10.1776 8.92372 8.10546
threshold=-1.0000000180025095e-35 1.8756450000000002 8.5000000000000018 -1.0000000180025095e-35 1.0004550000000003 1.2789600000000003 10.500000000000002 8.5000000000000018 31.000000000000004 3.1650300000000002 4.5000000000000009 1.0000000180025095e-35 7.5000000000000009 1.0000000180025095e-35 1.0000000180025095e-35 2.5000000000000004 1.4609500000000002 6.5000000000000009 1.5390150000000002 1.6195900000000003 26.000000000000004 4.5000000000000009 4.5000000000000009 2.5000000000000004 5.5000000000000009 11.500000000000002 12.500000000000002 1.6632700000000002 11.500000000000002 12.500000000000002
decision_type=2 2 2 2 2 2 2 2 2 2 2 2 2 2 2 2 2 2 2 2 2 2 2 2 2 2 2 2 2 2
left_child=1 4 3 -2 13 29 -5 8 18 10 11 -3 -7 14 -1 -16 -8 -12 21 -20 -21 -6 23 -23 -14 26 28 -27 -26 -4
right_child=2 9 5 6 7 12 16 -9 -10 -11 17 -13 24 -15 15 -17 -18 -19 19 20 -22 22 -24 -25 25 27 -28 -29 -30 -31
leaf_value=-0.0083115370155708024 0.11082789686090321 0.095945174124015944 0.00099137607642654064 -0.037271566583112738 0.022638308852638359 0.010222670775399014 0.010794374824105085 0.19835174554715906 0.0051388494283010067 0.27056742666088013 0.055286454242948251 0.22074880173566658 0.013194976862217262 -0.02318127359345816 0.14453374004660499 -0.012453832107697885 0.15707539131848652 0.18378590858132404 0.20607506795320341 0.113147256069693 -0.040113890868452629 0.27969768891428975 0.014324036961296789 0.076672800101146327 0.083039206543452773 0.13887181907590046 0.27038983433088964 -0.0020507698282667894 0.20783687481716029 0.066556252081410694
leaf_weight=9.4720369055867177 3.6370068341493598 3.2992679476738029 20.746994219720367 218.03750801831484 21.480856157839298 3.9864139631390598 7.8871112391352636 1.6776837110519398 32.098603025078773 2.4090701192617408 6.2550030797719938 6.3090724498033524 1.8703087493777264 41.692993700504303 3.5208874568343154 1.813156224787235 1.5227787494659422 2.2264076992869377 2.4358631819486609 2.9339571669697762 1.7008798718452451 1.8750691115856151 5.5053117722272873 3.4219547435641289 4.0529009848833066 2.5091995224356642 2.0916698798537254 2.6179917231202126 2.2154352962970734 6.0997422486543647
leaf_count=122 41 37 268 3011 258 52 104 21 406 25 67 65 22 540 44 23 20 23 29 35 21 22 67 41 47 28 24 31 25 78
internal_value=0 0.0344544 -0.0187596 -0.0320194 0.0158644 0.0475773 -0.0343036 0.0357637 0.0319462 0.152013 0.136225 0.177894 0.0915576 -0.00989251 0.0275278 0.0911703 0.0344667 0.0890181 0.0538113 0.108294 0.0569039 0.0418785 0.0801384 0.148541 0.11267 0.126465 0.162986 0.0669154 0.127147 0.0158881
internal_weight=0 150.128 277.275 231.084 129.629 46.1907 227.447 73.1302 71.4525 20.4988 18.0898 9.60834 19.3439 56.4991 14.8061 5.33404 9.40989 8.48141 39.3539 7.0707 4.63484 32.2832 10.8023 5.29702 15.3575 13.4872 8.36001 5.12719 6.26834 26.8467
internal_count=5597 1846 3751 3176 1629 575 3135 900 879 217 192 102 229 729 189 67 124 90 473 85 56 388 130 63 177 155 96 59 72 346
is_linear=0
shrinkage=0.05


Tree=7
num_leaves=31
num_cat=0
split_feature=19 6 17 2 13 10 8 18 5 16 14 14 7 3 2 2 4 18 11 8 4 1 16 12 16 6 6 12 14 13
split_gain=2704.03 203.664 103.529 56.2699 15.2593 12.2258 11.6442 11.2718 8.10616 7.05776 5.3519 4.97567 4.73189 4.39607 3.91523 3.75 3.56534 3.61299 3.19761 3.15181 2.85475 4.38994 4.2297 4.94899 3.23248 2.5177 2.02814 1.99556 1.84368 1.77984
threshold=-1.0000000180025095e-35 8.5000000000000018 -1.0000000180025095e-35 8.5000000000000018 7.5000000000000009 12.500000000000002 2.5000000000000004 31.000000000000004 11.500000000000002 1.2789600000000003 6.5000000000000009 8.5000000000000018 3.5000000000000004 10.500000000000002 13.500000000000002 8.5000000000000018 8.5000000000000018 29.000000000000004 9.5000000000000018 11.500000000000002 11.500000000000002 9.5000000000000018 1.2072450000000001 6.5000000000000009 1.0564400000000003 10.500000000000002 11.500000000000002 10.500000000000002 11.500000000000002 10.500000000000002
decision_type=2 2 2 2 2 2 2 2 2 2 2 2 2 2 2 2 2 2 2 2 2 2 2 2 2 2 2 2 2 2
left_child=-1 2 -2 5 10 19 -3 8 12 15 -5 -9 -8 -13 20 -10 18 -18 -6 29 22 -22 23 -14 -25 -24 -17 -28 -15 -4
right_child=1 6 3 4 16 -7 7 11 9 -11 -12 13 14 28 -16 26 17 -19 -20 -21 21 -23 25 24 -26 -27 27 -29 -30 -31
leaf_value=-0.08575032216214791 -0.08624740970520077 0.0398845635133303 0.059184082250999054 0.05119771942453695 0.025466043674137181 -0.0061608133010229221 0.037224368465170507 0.046858423975185644 -0.0440359159096438 -0.054580132383560534 -3.1815276497798913e-05 0.033180238059891502 -0.042362822482317486 0.0080657255757514059 -0.037061871473075006 0.013168163527272961 -0.051929866961201047 -0.0057292393757089437 -0.023490620635509343 0.025129093777122243 0.0053905018831928372 -0.03666313397058809 -0.0045992982570196529 0.020100587058306668 -0.022523168744566904 0.032668213124752966 0.0024439978155469818 -0.035625082784731844 -0.028243122120462857 0.039988382203470077
leaf_weight=605.60043469071388 13.10643833875656 14.208952963352202 894.26589295268059 16.888436198234562 6.9683034420013445 7.3309150338172904 6.3137622177600852 10.719851762056349 8.3764634728431719 18.120774447917938 7.3024656772613517 8.87190228700638 8.0465287864208239 6.408522814512251 9.9731321334838849 9.2337135076522845 9.9785478413105029 7.3476098179817191 6.3974924087524414 6.9517210125923148 11.474998056888582 13.514276146888731 6.7148244976997402 12.061944276094438 7.0466920435428611 13.940760195255278 6.7002027630805951 7.0798069834709167 7.6935340762138367 12.241047590970991
leaf_count=1846 40 45 2870 54 22 23 20 34 26 56 23 28 25 20 31 29 31 23 20 22 36 42 21 38 22 44 21 22 24 39
internal_value=0 0.0443053 0.0533448 0.05522 0.00603668 0.0581515 -0.00362016 -0.00720801 -0.0135137 -0.0297339 0.0357331 0.0187301 -0.00449916 0.00560512 -0.00768174 -0.0153907 -0.0173696 -0.0323373 0.0020331 0.0586677 -0.00365685 -0.0173522 0.00350132 -0.00946911 0.00438222 0.0205531 -0.00496453 -0.0171149 -0.011743 0.0589249
internal_weight=0 1175.28 988.779 975.672 54.8829 920.79 186.501 172.292 138.598 49.511 24.1909 33.6938 89.0869 22.974 82.7732 31.3902 30.692 17.3262 13.3658 913.459 72.8 24.9893 47.8107 27.1552 19.1086 20.6556 23.0137 13.78 14.1021 906.507
internal_count=5597 3751 3167 3127 173 2954 584 539 433 154 77 106 279 72 259 98 96 54 42 2931 228 78 150 85 60 65 72 43 44 2909
is_linear=0
shrinkage=0.05


Tree=8
num_leaves=31
num_cat=0
split_feature=19 6 17 7 5 16 13 16 0 7 12 18 4 18 10 4 5 4 11 2 0 8 9 0 14 3 12 5 15 1
split_gain=1197.39 47.129 27.0483 20.313 14.2892 11.9817 11.8811 9.73825 9.54107 7.82364 11.6221 7.79643 8.08859 7.69648 7.60643 8.19438 8.32495 7.52131 7.30859 7.74917 6.89234 6.76087 5.92078 5.80286 5.68911 5.43789 5.07168 8.53256 4.96004 4.92439
threshold=-1.0000000180025095e-35 8.5000000000000018 -1.0000000180025095e-35 4.5000000000000009 8.5000000000000018 1.5947450000000003 5.5000000000000009 2.1268550000000004 5.5000000000000009 1.0000000180025095e-35 2.5000000000000004 31.000000000000004 1.0000000180025095e-35 31.000000000000004 2.5000000000000004 5.5000000000000009 3.5000000000000004 7.5000000000000009 4.5000000000000009 1.5000000000000002 12.500000000000002 4.5000000000000009 3.5000000000000004 1.0000000180025095e-35 4.5000000000000009 3.5000000000000004 3.5000000000000004 5.5000000000000009 1.0000000180025095e-35 2.5000000000000004
decision_type=2 2 2 2 2 2 2 2 2 2 2 2 2 2 2 2 2 2 2 2 2 2 2 2 2 2 2 2 2 2
left_child=3 2 -2 5 -4 8 14 13 9 10 25 12 -7 26 15 16 -5 21 19 23 -6 -16 -13 -12 -10 28 -8 -28 -1 -14
right_child=1 -3 4 6 20 11 7 -9 24 -11 18 22 29 -15 17 -17 -18 -19 -20 -21 -22 -23 -24 -25 -26 -27 27 -29 -30 -31
leaf_value=0.10097766353438119 0.037658258869577722 -0.010549840470914038 -0.046186153559511528 0.013973640159964466 -0.022868601096232337 0.062458589210849284 -0.015354328247030175 -0.031649274752313689 0.069042108813331324 0.089201844000653119 0.079432278552295288 0.036092160088244146 -0.019072056112057145 0.05140252219858276 0.073533957309519005 0.13452324518335421 0.087753550893288512 0.0055382709691187441 0.090247638166469357 0.0038446619328679574 0.039899847931405538 0.045172556549181064 0.097528147594599768 0.014874780930458709 0.035996716273794492 0.049475076567756959 0.059587017098657769 -0.020315993660760933 0.068147479480087605 0.033551927146320187
leaf_weight=32.213759645819664 10.205609947443007 133.28844204545021 619.45951442420483 5.3176054805517259 32.495665609836578 12.762281090021135 8.5867271721363085 5.4739089459180823 32.312401309609413 100.14039002358913 10.250531256198885 6.2881821393966701 7.9238277971744564 39.397303953766823 34.414731666445732 5.8970183134078971 13.606282129883764 7.9824680835008612 7.401711404323577 11.872143045067785 5.0535853803157798 53.959649607539177 10.420618712902067 5.2707007825374594 21.81964199244976 10.370024189352987 9.9778120964765531 5.0231591314077368 17.896245732903481 10.127326413989065
leaf_count=118 40 584 2959 20 147 49 34 22 122 373 38 24 31 150 131 22 51 31 28 46 21 207 40 20 84 39 39 20 67 40
internal_value=0 -0.0376935 -0.043116 0.0617546 -0.0443707 0.0699158 0.0489698 0.0323191 0.0742978 0.0794434 0.0691867 0.0469052 0.0319919 0.0378785 0.0583766 0.0830587 0.0670214 0.0520187 0.0461633 0.0342516 -0.0144209 0.056217 0.0744074 0.0575098 0.0557221 0.0824324 0.0152899 0.032831 0.0892527 0.0104518
internal_weight=0 800.503 667.214 486.706 657.009 297.07 189.637 68.4589 249.548 195.416 95.2751 47.5222 30.8134 62.985 121.178 24.8209 18.9239 96.3568 34.7951 27.3934 37.5493 88.3744 16.7088 15.5212 54.132 60.48 23.5877 15.001 50.11 18.0512
internal_count=5597 3751 3167 1846 3127 1119 727 265 935 729 356 184 120 243 462 93 71 369 132 104 168 338 64 58 206 224 93 59 185 71
is_linear=0
shrinkage=0.05


Tree=9
num_leaves=31
num_cat=0
split_feature=19 12 13 17 2 16 2 7 14 0 6 18 5 12 4 9 15 16 13 0 16 10 16 6 4 6 16 16 6 16
split_gain=426.522 44.0905 38.5726 18.9619 16.8647 12.352 11.5827 10.8958 8.45817 10.894 9.04749 8.6435 8.38248 7.7691 11.6208 7.56166 7.1529 7.18882 12.9702 9.88692 7.1007 7.08314 9.61581 6.92003 6.80612 5.94378 5.94051 5.69823 7.38777 5.64671
threshold=-1.0000000180025095e-35 8.5000000000000018 1.0000000180025095e-35 -1.0000000180025095e-35 1.0000000180025095e-35 1.8756450000000002 8.5000000000000018 6.5000000000000009 4.5000000000000009 2.5000000000000004 3.5000000000000004 27.500000000000004 14.500000000000002 5.5000000000000009 5.5000000000000009 3.5000000000000004 4.5000000000000009 0.88092000000000004 5.5000000000000009 4.5000000000000009 1.1521150000000002 1.0000000180025095e-35 1.5253900000000002 5.5000000000000009 1.0000000180025095e-35 9.5000000000000018 1.1123850000000002 1.2322950000000004 2.5000000000000004 0.70094300000000009
decision_type=2 2 2 2 2 2 2 2 2 2 2 2 2 2 2 2 2 2 2 2 2 2 2 2 2 2 2 2 2 2
left_child=2 3 4 -2 -1 8 25 -7 11 10 15 21 -3 27 -15 -10 17 -11 19 -19 24 -4 -23 -20 -6 -5 -12 28 -13 -18
right_child=1 12 5 6 20 7 -8 -9 9 16 26 13 -14 14 -16 -17 29 18 23 -21 -22 22 -24 -25 -26 -27 -28 -29 -30 -31
leaf_value=-0.008799348294424544 0.054574806111541842 0.00045140079119952221 0.030618776002351092 -0.041362349982307478 0.098425114164084671 0.0089481496735434578 -0.0073218522435044165 0.087498301292464276 0.11360578090963996 0.0085842537482982897 -0.018998998994378298 -0.028009914540386316 0.06389313466048703 0.021309395676301825 0.10964582110322343 0.018758861773357689 0.1553105965564269 0.10204391494756171 0.15007483936394067 0.013033485317085841 0.011621395003366942 0.08708044869542951 0.0058170904427494287 0.06133718561319227 0.040176361714690453 0.0029602639900831534 0.051155728912456414 -0.011808517035821059 0.05785470532172407 0.09117068806876058
leaf_weight=32.71039617061615 5.6268681585788718 70.304116472601891 10.145902886986731 343.14462798833847 6.3408071994781521 19.30878154933453 28.650983408093452 5.7233293056488028 6.0347367376089114 4.790796265006068 6.2463649660348874 3.2565513849258449 5.6231472939252845 7.7342066764831525 7.1785820871591568 3.2241064012050629 3.7506501823663703 4.8144883066415813 6.4373802393674833 8.8626973181962949 16.529800698161125 32.155006274580956 4.1050263196229926 3.3353186547756195 23.983487397432327 7.7344966754317275 5.8375366479158401 9.6540709435939771 10.856280282139776 40.321073964238167
leaf_count=239 37 533 66 2867 40 133 217 36 37 30 42 21 39 50 45 21 21 31 38 57 114 203 28 21 157 58 39 66 69 242
internal_value=0 -0.0296736 0.048275 -0.0365385 0.0187512 0.0598027 -0.0378894 0.0269078 0.0644095 0.0747767 0.0433876 0.0529983 0.00514987 0.0355428 0.063832 0.0805783 0.084041 0.0643963 0.0757986 0.0443659 0.0379852 0.0675475 0.0778806 0.11979 0.0523562 -0.0403853 0.0148916 0.0177924 0.0380414 0.0966292
internal_weight=0 461.084 283.337 385.157 79.5645 203.773 379.53 25.0321 178.741 93.6551 21.3427 85.0856 75.9273 38.6797 14.9128 9.25884 72.3124 28.2407 23.4499 13.6772 46.8541 46.4059 36.26 9.7727 30.3243 350.879 12.0839 23.7669 14.1128 44.0717
internal_count=5597 3751 1846 3179 550 1296 3142 169 1127 579 139 548 572 251 95 58 440 177 147 88 311 297 231 59 197 2925 81 156 90 263
is_linear=0
shrinkage=0.05


Tree=10
num_leaves=31
num_cat=0
split_feature=19 16 0 17 16 16 10 18 7 6 18 16 4 15 13 14 6 5 9 2 12 3 14 4 2 8 12 16 15 15
split_gain=93.8046 98.2528 89.2453 26.0598 21.7717 20.313 18.3737 12.7054 10.3176 12.1192 9.82981 11.463 10.0239 12.9396 9.81288 10.5764 8.97506 8.97083 13.7969 8.86166 12.7148 8.18332 8.53603 7.85069 7.68463 7.5569 7.7613 8.76107 8.38898 8.76391
threshold=-1.0000000180025095e-35 1.81884 8.5000000000000018 -1.0000000180025095e-35 1.0004550000000003 1.2789600000000003 9.5000000000000018 31.000000000000004 1.0000000180025095e-35 3.5000000000000004 31.000000000000004 2.1268550000000004 6.5000000000000009 6.5000000000000009 2.5000000000000004 4.5000000000000009 5.5000000000000009 6.5000000000000009 4.5000000000000009 5.5000000000000009 3.5000000000000004 6.5000000000000009 6.5000000000000009 11.500000000000002 4.5000000000000009 9.5000000000000018 12.500000000000002 0.86346050000000008 11.500000000000002 7.5000000000000009
decision_type=2 2 2 2 2 2 2 2 2 2 2 2 2 2 2 2 2 2 2 2 2 2 2 2 2 2 2 2 2 2
left_child=1 4 3 -2 8 25 -5 17 9 -1 11 -3 13 24 -7 -16 -13 18 19 21 -21 22 -6 -8 -12 -4 27 -27 29 -29
right_child=2 10 5 6 7 14 23 -9 -10 -11 12 16 -14 -15 15 -17 -18 -19 -20 20 -22 -23 -24 -25 -26 26 -28 28 -30 -31
leaf_value=0.0045278930047369225 0.09338863063853213 0.091896187753699246 -0.014805749428174154 -0.037449592050014351 0.027513769872465389 -0.01802633279595563 0.0033050991314269177 0.0077876394908981588 -0.025370647948536475 0.1239789976648009 0.12965598628187788 0.15080794803633293 -0.016431973750162428 0.21206294140480075 0.19075803101669297 0.077933668535730374 0.26231125584517384 0.11616263106520824 -0.0096992921493780099 0.038486416921596066 0.22123107348489068 0.14903897568615407 0.12129272972290304 0.097520603032688224 0.01887310973556763 -0.0024014832520901923 -0.026167051817075862 0.036349485395183311 0.0057500108473839684 0.16766272271321003
leaf_weight=16.807179421186451 4.0976678133010855 6.0188089162111309 11.947012625634672 204.03752917051315 19.121423974633228 2.2622800990939167 9.2431073710322362 33.397973246872425 37.749471046030521 2.4304752647876731 2.9287049248814565 6.750101797282694 2.0520836785435668 2.1689832210540771 2.3776290044188526 16.437559932470322 2.4632550030946732 4.4605658128857604 9.8333988860249502 1.8985585719346993 1.9087996110320089 1.8458493724465359 2.7792127430438986 2.9062959030270568 3.3627220913767815 3.9771331548690778 3.5816043242812148 1.9610653817653654 2.1807648241519928 3.6090535819530487
leaf_count=209 41 59 158 2979 213 28 120 411 494 26 28 56 21 19 26 175 19 46 118 21 20 20 30 36 36 49 44 24 27 44
internal_value=0 0.0305288 -0.0180251 -0.031525 0.01313 0.043501 -0.0338927 0.0307861 -0.010183 0.0196193 0.119895 0.145561 0.0827045 0.10675 0.0803612 0.092191 0.180619 0.0491408 0.0411446 0.0592897 0.130105 0.0479357 0.0394144 0.0258427 0.0704433 0.0149971 0.0382541 0.0579276 0.0888837 0.121431
internal_weight=0 157.978 268.619 220.285 132.233 48.3341 216.187 75.2458 56.9871 19.2377 25.7447 15.2322 10.5125 8.46041 21.0775 18.8152 9.21336 41.8478 37.3872 27.5538 3.80736 23.7465 21.9006 12.1494 6.29143 27.2566 15.3096 11.728 7.75088 5.57012
internal_count=5597 1846 3751 3176 1608 575 3135 879 729 235 238 134 104 83 229 201 75 468 422 304 41 263 243 156 64 346 188 144 95 68
is_linear=0
shrinkage=0.05


Tree=11
num_leaves=31
num_cat=0
split_feature=19 8 17 4 19 6 1 18 10 15 0 7 3 15 10 7 15 9 9 14 15 10 18 18 7 1 14 7 1 8
split_gain=2362.47 187.951 73.6335 39.8193 25.6344 12.8012 11.7528 8.3631 7.10722 6.45911 6.39357 6.17383 5.95552 6.62684 5.58566 5.48941 5.43507 5.31194 4.88644 4.41125 4.3207 4.27627 4.69964 3.3773 4.30021 3.19339 4.6648 3.00274 2.57051 2.31274
threshold=-1.0000000180025095e-35 7.5000000000000009 -1.0000000180025095e-35 9.5000000000000018 1.0000000180025095e-35 2.5000000000000004 9.5000000000000018 29.000000000000004 10.500000000000002 9.5000000000000018 8.5000000000000018 11.500000000000002 11.500000000000002 7.5000000000000009 9.5000000000000018 7.5000000000000009 8.5000000000000018 11.500000000000002 10.500000000000002 9.5000000000000018 6.5000000000000009 7.5000000000000009 29.000000000000004 33.500000000000007 9.5000000000000018 11.500000000000002 12.500000000000002 9.5000000000000018 9.5000000000000018 13.500000000000002
decision_type=2 2 2 2 2 2 2 2 2 2 2 2 2 2 2 2 2 2 2 2 2 2 2 2 2 2 2 2 2 2
left_child=-1 2 -2 6 -3 -6 19 10 11 -8 14 29 23 -14 15 -7 20 -15 -13 -4 -12 -5 -23 24 -10 26 28 -16 -18 -9
right_child=1 4 3 21 5 7 9 8 12 -11 16 18 13 17 27 -17 25 -19 -20 -21 -22 22 -24 -25 -26 -27 -28 -29 -30 -31
leaf_value=-0.079147487152008089 -0.080697104009684953 0.057683028852112295 0.057148669367963326 0.01670176241221849 0.0447378376013296 0.044070662111854467 0.037711505190700566 0.040908591927906246 -0.037364319841395786 -0.022325539834680445 -0.024046668853217816 0.019627820077835159 -0.069137229762355104 -0.035213848208450103 -0.041030281085553538 -0.0063177142984818888 -0.021090150611176566 0.016087813618071135 -0.037081073679113466 0.030195026722216235 0.022842175930995103 -0.047230607665605537 0.0087150656164408386 0.031313873892896207 0.014744132403945356 -0.014336434465433329 -0.079775527102679142 -0.0020328019264862197 -0.059939854208814418 0.0065704370698544097
leaf_weight=613.50419703125954 10.271283328533171 18.7984399497509 847.39135253429413 12.308096259832384 13.023608833551405 9.5885385274887103 13.912016749382021 21.56745466589928 6.4355687499046388 6.6078084409236899 13.773398399353029 8.2698475122451764 6.4235432744026211 10.622807323932649 9.5946643054485339 12.388675719499586 12.50252172350884 9.6110039949417096 7.0259504914283744 15.456704109907148 7.637421488761901 8.6323342621326429 6.6421770453453055 10.096898555755613 10.289482712745665 9.6462096869945508 8.0370012223720533 10.166332513093947 6.456615835428237 6.34652554988861
leaf_count=1846 31 62 2797 39 42 31 45 68 20 21 43 26 20 33 30 39 39 30 22 50 24 27 21 32 32 30 25 32 20 20
internal_value=0 0.0423634 0.0524282 0.0539292 0.00175088 -0.00326782 0.0557764 -0.00644985 0.00402992 0.0183783 -0.0166038 0.019111 -0.00815519 -0.024892 -0.00167791 0.0156665 -0.027335 -0.0108457 -0.00642076 0.0566658 -0.00732102 -0.00522998 -0.0229024 0.00847895 -0.00530648 -0.0390296 -0.0478529 -0.0209675 -0.0343206 0.0331015
internal_weight=0 1149.52 921.222 910.95 228.303 209.504 883.368 196.48 96.6891 20.5198 99.7914 43.2098 53.4793 26.6574 41.7382 21.9772 58.0532 20.2338 15.2958 862.848 21.4108 27.5826 15.2745 26.822 16.7251 36.6423 26.9961 19.761 18.9591 27.914
internal_count=5597 3751 3031 3000 720 658 2913 616 303 66 313 136 167 83 132 70 181 63 48 2847 67 87 48 84 52 114 84 62 59 88
is_linear=0
shrinkage=0.05


Tree=12
num_leaves=31
num_cat=0
split_feature=19 6 17 16 5 7 12 18 2 13 18 11 6 16 0 0 16 15 13 13 12 2 13 1 16 11 11 3 10 0
split_gain=1033.79 45.1904 25.1764 17.1288 13.957 12.2602 9.69946 7.97082 7.49813 9.0019 8.33104 9.39093 10.0726 7.39829 6.35693 6.22723 6.13499 6.10114 5.73483 5.59815 5.5657 5.17402 5.13176 4.99496 5.33991 4.89452 4.79916 4.767 4.82817 4.36626
threshold=-1.0000000180025095e-35 8.5000000000000018 -1.0000000180025095e-35 1.5148950000000003 8.5000000000000018 4.5000000000000009 5.5000000000000009 31.000000000000004 1.0000000180025095e-35 1.0000000180025095e-35 26.000000000000004 3.5000000000000004 3.5000000000000004 1.0564400000000003 5.5000000000000009 12.500000000000002 0.74174050000000002 6.5000000000000009 3.5000000000000004 4.5000000000000009 1.0000000180025095e-35 4.5000000000000009 5.5000000000000009 4.5000000000000009 2.0519650000000005 4.5000000000000009 4.5000000000000009 4.5000000000000009 5.5000000000000009 5.5000000000000009
decision_type=2 2 2 2 2 2 2 2 2 2 2 2 2 2 2 2 2 2 2 2 2 2 2 2 2 2 2 2 2 2
left_child=3 2 -2 5 -4 8 23 13 9 -1 11 12 20 14 -7 -6 -11 22 -15 -13 -10 -19 -9 26 -25 -20 -5 -24 -29 -12
right_child=1 -3 4 6 15 7 -8 17 10 16 29 19 -14 18 -16 -17 -18 21 25 -21 -22 -23 27 24 -26 -27 -28 28 -30 -31
leaf_value=0.090742004379323449 0.034589504414737168 -0.010147363095488499 -0.045433124752133625 0.046299879647345658 -0.022060445455349163 0.063552802684175111 0.013893594987833009 0.075584484579501635 0.064521860932058792 0.098320756568756204 0.076411234122909649 0.11056035818250054 -0.0065295241642890052 0.042247503081028329 0.015677945292487762 0.037022102356077939 0.048503773553257544 0.073053573285578849 0.027519414785186408 0.050529508873983303 0.018031803056767357 0.015060085185558555 0.074796342093699425 0.07427079307070085 0.031824288760520646 -0.028433828037523225 0.010120064726149028 -0.0020303853707542689 0.058581886334975755 0.055431602703971884
leaf_weight=55.338872820138931 10.479322910308836 132.29786819219589 587.84098398685455 31.905684947967529 31.853145852684975 24.904286980628967 30.795692548155785 43.355566263198853 18.198323071002964 7.8210384845733634 64.892159268260002 7.0039311945438376 12.063068136572836 11.554605245590212 9.6091932207345945 5.1858974248170844 29.456737548112869 5.5442093014717129 6.9287443757057181 8.7172175347805005 9.9619850218296033 12.556202679872511 8.5935022532939929 24.015263378620148 10.715674653649328 8.9660002440214139 12.860377430915831 6.8779174089431745 6.2902984023094177 40.141037553548813
leaf_count=189 40 584 2959 118 147 91 119 155 65 27 231 25 45 42 36 21 106 20 26 32 37 46 31 88 40 35 48 25 23 146
internal_value=0 -0.0367327 -0.0422685 0.0551564 -0.0435574 0.0599799 0.0377168 0.0483929 0.0666133 0.0779481 0.0600919 0.0445064 0.0316994 0.0348157 0.0502236 -0.0137882 0.0589556 0.0585023 0.0154426 0.0772739 0.0480755 0.0328237 0.0656401 0.0469455 0.0611746 -0.00404302 0.0359062 0.045828 0.0269234 0.0683933
internal_weight=0 767.657 635.359 509.068 624.88 398.775 110.293 145.181 253.594 92.6166 160.978 55.9445 40.2234 61.9628 34.5135 37.039 37.2778 83.2177 27.4493 15.7211 28.1603 18.1004 65.1173 79.497 34.7309 15.8947 44.7661 21.7617 13.1682 105.033
internal_count=5597 3751 3167 1846 3127 1433 413 530 903 322 581 204 147 230 127 168 133 300 103 57 102 66 234 294 128 61 166 79 48 377
is_linear=0
shrinkage=0.05


Tree=13
num_leaves=31
num_cat=0
split_feature=19 7 13 2 5 8 12 16 18 6 17 16 14 11 9 10 10 1 1 1 6 2 14 14 2 1 11 10 2 14
split_gain=370.947 42.9474 31.4351 15.5009 13.3064 9.99234 9.76329 10.3601 8.11182 9.69205 7.81238 7.1918 7.05086 6.9572 7.72192 10.73 6.84145 14.9854 6.57747 6.28941 8.97363 8.68846 6.88898 6.33451 6.16131 6.78075 6.70017 6.06713 6.67619 8.98895
threshold=-1.0000000180025095e-35 7.5000000000000009 1.5000000000000002 1.0000000180025095e-35 11.500000000000002 5.5000000000000009 4.5000000000000009 1.7474100000000001 23.000000000000004 5.5000000000000009 -1.0000000180025095e-35 1.1521150000000002 11.500000000000002 2.5000000000000004 6.5000000000000009 4.5000000000000009 14.500000000000002 11.500000000000002 1.0000000180025095e-35 5.5000000000000009 2.5000000000000004 3.5000000000000004 3.5000000000000004 2.5000000000000004 5.5000000000000009 6.5000000000000009 6.5000000000000009 6.5000000000000009 3.5000000000000004 5.5000000000000009
decision_type=2 2 2 2 2 2 2 2 2 2 2 2 2 2 2 2 2 2 2 2 2 2 2 2 2 2 2 2 2 2
left_child=2 4 3 -1 10 6 7 13 9 -7 -2 -5 16 18 -15 -16 -3 -18 -4 20 23 -21 -23 -8 25 -10 -26 28 29 -22
right_child=1 12 5 11 -6 8 19 -9 24 -11 -12 -13 -14 14 15 -17 17 -19 -20 21 27 22 -24 -25 26 -27 -28 -29 -30 -31
leaf_value=-0.0064589603373706632 0.020840540785584401 -0.012401756244771424 0.020404008780807135 0.048368542391568958 0.032937836117599421 0.1504777041206011 0.036252760634663657 -0.013806000999159549 0.060515040290508131 0.054313633574498248 -0.039600596039804141 0.011789566190845154 0.022524060514149655 0.021600044679225137 0.013836334066579659 0.13476226193432606 0.1195618321166782 -0.042279299442378696 0.099046275237236414 0.010141902910568689 0.1218888216057944 0.043964849872938569 0.11148423777671673 0.11112528444413601 0.065877782474938071 0.0074728716707452422 0.12491745507538128 -0.0043761352399014197 0.026306708941334696 0.025288517406830521
leaf_weight=36.04741270840168 5.4336361438035956 65.599000476300716 3.8941877782344809 37.434038579463959 6.6219622120261183 6.1520053446292859 4.3582083582878104 10.259876772761343 26.770251244306564 4.5640105009078979 332.83669984340668 20.96187399327755 26.17028172314167 35.115989103913307 3.4619030803441992 3.9021321535110474 3.0827763155102721 2.6683323606848717 8.3811242431402189 3.6903297156095531 5.4289831668138522 5.1189602315425899 14.41906952857971 8.0296362042427045 18.591783300042156 7.7752406895160666 6.4805442988872519 7.5829979926347724 15.597801491618155 4.3280303478240967
leaf_count=260 34 508 24 229 48 35 26 69 160 27 2927 140 192 214 21 22 22 20 50 22 33 31 82 46 108 47 36 46 92 26
internal_value=0 -0.0289718 0.0431705 0.019323 -0.0372556 0.0542162 0.0461842 0.0323031 0.0694694 0.109521 -0.0386297 0.0352381 0.00032491 0.0409429 0.0313622 0.0779138 -0.00781745 0.0444727 0.074098 0.0593488 0.0485071 0.0805042 0.0937942 0.0847841 0.0622704 0.0485767 0.081138 0.0348634 0.046599 0.0790387
internal_weight=0 442.413 298.346 94.4433 344.892 203.903 133.569 65.0152 70.3338 10.716 338.27 58.3959 97.5204 54.7553 42.48 7.36404 71.3501 5.75111 12.2753 68.554 45.3257 23.2284 19.538 12.3878 59.6178 34.5455 25.0723 32.9378 25.3548 9.75701
internal_count=5597 3751 1846 629 3009 1217 804 400 413 62 2961 369 742 331 257 43 550 42 74 404 269 135 113 72 351 207 144 197 151 59
is_linear=0
shrinkage=0.05


Tree=14
num_leaves=31
num_cat=0
split_feature=19 0 16 17 16 10 16 18 17 2 3 4 16 4 3 11 5 9 8 10 9 1 2 16 16 6 13 12 14 10
split_gain=80.6757 81.7512 76.4106 23.1818 18.8971 17.5395 16.5797 11.1455 9.95825 10.4992 8.69117 8.53113 7.68336 7.22113 6.84921 10.3641 6.65978 11.4273 6.58429 6.85704 7.96097 6.51847 6.46411 6.27102 6.25525 9.56515 6.51581 5.72385 8.98263 5.67762
threshold=-1.0000000180025095e-35 8.5000000000000018 1.8060150000000001 -1.0000000180025095e-35 1.0004550000000003 9.5000000000000018 1.2789600000000003 31.000000000000004 1.0000000180025095e-35 1.0000000180025095e-35 2.5000000000000004 7.5000000000000009 3.1650300000000002 4.5000000000000009 9.5000000000000018 10.500000000000002 6.5000000000000009 4.5000000000000009 9.5000000000000018 13.500000000000002 10.500000000000002 4.5000000000000009 5.5000000000000009 1.2519400000000003 1.5390150000000002 4.5000000000000009 2.5000000000000004 5.5000000000000009 1.0000000180025095e-35 8.5000000000000018
decision_type=2 2 2 2 2 2 2 2 2 2 2 2 2 2 2 2 2 2 2 2 2 2 2 2 2 2 2 2 2 2
left_child=2 3 4 -2 8 -5 18 16 9 -1 -11 -8 13 27 -7 -16 17 22 -3 20 -20 -15 24 -24 25 -6 -27 28 -4 -13
right_child=1 6 12 5 7 14 11 -9 -10 10 -12 29 -14 21 15 -17 -18 -19 19 -21 -22 -23 23 -25 -26 26 -28 -29 -30 -31
leaf_value=-0.0088006151074612841 0.081456911994593914 -0.01438794064730106 0.1549977465254686 -0.037190803135580063 0.014190025611342897 -0.010290153397943038 0.0074040082703803745 0.0058590934767628888 -0.023117510203866536 0.11567131252645049 -0.013767382817688651 0.033759753699223981 0.16953355494230585 0.10222203580006867 -0.004583931628932481 0.12961532479243276 0.098284834617618652 -0.0096402326954422891 0.011231879927254449 -0.040173865783652521 0.088300524046625195 0.028330755586317091 0.049886548425157683 0.17033074436070086 0.10152780138828228 0.15550541603577162 0.038851572122211409 0.17709487290031775 0.062504952911340311 0.10094955944051881
leaf_weight=9.6070092394947988 4.4833925366401663 11.768373824656011 4.3180793225765282 192.86672645062208 16.443636819720279 6.7335277348756772 4.2078114971518543 33.665690004825592 41.533001236617565 4.159362167119979 1.8843854144215582 4.0205759331584003 3.530833773314952 5.5503692999482137 2.8157083988189697 2.9418693855404854 5.015883393585681 9.8080454692244512 6.7991712838411313 2.5542689785361281 6.6068443581461906 6.4568256661295891 2.1966397166252127 2.1272845938801765 3.8572646751999846 2.2860661074519149 2.5128255262970924 2.9593979418277732 6.6948117315769196 14.423075862228869
leaf_count=122 41 158 36 2979 179 87 52 406 540 45 22 41 25 47 35 34 46 117 81 31 76 60 21 20 37 21 26 22 54 136
internal_value=0 -0.0172847 0.0274405 -0.0310165 0.0115189 -0.0334721 0.0399108 0.0275394 -0.0103091 0.0236812 0.0753135 0.0716462 0.100329 0.0909234 0.0239463 0.063986 0.0440348 0.0370988 0.0139862 0.0349079 0.0492134 0.0624873 0.0526787 0.109143 0.0429517 0.0323153 0.0944224 0.11536 0.0987707 0.0863027
internal_weight=0 260.221 164.607 209.841 135.097 205.358 50.3801 77.9133 57.1838 15.6508 6.04375 22.6515 29.5103 25.9795 12.4911 5.75758 44.2476 39.2318 27.7287 15.9603 13.406 12.0072 29.4237 4.32392 25.0998 21.2425 4.79889 13.9723 11.0129 18.4437
internal_count=5597 3751 1846 3176 1602 3135 575 873 729 189 67 229 244 219 156 69 467 421 346 188 157 107 304 41 263 226 47 112 90 177
is_linear=0
shrinkage=0.05


Tree=15
num_leaves=31
num_cat=0
split_feature=19 8 17 4 19 6 1 18 10 15 4 7 10 3 15 9 7 9 14 14 7 18 10 9 15 13 11 8 6 4
split_gain=2084.15 174.322 66.4187 37.3304 23.33 11.6416 11.2451 7.87307 6.48148 5.97841 5.85132 5.72537 5.59042 5.44278 6.05836 4.93212 4.55258 4.47816 4.2512 4.19652 6.817 3.98205 4.20019 3.16231 2.71587 4.82851 2.33668 2.16536 2.05689 1.84246
threshold=-1.0000000180025095e-35 7.5000000000000009 -1.0000000180025095e-35 9.5000000000000018 1.0000000180025095e-35 2.5000000000000004 9.5000000000000018 29.000000000000004 10.500000000000002 9.5000000000000018 9.5000000000000018 11.500000000000002 9.5000000000000018 11.500000000000002 7.5000000000000009 12.500000000000002 11.500000000000002 10.500000000000002 9.5000000000000018 7.5000000000000009 7.5000000000000009 29.000000000000004 7.5000000000000009 11.500000000000002 8.5000000000000018 9.5000000000000018 8.5000000000000018 13.500000000000002 11.500000000000002 11.500000000000002
decision_type=2 2 2 2 2 2 2 2 2 2 2 2 2 2 2 2 2 2 2 2 2 2 2 2 2 2 2 2 2 2
left_child=-1 2 -2 6 -3 -6 18 10 11 -8 12 27 19 23 -15 -16 -14 -13 -4 20 -7 22 -5 -10 29 -26 -21 28 -9 -12
right_child=1 4 3 21 5 7 9 8 13 -11 24 17 16 14 15 -17 -18 -19 -20 26 -22 -23 -24 -25 25 -27 -28 -29 -30 -31
leaf_value=-0.073949711963829629 -0.075590758728575125 0.055789799904012553 0.055231355645258565 0.0078131957671424886 0.043061896839831276 0.025800491724704153 0.035961400211190944 0.050064183416469635 0.022154340040935194 -0.021942277509862319 0.0017241645553639361 0.018960259725756615 -0.042946535843979033 -0.065582375525852193 -0.027425876102091504 0.02499739065064073 0.0045431793497674568 -0.035281439804039721 0.028551104638946209 0.052523137739786778 -0.04297253775431166 0.015952029480743479 -0.045106215691699897 -0.013015236912989043 -0.011432664543353895 -0.052670410131890458 0.010844991070569254 0.0063196915916821561 0.016552461799579834 -0.028090566196086415
leaf_weight=614.94550305604935 10.317368686199186 18.20774918794632 820.48773384094238 6.5884345471859005 12.758637040853499 7.3828589618206042 13.655100435018541 14.683084517717367 16.221572786569599 6.6182774305343619 9.8677747845649737 8.2307664453983289 12.18287166953087 6.5019200444221523 13.592117607593538 6.6974864006042472 8.6154348552227003 7.0768705010414115 15.207147002220152 6.5276746153831464 7.0384572744369507 12.253451615571974 8.7018721401691419 10.547525972127913 11.280639171600344 19.146635502576828 6.9365906417369843 6.3330894112586966 6.6538199484348288 10.911612033843992
leaf_count=1846 31 62 2797 21 42 24 45 47 51 21 31 26 38 20 42 21 27 22 50 21 22 39 27 33 35 59 22 20 21 34
internal_value=0 0.0405927 0.0505367 0.0520096 0.00150524 -0.0032197 0.0538532 -0.00622583 0.00395661 0.0170586 -0.0160666 0.0184196 -0.00365559 -0.00764867 -0.0235809 -0.0101212 -0.0232745 -0.00611621 0.0547459 0.0109771 -0.00776482 -0.00528484 -0.0223038 0.00829687 -0.0278661 -0.0373819 0.0310512 0.0319934 0.0396137 -0.0139321
internal_weight=0 1121.22 893.829 883.512 227.395 209.187 855.968 196.429 96.5383 20.2734 99.8905 42.9776 48.6839 53.5606 26.7915 20.2896 20.7983 15.3076 835.695 27.8856 14.4213 27.5438 15.2903 26.7691 51.2067 30.4273 13.4643 27.67 21.3369 20.7794
internal_count=5597 3751 3031 3000 720 658 2913 616 303 66 313 136 154 167 83 63 65 48 2847 89 46 87 48 84 159 94 43 88 68 65
is_linear=0
shrinkage=0.05


Tree=16
num_leaves=31
num_cat=0
split_feature=19 6 17 7 5 11 16 13 16 5 0 10 18 4 7 12 0 11 2 12 8 16 9 0 4 18 1 6 15 16
split_gain=899.888 43.4036 23.3747 14.3732 13.7045 9.08571 8.10011 7.57726 9.73961 7.74845 6.75355 6.39747 6.27323 6.53887 6.0899 8.61835 5.7087 5.66874 6.01771 5.34253 7.34599 4.91766 4.59944 4.48636 4.4769 4.63457 4.2768 4.16302 4.13767 4.94303
threshold=-1.0000000180025095e-35 8.5000000000000018 -1.0000000180025095e-35 4.5000000000000009 8.5000000000000018 6.5000000000000009 1.5947450000000003 4.5000000000000009 2.1268550000000004 3.5000000000000004 5.5000000000000009 4.5000000000000009 31.000000000000004 1.0000000180025095e-35 1.0000000180025095e-35 2.5000000000000004 12.500000000000002 4.5000000000000009 1.5000000000000002 1.5000000000000002 4.5000000000000009 0.75586000000000009 3.5000000000000004 1.0000000180025095e-35 2.5000000000000004 36.000000000000007 2.5000000000000004 12.500000000000002 3.5000000000000004 1.0847950000000004
decision_type=2 2 2 2 2 2 2 2 2 2 2 2 2 2 2 2 2 2 2 2 2 2 2 2 2 2 2 2 2 2
left_child=3 2 -2 6 -4 7 10 9 -9 19 14 -11 13 -8 15 -1 -6 18 23 -5 -21 -12 -14 -17 -13 -26 -15 -3 -7 -30
right_child=1 27 4 5 16 28 12 8 -10 11 21 24 22 26 -16 17 -18 -19 -20 20 -22 -23 -24 -25 25 -27 -28 -29 29 -31
leaf_value=0.065977352245398496 0.031595237333652479 -0.01585069068296607 -0.044746112263940999 -0.012395778123111503 -0.021253121880725617 0.045479096407108219 0.051137587277732072 0.038332343369296792 -0.026974081502286848 0.079321757345486521 0.0096707252428008296 0.0075507956927492017 0.028668106345848567 -0.021270415097698257 0.07202689336360367 0.063423205329593654 0.03495288216705799 0.072827250053735068 -0.00055861442657044783 0.079833987547863722 0.011601119360159272 0.05067680410201128 0.080872970092031843 0.008669400509722279 0.038963594685838369 0.079421946200433607 0.026635025553846295 0.003255429348083972 0.035596211303109866 -0.0070664058550293759
leaf_weight=66.450503468513489 10.749171108007429 89.499682709574699 557.02294792234898 5.8162022233009365 31.20916149020195 10.075950264930723 13.801701277494429 70.180997997522354 6.2146871089935294 31.570930451154709 8.5637840926647169 5.6648487448692313 6.6863575279712704 8.2120086997747439 110.26080316305161 11.260401695966726 5.2822681665420523 8.174900680780409 12.488872572779654 7.4358756840229026 8.4013910591602308 49.996517539024353 11.434135317802427 5.6025332510471335 16.660897150635723 12.306960463523863 10.768043056130407 41.838068187236786 10.632736682891847 18.783903881907463
leaf_count=224 40 401 2959 20 147 36 49 252 24 109 30 20 24 31 373 38 21 28 46 26 30 176 40 20 59 43 40 183 38 70
internal_value=0 -0.0358157 -0.041478 0.0497626 -0.0428014 0.039359 0.056311 0.0445363 0.0330198 0.0545505 0.0597275 0.0630426 0.0380006 0.0249505 0.0638406 0.0551597 -0.0131171 0.0360042 0.0257485 0.0285869 0.0436377 0.0446801 0.0616097 0.0452318 0.0482026 0.0561523 0.00590801 -0.00976437 0.017826 0.00835413
internal_weight=0 735.601 604.264 527.446 593.514 203.745 323.701 164.253 76.3957 87.8571 272.798 66.2036 50.9022 32.7818 214.238 103.977 36.4914 37.5267 29.3518 21.6535 15.8373 58.5603 18.1205 16.8629 34.6327 28.9679 18.9801 131.338 39.4926 29.4166
internal_count=5597 3751 3167 1846 3127 727 1119 583 276 307 935 231 184 120 729 356 168 132 104 76 56 206 64 58 122 102 71 584 144 108
is_linear=0
shrinkage=0.05


Tree=17
num_leaves=31
num_cat=0
split_feature=19 19 13 4 2 17 16 7 14 0 6 16 7 15 4 5 18 10 1 5 10 16 15 6 13 16 18 16 4 10
split_gain=325.219 41.5074 25.9002 20.1448 12.7074 12.2197 8.63456 8.16042 6.1235 7.51108 7.01647 6.85685 6.33719 7.44258 9.87678 7.29818 7.62315 6.40149 5.75904 5.46227 8.49479 5.41471 5.7654 6.51564 7.7442 8.13235 6.0629 6.55729 5.18169 5.1411
threshold=-1.0000000180025095e-35 1.0000000180025095e-35 1.0000000180025095e-35 4.5000000000000009 1.0000000180025095e-35 -1.0000000180025095e-35 1.8756450000000002 6.5000000000000009 4.5000000000000009 2.5000000000000004 3.5000000000000004 1.5838250000000003 4.5000000000000009 4.5000000000000009 4.5000000000000009 5.5000000000000009 31.000000000000004 5.5000000000000009 4.5000000000000009 14.500000000000002 10.500000000000002 1.6277200000000003 4.5000000000000009 5.5000000000000009 5.5000000000000009 1.0408250000000001 36.000000000000007 0.77036500000000008 1.0000000180025095e-35 1.0000000180025095e-35
decision_type=2 2 2 2 2 2 2 2 2 2 2 2 2 2 2 2 2 2 2 2 2 2 2 2 2 2 2 2 2 2
left_child=2 -2 4 5 -1 -3 8 -8 11 10 -10 12 17 15 -15 16 -14 29 -13 -5 -21 22 23 24 -11 -26 27 -24 -6 -4
right_child=1 3 6 19 28 -7 7 -9 9 21 -12 18 13 14 -16 -17 -18 -19 -20 20 -22 -23 26 -25 25 -27 -28 -29 -30 -31
leaf_value=-0.009004133849302532 -0.041106141220749549 0.042606313364859691 0.01316833366492369 0.0011024135215621134 0.064995242878200618 -0.03717710084505961 0.0056252075818811545 0.069790786446413039 0.065105667114901886 0.030870216786867206 0.010102904671090094 0.043025189502246507 0.14880530688308968 -0.0044640315103141636 0.069591615723205727 0.044020714796561541 0.066670154915816321 0.0012104032804747453 -0.033811913016405092 -0.025235408651080989 0.082251989044486939 0.10145757114098486 0.13750253402633683 0.013136239222819941 0.047224200620869732 0.14347058153651207 0.046937053706279298 0.075465576750352842 0.023415646072474948 0.055631079779489917
leaf_weight=32.877143085002899 253.50179788470268 5.2108381390571585 9.6244707405567151 96.936944872140884 9.1328278779983503 60.761535562574863 20.43870668113232 6.5407629013061515 10.454671218991281 9.3104404062032753 13.017829537391661 4.6167004853486997 5.9285846799612063 7.4643338471651104 11.346116736531256 6.7614702731370917 5.396372526884079 11.01496137678623 5.1690529733896255 2.8522782698273641 5.1697575896978378 9.8432123214006406 5.1615462899208095 10.506140366196631 4.3024479448795301 4.4801898449659348 14.619303226470945 24.374511390924454 41.728911653161049 27.483028516173363
leaf_count=239 2376 32 58 740 52 550 133 36 58 54 81 29 32 42 62 38 31 65 33 20 33 50 25 63 22 22 77 127 259 158
internal_value=0 -0.0282666 0.0390009 -0.00922484 0.015222 -0.0308754 0.0477399 0.0211812 0.051307 0.0595603 0.0346012 0.0420731 0.0466351 0.0622248 0.040205 0.0851261 0.109668 0.034682 0.00243812 0.0043837 0.0440343 0.0666531 0.0619443 0.0444551 0.0626411 0.0963213 0.0732719 0.0863068 0.0308818 0.0446176
internal_weight=0 424.433 311.594 170.931 83.7389 65.9724 227.855 26.9795 200.875 106.07 23.4725 94.8051 85.0193 36.8969 18.8105 18.0864 11.325 48.1225 9.78575 104.959 8.02204 82.5978 72.7546 28.5992 18.0931 8.78264 44.1554 29.5361 50.8617 37.1075
internal_count=5597 3751 1846 1375 550 582 1296 169 1127 579 139 548 486 205 104 101 63 281 62 793 53 440 390 161 98 44 229 152 311 216
is_linear=0
shrinkage=0.05


Tree=18
num_leaves=31
num_cat=0
split_feature=19 0 16 17 11 16 16 3 18 17 2 16 0 13 14 6 16 1 4 16 8 13 10 11 9 14 15 12 1 14
split_gain=69.9415 75.1163 61.4341 20.7352 16.8761 15.8567 13.7397 9.70707 11.7991 9.1884 8.70272 8.41415 7.48476 6.86841 7.00412 6.84032 6.09594 7.74927 10.4315 7.36655 6.04353 9.35895 6.86109 9.65036 5.96653 9.87168 6.08412 5.86829 5.72263 10.6854
threshold=-1.0000000180025095e-35 8.5000000000000018 1.7587300000000001 -1.0000000180025095e-35 10.500000000000002 1.0004550000000003 1.2789600000000003 8.5000000000000018 36.000000000000007 1.0000000180025095e-35 1.0000000180025095e-35 1.4687350000000003 2.5000000000000004 2.5000000000000004 4.5000000000000009 9.5000000000000018 2.5472250000000005 4.5000000000000009 4.5000000000000009 1.9241000000000001 6.5000000000000009 2.5000000000000004 4.5000000000000009 7.5000000000000009 12.500000000000002 12.500000000000002 9.5000000000000018 4.5000000000000009 5.5000000000000009 11.500000000000002
decision_type=2 2 2 2 2 2 2 2 2 2 2 2 2 2 2 2 2 2 2 2 2 2 2 2 2 2 2 2 2 2
left_child=2 3 5 -2 -5 9 24 8 20 10 -1 15 -12 -8 -15 -6 17 19 27 -4 22 -22 23 -7 -3 26 -26 -19 -16 -30
right_child=1 6 16 4 11 7 13 -9 -10 -11 12 -13 -14 14 28 -17 -18 18 -20 -21 21 -23 -24 -25 25 -27 -28 -29 29 -31
leaf_value=-0.0086835136774282649 0.071481421431076261 -4.254027839170812e-05 0.1574779133160657 -0.036444148819685829 -0.039865325233941769 0.03150569015605445 -0.018177291048543064 0.13271653402841366 -0.019336476279296921 -0.022866433297674547 0.10134457751730462 0.12966297713659816 -0.015074349232684414 0.14477572908993303 0.1368343857064841 0.052036269595072265 0.11916098278596131 0.040940045346831266 -0.0016501999492053909 0.07468804080995059 0.15718963168059669 0.038625682899677563 6.5478409923546204e-06 0.14919335835199449 0.068876959543178892 0.15423223389975055 -0.040316082754789942 0.13964632849405065 0.020992487341682506 0.10391294119160684
leaf_weight=9.5740857720375079 4.8631213083863249 21.223113164305691 3.767334051430228 185.07982315868139 3.79851036518812 33.234481304883957 2.2729571461677578 2.0128806605935088 14.376831866800783 41.007259197533131 4.5644701123237601 1.7611249238252629 1.9792789369821546 2.951815731823447 2.2477187737822559 4.3359833210706711 9.215010926127432 3.0096106901764852 6.3148905336856842 9.3687252029776555 2.261330731213091 6.3054195716977119 18.448315389454365 1.8382397815585125 2.7411729320883742 1.7975217923521993 2.3861952349543571 3.0135158151388168 10.445785440504553 6.1859383657574645
leaf_count=122 41 268 33 3011 52 353 28 19 172 540 44 19 23 26 22 53 60 24 60 68 20 68 200 18 30 20 28 22 99 54
internal_value=0 -0.0165428 0.024935 -0.0304991 -0.0330427 0.00974557 0.0368332 0.0243331 0.02148 -0.0102946 0.021691 0.0305744 0.0661315 0.0645398 0.0731519 0.00912159 0.0843116 0.0717052 0.04325 0.0984316 0.0309313 0.0699225 0.0246903 0.037674 0.013107 0.053407 0.0180603 0.0903252 0.0619535 0.0518336
internal_weight=0 252.091 170.292 199.839 194.975 135.603 52.2522 78.4775 76.4646 57.1251 16.1178 9.89562 6.54375 24.1042 21.8313 8.13449 34.6891 25.4741 12.338 13.1361 62.0878 8.56675 53.521 35.0727 28.148 6.92489 5.12737 6.02313 18.8794 16.6317
internal_count=5597 3751 1846 3176 3135 1579 575 850 831 729 189 124 67 229 201 105 267 207 106 101 659 88 571 371 346 78 58 46 175 153
is_linear=0
shrinkage=0.05


Tree=19
num_leaves=31
num_cat=0
split_feature=19 8 17 4 19 15 6 18 10 16 1 4 10 3 15 9 7 14 7 3 3 18 10 19 17 18 7 15 13 1
split_gain=1852.47 162.363 60.4227 35.2062 21.292 11.1118 10.6163 7.45396 5.83415 5.49811 5.40189 5.20541 5.05273 4.9581 5.56695 4.5744 4.17955 3.92564 6.21678 3.83944 4.85257 3.71385 3.74688 3.46743 4.57986 3.11976 3.98406 2.43889 4.42356 2.40835
threshold=-1.0000000180025095e-35 7.5000000000000009 -1.0000000180025095e-35 9.5000000000000018 1.0000000180025095e-35 12.500000000000002 2.5000000000000004 29.000000000000004 10.500000000000002 1.5838250000000003 7.5000000000000009 9.5000000000000018 9.5000000000000018 11.500000000000002 7.5000000000000009 11.500000000000002 11.500000000000002 7.5000000000000009 7.5000000000000009 11.500000000000002 9.5000000000000018 29.000000000000004 7.5000000000000009 1.0000000180025095e-35 1.0000000180025095e-35 33.500000000000007 9.5000000000000018 8.5000000000000018 9.5000000000000018 11.500000000000002
decision_type=2 2 2 2 2 2 2 2 2 2 2 2 2 2 2 2 2 2 2 2 2 2 2 2 2 2 2 2 2 2
left_child=-1 2 -2 5 -3 10 -6 11 9 19 -4 12 17 25 -15 -16 -14 18 -8 20 -9 22 -5 -12 -25 26 -10 -13 -29 -26
right_child=1 4 3 21 6 -7 7 8 13 -11 23 27 16 14 15 -17 -18 -19 -20 -21 -22 -23 -24 24 29 -27 -28 28 -30 -31
leaf_value=-0.069745154916054028 -0.07160327096974882 0.054117875262573722 0.053801223213641815 0.0068461696315750891 0.04152542571539123 -0.0030425581842589752 0.024482354324745017 0.029232106000122118 -0.035761624036762758 -0.022783692320691194 0.054153911766146361 -0.013472288746489992 -0.041182940571712831 -0.062272003644503554 -0.031693825488369819 0.015806587556164618 0.0042924659235102584 0.029740304051969514 -0.041334777773301447 0.046289137749282686 -0.020757039832373401 0.015213440478682748 -0.043171328042833773 0.054643176618189099 0.0042110309719353657 0.030257880718437963 0.014337654810384352 -0.01082497414470315 -0.050212363202329281 0.041250310341815477
leaf_weight=611.45129242539406 10.288862705230711 17.5779649913311 766.59281772375107 6.5409272611141231 12.48458296060562 9.0223524868488294 7.2775415182113665 14.603633970022203 6.4707363545894685 7.0127873718738547 18.730504602193832 20.803554147481918 12.252487033605577 6.5635860562324551 10.757631063461305 9.5840737223625165 8.5983593761920911 13.298450142145155 7.0764595866203308 13.806524664163588 7.2721631228923789 12.184241116046904 8.7571797966957075 10.320175737142561 16.096915304660801 10.004182308912275 10.261020869016646 11.305042028427126 19.295295357704163 6.03372499346733
leaf_count=1846 31 62 2707 21 42 30 24 47 20 22 66 65 38 20 33 30 27 43 22 44 23 39 27 36 54 32 32 35 59 20
internal_value=0 0.0389721 0.0488412 0.0502918 0.00126897 0.0521424 -0.00318168 -0.00602585 0.00389775 0.0176896 0.0527512 -0.0155948 -0.00384547 -0.00707975 -0.022233 -0.00931382 -0.02243 0.0101679 -0.0079652 0.025644 0.0126142 -0.00538217 -0.0217856 0.037024 0.0271366 0.00816954 -0.00503743 -0.0266811 -0.035661 0.0143095
internal_weight=0 1090.87 864.568 854.279 226.306 826.796 208.728 196.244 96.3363 42.6951 817.774 99.9072 48.5033 53.6412 26.9053 20.3417 20.8508 27.6525 14.354 35.6823 21.8758 27.4823 15.2981 51.1813 32.4508 26.7359 16.7318 51.4039 30.6003 22.1306
internal_count=5597 3751 3031 3000 720 2913 658 616 303 136 2883 313 154 167 83 63 65 89 46 114 70 87 48 176 110 84 52 159 94 74
is_linear=0
shrinkage=0.05


Tree=20
num_leaves=31
num_cat=0
split_feature=19 6 17 5 12 16 13 18 0 8 0 16 8 6 5 8 6 6 16 0 0 15 7 7 2 16 10 4 7 0
split_gain=788.17 41.777 21.8596 13.4556 12.5864 10.139 8.80769 6.4417 6.10233 5.64153 5.25343 4.38117 4.08443 4.20755 3.99482 4.09447 4.77582 3.89353 9.79583 4.26938 3.87711 3.86654 5.51507 7.13014 4.50098 4.31767 5.31299 5.18261 4.57748 4.30211
threshold=-1.0000000180025095e-35 8.5000000000000018 -1.0000000180025095e-35 8.5000000000000018 1.0000000180025095e-35 1.7183500000000003 4.5000000000000009 31.000000000000004 7.5000000000000009 6.5000000000000009 12.500000000000002 0.30699900000000008 2.5000000000000004 12.500000000000002 2.5000000000000004 1.0000000180025095e-35 3.5000000000000004 9.5000000000000018 1.1571650000000002 10.500000000000002 5.5000000000000009 7.5000000000000009 4.5000000000000009 1.0000000180025095e-35 1.0000000180025095e-35 1.4528800000000002 5.5000000000000009 3.5000000000000004 3.5000000000000004 4.5000000000000009
decision_type=2 2 2 2 2 2 2 2 2 2 2 2 2 2 2 2 2 2 2 2 2 2 2 2 2 2 2 2 2 2
left_child=4 2 -2 -4 6 7 11 8 21 -7 -5 -1 -3 17 20 -16 -17 18 -14 -20 -9 22 23 24 -6 26 27 -25 -29 -26
right_child=1 12 3 10 5 9 -8 14 -10 -11 -12 -13 13 -15 15 16 -18 -19 19 -21 -22 -23 -24 25 29 -27 -28 28 -30 -31
leaf_value=0.085267107315836158 0.029177976657815314 -0.041191567548314802 -0.044117559868766934 -0.020519455603558206 0.04522230317710519 0.029897461389108607 0.017750536869718694 0.072555380484698978 -0.0048877223854037763 -0.0070243831807542765 0.033096070056638366 0.058178565668948412 -0.031266093112841724 0.0065536465048394946 0.010686595363574337 0.067783887323895772 0.043977418994647625 -0.019483006542732446 0.0085901211182599808 0.073031494807266104 0.029895932618995959 0.069275120225004899 0.023791033992849916 0.070703253562411805 -0.0024150716047590609 0.020394591997994243 0.090298011939571432 0.005140280792753975 0.057807743173198589 0.048177889779106454
leaf_weight=17.163550406694412 10.966657161712645 9.3653496205806714 527.13490787148476 30.626150578260422 20.317940950393677 47.933082610368729 12.474403426051138 30.998061656951904 8.2826562225818616 13.193685367703436 5.3698738664388648 114.52413871884346 9.2414642125368136 39.187828972935677 7.4269850850105277 26.507669061422348 102.63615164160728 62.255153939127922 5.332861661911009 4.9615346193313599 6.4312435686588278 9.9735212326049787 50.699778109788895 17.527982801198959 14.698301598429682 7.2494607269763938 12.140164673328398 8.1928889453411102 8.3101295530796051 5.8839138746261588
leaf_count=55 40 45 2959 147 67 173 44 102 30 49 21 376 42 170 25 89 347 281 24 22 22 34 180 58 53 25 40 28 28 21
internal_value=0 -0.0349344 -0.0407363 -0.0420979 0.0452455 0.0406645 0.0579054 0.0440602 0.0369269 0.0219282 -0.0125211 0.0617092 -0.0093802 -0.00691758 0.0507539 0.0467877 0.0488639 -0.0133719 0.0061023 0.0396486 0.0652255 0.0391614 0.0370904 0.0442392 0.028528 0.056268 0.0619006 0.0517701 0.0316611 0.0120481
internal_weight=0 704.442 574.098 563.131 542.566 398.404 144.162 337.277 163.277 61.1268 35.996 131.688 130.344 120.979 174 136.571 129.144 81.791 19.5359 10.2944 37.4293 154.994 145.021 94.3208 40.9002 53.4206 46.1712 34.031 16.503 20.5822
internal_count=5597 3751 3167 3127 1846 1371 475 1149 564 222 168 431 584 539 585 461 436 369 88 46 124 534 500 320 141 179 154 114 56 74
is_linear=0
shrinkage=0.05


Tree=21
num_leaves=31
num_cat=0
split_feature=19 19 13 4 1 17 16 16 7 12 4 16 13 7 6 15 16 9 18 9 12 16 13 15 6 5 6 8 15 13
split_gain=287.113 40.7553 21.6471 18.6858 11.6751 11.3511 7.60958 7.57606 6.76789 9.1996 7.02676 6.67746 5.29436 5.64714 5.19465 5.90898 5.18046 4.88243 4.61737 6.03865 4.61029 4.86519 6.31645 5.78885 4.73779 5.15942 6.0755 8.17131 6.58398 5.32699
threshold=-1.0000000180025095e-35 1.0000000180025095e-35 1.0000000180025095e-35 4.5000000000000009 1.5000000000000002 -1.0000000180025095e-35 1.2322950000000004 0.62156400000000012 5.5000000000000009 7.5000000000000009 5.5000000000000009 0.58665000000000012 1.0000000180025095e-35 13.500000000000002 3.5000000000000004 1.0000000180025095e-35 0.67081350000000006 2.5000000000000004 33.500000000000007 12.500000000000002 2.5000000000000004 0.80872600000000017 14.500000000000002 8.5000000000000018 9.5000000000000018 13.500000000000002 10.500000000000002 9.5000000000000018 9.5000000000000018 7.5000000000000009
decision_type=2 2 2 2 2 2 2 2 2 2 2 2 2 2 2 2 2 2 2 2 2 2 2 2 2 2 2 2 2 2
left_child=2 -2 4 5 -1 -3 11 -6 9 -8 -10 -4 -5 18 17 -16 -13 -9 20 -20 -14 23 24 -22 -23 26 27 -26 -28 -30
right_child=1 3 6 12 7 -7 8 14 10 -11 -12 16 13 -15 15 -17 -18 -19 19 -21 21 22 -24 -25 25 -27 28 -29 29 -31
leaf_value=-0.0027443962442685204 -0.040853167407991865 0.038964908502548593 0.0040167006338586745 -0.026077016712234342 0.10668924775844324 -0.036737554846669844 0.016961190403687005 0.028188120502085585 0.032360364527658961 0.082771715163687018 0.07748567475512641 0.091733470606184919 -0.030619989995089081 -0.022737366626924514 -0.015302610430533293 0.046669989905546744 0.050912428747306532 0.083369030795271026 -0.036593016859077523 0.033533164942713599 0.093830126214289711 -0.00031483518724666247 -0.042540247786088697 0.020830539930686967 0.12460802003529298 0.074775106993675233 -0.028554752825482255 0.0077481891945972705 0.089084434992528758 0.010659260042906378
leaf_weight=47.006224989891052 238.64475027471781 5.4164029508829108 7.1915708333253852 12.730656906962393 3.3147596567869178 57.719145089387894 57.88581682741642 12.48896072804928 21.975026160478592 5.846649542450904 14.202457040548323 8.2989721745252591 4.421327829360961 12.645066246390341 10.538174986839296 6.0572699904441825 122.42854849994183 5.9035369753837577 9.1667091324925405 4.6155968233942977 4.7680040895938856 16.671364359557629 4.2674733176827422 6.3095649927854538 2.9935819879174295 5.9158356338739386 7.2901204526424435 2.9900014847517014 3.0393468886613828 7.529010221362114
leaf_count=315 2376 32 42 106 20 550 340 77 122 31 74 40 36 92 65 36 647 37 72 35 35 126 31 46 22 38 55 22 22 55
internal_value=0 -0.0275608 0.0355605 -0.00873366 0.0139527 -0.030243 0.0433112 0.0344439 0.0328031 0.0229985 0.0500755 0.0509234 0.00415632 0.00831177 0.0275993 0.00731714 0.0535039 0.0458998 0.0132208 -0.0131083 0.0187027 0.0222329 0.0156737 0.052251 0.0210243 0.0329793 0.0226086 0.0662131 0.0079987 0.0332135
internal_weight=0 407.134 323.138 168.489 85.3089 63.1355 237.829 38.3027 99.9099 63.7325 36.1775 137.919 105.354 92.623 34.9879 16.5954 130.728 18.3925 79.9779 13.7823 66.1956 61.7743 50.6967 11.0776 46.4293 29.7579 23.8421 5.98358 17.8585 10.5684
internal_count=5597 3751 1846 1375 550 582 1296 235 567 371 196 729 793 687 215 101 687 114 595 107 488 452 371 81 340 214 176 44 132 77
is_linear=0
shrinkage=0.05


Tree=22
num_leaves=31
num_cat=0
split_feature=19 4 16 17 0 18 16 11 16 3 2 11 3 3 4 4 0 12 12 6 4 1 16 1 14 18 8 9 15 10
split_gain=60.9848 69.5359 50.0304 14.7615 12.7064 11.5524 10.7776 10.4811 9.79763 8.87185 11.2721 8.81363 8.71241 8.72669 9.15737 8.0228 7.27589 7.16888 6.91847 6.93711 6.8878 8.46354 6.67067 10.7684 8.47163 6.39329 10.1412 11.9084 15.7087 7.61349
threshold=-1.0000000180025095e-35 7.5000000000000009 1.5390150000000002 -1.0000000180025095e-35 7.5000000000000009 31.000000000000004 1.0004550000000003 10.500000000000002 1.2650900000000003 1.0000000180025095e-35 1.0000000180025095e-35 9.5000000000000018 7.5000000000000009 4.5000000000000009 1.5000000000000002 6.5000000000000009 2.5000000000000004 12.500000000000002 5.5000000000000009 5.5000000000000009 8.5000000000000018 13.500000000000002 2.1268550000000004 4.5000000000000009 4.5000000000000009 36.000000000000007 2.5000000000000004 3.5000000000000004 3.5000000000000004 2.5000000000000004
decision_type=2 2 2 2 2 2 2 2 2 2 2 2 2 2 2 2 2 2 2 2 2 2 2 2 2 2 2 2 2 2
left_child=2 3 6 -2 7 22 9 -3 17 10 -1 -5 13 25 -15 18 -12 -6 -7 -20 -10 -22 23 24 -4 26 -8 28 -28 -29
right_child=1 4 5 11 8 15 12 -9 20 -11 16 -13 -14 14 -16 -17 -18 -19 19 -21 21 -23 -24 -25 -26 -27 27 29 -30 -31
leaf_value=-0.013726979218559952 0.057944446825784923 -0.039649125165710189 0.060202992862602271 -0.036328236057985325 0.034642876252466225 0.026998076801629113 0.0068536413816254835 0.048679963262059596 0.12589062129216214 -0.025734640978844384 0.098523109605110765 0.013683834532123934 0.088786049419854102 0.068348489006492388 -0.022745068761113235 -0.028223003257077092 0.0038310519627803284 -0.030972991802557331 0.045102161131061552 0.15048344083092929 0.03987734395049769 0.13273173673947389 0.11139709371587486 0.0092989126361580406 0.15304562950799236 -0.021766711708397942 0.16946816000198675 0.10666114031536827 0.029037444311930723 0.0055457660866976765
leaf_weight=13.328578785061838 4.5050291270017615 10.073168914765118 6.8300031274557167 168.01174874976277 18.01262187212706 10.904491029679781 15.774329796433447 5.0382336266338816 3.8863162957131889 35.216608956456184 5.0093461200594884 9.296839162707327 4.2293609455227843 3.2083038091659573 19.695660427212715 3.9120935872197142 3.4092316478490829 5.4138024114072314 3.4501491114497176 2.853111743927002 17.16337184980512 2.8635041117668143 13.131969854235647 5.8735255375504485 3.8375802338123322 5.4372039884328833 4.4903585016727465 2.3709972202777854 3.5782824456691742 8.6651249751448614
leaf_count=172 36 154 53 2892 215 97 166 56 38 467 48 120 40 34 219 39 42 66 31 24 150 24 75 51 29 66 38 24 37 94
internal_value=0 -0.0157999 0.022857 -0.031435 0.0297186 0.0646731 0.00578513 -0.0101997 0.042461 -0.0102284 0.0148818 -0.0337059 0.0193092 0.0146613 -0.00998502 0.0364086 0.0601761 0.0194792 0.0511023 0.092802 0.0649749 0.0531539 0.0847904 0.0636674 0.0936024 0.028663 0.0365244 0.0610227 0.10719 0.0272694
internal_weight=0 244.265 175.206 181.814 62.451 50.7929 124.413 15.1114 47.3396 56.9638 21.7472 177.309 67.4496 63.2203 22.904 21.1198 8.41858 23.4264 17.2078 6.30326 23.9132 20.0269 29.6731 16.5411 10.6676 40.3163 34.8791 19.1048 8.06864 11.0361
internal_count=5597 3751 1846 3048 703 399 1447 210 493 729 262 3012 718 678 253 191 90 281 152 55 212 174 208 133 82 425 359 193 75 118
is_linear=0
shrinkage=0.05


Tree=23
num_leaves=31
num_cat=0
split_feature=19 8 17 4 19 15 6 18 1 10 7 0 13 3 15 15 7 12 9 9 15 18 10 19 17 9 9 1 14 4
split_gain=1656.76 151.759 55.045 33.2156 19.4414 10.6769 9.64887 7.0363 5.31735 5.28133 5.21634 4.80065 4.63251 4.55643 5.12988 4.36444 4.24156 5.29781 4.20372 3.95403 3.84834 3.43143 3.40079 3.34873 4.37419 3.18157 2.88753 2.84891 3.93755 2.49145
threshold=-1.0000000180025095e-35 7.5000000000000009 -1.0000000180025095e-35 9.5000000000000018 1.0000000180025095e-35 12.500000000000002 2.5000000000000004 29.000000000000004 7.5000000000000009 10.500000000000002 11.500000000000002 8.5000000000000018 9.5000000000000018 11.500000000000002 7.5000000000000009 8.5000000000000018 7.5000000000000009 7.5000000000000009 11.500000000000002 10.500000000000002 6.5000000000000009 29.000000000000004 7.5000000000000009 1.0000000180025095e-35 1.0000000180025095e-35 10.500000000000002 11.500000000000002 11.500000000000002 12.500000000000002 6.5000000000000009
decision_type=2 2 2 2 2 2 2 2 2 2 2 2 2 2 2 2 2 2 2 2 2 2 2 2 2 2 2 2 2 2
left_child=-1 2 -2 5 -3 8 -6 11 -4 10 -9 12 16 26 -15 20 -8 -18 -16 -12 -13 22 -5 -10 -25 -14 -11 28 -17 -26
right_child=1 4 3 21 6 -7 7 9 23 13 19 15 25 14 18 27 17 -19 -20 -21 -22 -23 -24 24 29 -27 -28 -29 -30 -31
leaf_value=-0.066286284357265454 -0.06812324516903244 0.05260772617651463 0.05229363015848093 0.0063092201253324258 0.040025437902838377 -0.0036421884177436563 0.037552680910942181 0.030144258594941149 0.052642404477024646 0.021384643034707166 0.017420628947119453 -0.022046333439530739 -0.0026458505593709987 -0.059375811172967023 -0.030028626040411562 -0.030537920846029333 -0.036101674550585564 0.025530856538439502 0.01548478494778173 -0.033619848612793657 0.022230282248954021 0.014528623414884815 -0.041351199218850831 0.053146185614930765 0.0012915566494769923 -0.045546333171847843 -0.012246115416327806 -0.011457037554673071 -0.071894236333308714 0.037155300529803821
leaf_weight=604.11130946874619 10.200434595346449 16.908165365457535 737.43538162112236 6.5120415091514614 12.186979800462721 8.9674983918666822 9.7960358560085314 27.183806717395782 18.019557863473892 16.108704954385761 8.1321938037872297 13.855611652135851 9.8076461553573626 6.6044360399246242 10.809161931276323 19.191207230091099 6.9937201440334302 6.9532590508460999 9.5607441663742048 7.1136950254440299 7.5990945398807517 12.115270167589186 8.8017645776271802 9.9526457786560076 14.631466627120973 7.7262927293777457 10.570873558521269 9.737792640924452 8.2209967076778394 7.2383063733577719
leaf_count=1846 31 62 2707 21 42 30 33 88 66 51 26 43 31 20 33 59 22 22 30 22 24 39 27 36 50 24 33 30 25 24
internal_value=0 0.0374807 0.0473143 0.0487438 0.00104605 0.0506074 -0.0031423 -0.00582688 0.0512253 0.00383299 0.017015 -0.0151194 -0.00205802 -0.00659141 -0.0210823 -0.0243189 0.0123365 -0.00537481 -0.00866662 -0.00639474 -0.00636389 -0.00535415 -0.0210841 0.0354195 0.0256669 -0.0215499 0.0080596 -0.0346882 -0.0429408 0.0131615
internal_weight=0 1058.93 833.874 823.674 225.06 796.245 208.152 195.965 787.277 96.0836 42.4297 99.8817 41.277 53.6539 26.9743 58.6047 23.743 13.947 20.3699 15.2459 21.4547 27.4291 15.3138 49.842 31.8224 17.5339 26.6796 37.15 27.4122 21.8698
internal_count=5597 3751 3031 3000 720 2913 658 616 2883 303 136 313 132 167 83 181 77 44 63 48 67 87 48 176 110 55 84 114 84 74
is_linear=0
shrinkage=0.05


Tree=24
num_leaves=31
num_cat=0
split_feature=19 6 17 5 7 11 13 16 5 16 0 10 18 7 14 12 8 0 16 7 12 11 2 16 10 16 9 8 15 2
split_gain=693.729 40.2729 20.5534 13.2013 10.9684 7.60977 6.06318 8.14145 6.57913 5.92797 5.38008 5.2488 5.16307 5.68698 5.11814 4.88129 6.24863 4.85715 6.93775 4.82626 6.66696 6.19869 4.65003 4.17951 3.89113 7.27764 3.8561 3.84649 3.98298 6.83799
threshold=-1.0000000180025095e-35 8.5000000000000018 -1.0000000180025095e-35 8.5000000000000018 4.5000000000000009 6.5000000000000009 4.5000000000000009 2.1268550000000004 3.5000000000000004 1.5947450000000003 5.5000000000000009 4.5000000000000009 31.000000000000004 1.0000000180025095e-35 3.5000000000000004 1.5000000000000002 4.5000000000000009 7.5000000000000009 1.4020500000000002 1.0000000180025095e-35 2.5000000000000004 5.5000000000000009 1.5000000000000002 0.75586000000000009 7.5000000000000009 0.91975300000000015 3.5000000000000004 2.5000000000000004 1.5000000000000002 9.5000000000000018
decision_type=2 2 2 2 2 2 2 2 2 2 2 2 2 2 2 2 2 2 2 2 2 2 2 2 2 2 2 2 2 2
left_child=4 2 -2 -4 9 6 8 -8 15 10 19 -10 13 -11 -15 -6 -17 -5 24 20 -1 22 -22 -12 -19 -26 -14 -3 29 -29
right_child=1 27 3 17 5 -7 7 -9 11 12 23 -13 26 14 -16 16 -18 18 -20 -21 21 -23 -24 -25 25 -27 -28 28 -30 -31
leaf_value=0.055039699633278941 0.027161408891591243 -0.040485798311127683 -0.04354084579954428 -0.03511383984156384 -0.01611562541865999 0.013177452125129045 0.031687518596935083 -0.027623291949523777 0.067692989524916689 0.040255296738212189 0.0050246667760694089 0.040277993765233437 0.022851876131159701 -0.037141266882327988 0.020067243447135098 0.068634106945176063 0.0072392761969336909 -0.015880773839282041 -0.039759194898982081 0.060427613559121879 0.036908568878334901 0.076658060381575022 -0.00089662803246879958 0.042050352140660156 -0.0014408469432511675 0.082737396021540732 0.069461789812797811 -0.013609441723940137 -0.0098672029880962388 0.057958027668128353
leaf_weight=70.217431217432022 11.146083906292914 9.0232531577348691 498.25407108664513 13.862079739570616 6.0335982143878963 41.101945579051971 73.645902991294861 6.2792710661888114 33.506289660930634 17.183903023600578 8.9070571064949018 36.454580932855606 6.9931709170341518 6.1138831675052669 10.843717604875563 7.8911086022853878 8.728696793317793 4.7422523498535183 6.6454423367977133 116.85232910513878 19.28360304236412 5.8758656978607169 14.067390635609625 52.821940362453461 5.3628491610288602 4.9261657297611237 12.141981095075606 7.3255877792835218 106.83601762354374 6.1309613734483719
leaf_count=224 40 45 2959 70 20 144 252 24 109 59 30 122 24 22 39 26 30 22 31 373 63 19 50 176 24 21 40 33 479 27
internal_value=0 -0.0340849 -0.0400377 -0.0414409 0.0413964 0.0325116 0.0371174 0.0270278 0.0458246 0.0469578 0.0497919 0.0534078 0.0316364 0.0199836 -0.000558678 0.0224052 0.0363896 -0.0119989 0.00278285 0.053361 0.045816 0.0293052 0.0209624 0.0367078 0.021591 0.0388619 0.0524276 -0.00900002 -0.00663824 0.0189975
internal_weight=0 674.255 544.939 533.793 554.944 213.641 172.539 79.9252 92.6143 341.302 288.026 69.9609 53.2767 34.1415 16.9576 22.6534 16.6198 35.5388 21.6767 226.297 109.444 39.2269 33.351 61.729 15.0313 10.289 19.1352 129.316 120.293 13.4565
internal_count=5597 3751 3167 3127 1846 727 583 276 307 1119 935 231 184 120 61 76 56 168 98 729 356 132 113 206 67 45 64 584 539 60
is_linear=0
shrinkage=0.05


Tree=25
num_leaves=31
num_cat=0
split_feature=19 19 13 4 2 17 8 12 16 13 18 16 16 9 7 18 16 12 10 3 11 9 13 7 3 10 1 6 16 4
split_gain=254.776 39.9561 18.3385 17.3365 10.8985 10.5919 6.74485 6.47949 7.61758 5.83721 8.97228 8.32728 5.74237 5.55771 6.39213 7.53816 6.14175 8.88015 6.17458 7.1392 5.19098 5.50265 4.83725 5.26838 4.78998 6.35207 4.66381 4.4518 5.10128 7.8385
threshold=-1.0000000180025095e-35 1.0000000180025095e-35 1.5000000000000002 4.5000000000000009 1.0000000180025095e-35 -1.0000000180025095e-35 5.5000000000000009 4.5000000000000009 1.7474100000000001 6.5000000000000009 31.000000000000004 1.94615 1.1011850000000003 5.5000000000000009 5.5000000000000009 27.500000000000004 0.93749400000000016 1.0000000180025095e-35 1.5000000000000002 1.5000000000000002 2.5000000000000004 6.5000000000000009 1.0000000180025095e-35 13.500000000000002 2.5000000000000004 3.5000000000000004 1.0000000180025095e-35 5.5000000000000009 1.0624500000000003 2.5000000000000004
decision_type=2 2 2 2 2 2 2 2 2 2 2 2 2 2 2 2 2 2 2 2 2 2 2 2 2 2 2 2 2 2
left_child=2 -2 4 5 -1 -3 7 8 20 11 -11 -8 -12 14 16 -16 17 -6 19 -18 26 24 -5 -24 25 -22 -4 28 29 -9
right_child=1 3 6 22 13 -7 9 27 -10 10 12 -13 -14 -15 15 -17 18 -19 -20 -21 21 -23 23 -25 -26 -27 -28 -29 -30 -31
leaf_value=-0.0070046945413633046 -0.040617205451819467 0.035866534133662933 0.013229926724139855 -0.025457597303813369 0.02254767945982231 -0.036310342614834006 0.049526646621851168 0.029284093260520623 -0.015545866708946461 0.11323199439342457 0.014498750376170389 -0.016087671243746993 0.078238510421688209 -0.012351950508091993 0.11971344150114945 0.022431115327249951 -0.0045911271002275255 0.090239709279008651 -0.014117509144973492 0.068315584676372651 0.069060109421314395 0.058352178143471281 0.01250775117312708 -0.022397911846483782 -0.00012221280526877694 0.0049394526383764589 0.075597507159266664 0.027675705480178909 0.038190006563221808 0.0902019683194622
leaf_weight=36.492023900151253 224.43384843319654 5.6020485162734976 4.306961551308631 12.350748479366301 14.126469448208811 54.859282046556473 53.300339713692665 7.953231647610667 10.745805680751799 8.7265809923410433 6.5608695149421674 5.3180172592401496 7.6579582840204239 7.7952162027359 4.2473019510507575 3.7489653378725052 6.3737955689430255 7.3739050924777976 13.402802333235739 7.0961354821920395 7.430630385875701 8.5954419523477537 80.838219448924065 12.478695124387739 23.410057455301285 8.0432971417903882 9.8594078719615919 27.277463376522064 27.969054251909256 15.71404157578945
leaf_count=260 2376 32 24 106 79 550 268 40 69 42 32 31 40 45 23 22 39 39 81 41 40 43 595 92 129 45 50 143 145 76
internal_value=0 -0.026858 0.0326445 -0.00826975 0.0148116 -0.0296228 0.0403527 0.034105 0.023302 0.0519426 0.0733219 0.0435739 0.0488276 0.0272191 0.0326913 0.0741037 0.0258457 0.0457638 0.00990966 0.0338171 0.0300737 0.0221484 0.00394811 0.00784003 0.0141454 0.0357304 0.0566361 0.0440151 0.0526466 0.0697309
internal_weight=0 390.563 333.526 166.129 100.657 60.4613 232.869 151.305 72.3916 81.5638 22.9454 58.6184 14.2188 64.1646 56.3694 7.99627 48.3731 21.5004 26.8727 13.4699 61.6458 47.4794 105.668 93.3169 38.884 15.4739 14.1664 78.9138 51.6363 23.6673
internal_count=5597 3751 1846 1375 629 582 1217 804 400 413 114 299 72 369 324 45 279 118 161 80 331 257 793 687 214 85 74 404 261 116
is_linear=0
shrinkage=0.05


Tree=26
num_leaves=31
num_cat=0
split_feature=19 19 16 12 17 16 16 7 6 3 1 8 13 10 12 14 13 11 11 16 12 16 16 9 1 2 18 8 16 11
split_gain=53.3404 65.3894 42.242 22.5721 14.5291 13.9476 12.5712 8.50836 8.69913 8.20535 9.20992 8.18891 7.25081 10.0508 12.5066 6.88388 6.77352 9.07555 7.86249 6.51436 9.84747 6.27803 7.76845 8.24338 5.97412 6.92048 5.86495 7.04689 13.0935 5.72932
threshold=-1.0000000180025095e-35 1.0000000180025095e-35 1.8756450000000002 1.0000000180025095e-35 -1.0000000180025095e-35 1.0004550000000003 1.1986900000000003 1.0000000180025095e-35 3.5000000000000004 8.5000000000000018 4.5000000000000009 11.500000000000002 5.5000000000000009 5.5000000000000009 5.5000000000000009 12.500000000000002 1.0000000180025095e-35 5.5000000000000009 11.500000000000002 0.88944650000000014 7.5000000000000009 1.5053250000000002 1.6195900000000003 3.5000000000000004 8.5000000000000018 6.5000000000000009 29.000000000000004 12.500000000000002 1.5513300000000003 10.500000000000002
decision_type=2 2 2 2 2 2 2 2 2 2 2 2 2 2 2 2 2 2 2 2 2 2 2 2 2 2 2 2 2 2
left_child=2 -2 5 24 -5 7 11 8 -1 10 21 15 -12 14 -14 -6 -8 -18 -19 -13 -21 -7 -23 -24 -3 -26 -20 28 -28 -17
right_child=1 3 -4 4 6 9 16 -9 -10 -11 12 19 13 -15 -16 29 17 18 26 20 -22 22 23 -25 25 -27 27 -29 -30 -31
leaf_value=0.0024103074849930965 -0.039160064201608502 -0.033529017170332021 0.070992583692617503 0.14066775467652601 -0.023890331304363077 0.022746503198038542 -0.039816468269491929 -0.02464572441473643 0.095701767186759337 0.10814547776754402 -0.019355507423191864 -0.0093685013449031126 0.13035090784300671 -0.016021868745132509 -0.018257636194816764 -0.01747564045641626 0.12485012781129722 0.020593543132010152 0.12220348283189622 0.16057352896985261 0.032550513845785688 0.11666538467335159 -0.026457694819251129 0.079859261899584283 0.11003197561818932 -0.020640635475185576 0.0039373602836808574 -0.0022353091714802996 0.17352062722950096 0.091339725577521944
leaf_weight=17.541919849812988 128.52844466269016 24.770107243210081 34.307033859193325 2.7341511249542227 21.888990834355358 40.818039260804653 2.2378598153591147 36.182003244757652 2.9138784706592551 2.6624955907464019 21.049683265388012 4.8596311919391146 3.7897263690829259 6.1264716759324074 2.2600868418812752 2.2208250202238551 3.6196419745683661 18.533224701881412 3.966475397348403 1.9867370054125766 6.1571720242500305 4.4106078594923002 3.2703676149249077 4.120265856385231 1.6676546894013871 2.5819794125854969 2.2381026968359929 3.7702245488762856 2.3161620497703552 2.6567718163132668
leaf_count=209 2376 415 217 21 307 420 33 494 26 21 225 59 37 68 26 30 42 179 35 21 69 37 28 38 25 35 24 31 18 31
internal_value=0 -0.0150489 0.0210952 0.0135908 0.0274154 0.00930131 0.0233652 -0.0100743 0.0156994 0.0217001 0.019019 0.00389318 -0.00159076 0.02912 0.0748338 -0.0119207 0.0444766 0.0499532 0.0411582 0.0364446 0.0637822 0.0320329 0.0641526 0.0328138 -0.0241324 0.0306383 0.0721671 0.0483257 0.0901823 0.0417949
internal_weight=0 236.734 179.453 108.206 79.186 145.146 76.4518 56.6378 20.4558 88.5077 85.8452 39.7701 33.226 12.1763 6.04981 26.7666 36.6817 34.4438 30.8242 13.0035 8.14391 52.6193 11.8012 7.39063 29.0197 4.24963 12.291 8.32449 4.55426 4.8776
internal_count=5597 3751 1846 1375 900 1629 879 729 235 900 879 517 356 131 63 368 362 329 287 149 90 523 103 66 475 60 108 73 42 61
is_linear=0
shrinkage=0.05


Tree=27
num_leaves=31
num_cat=0
split_feature=19 8 17 1 19 6 4 9 18 10 16 10 3 15 14 9 3 3 0 13 12 6 16 5 15 18 7 9 16 4
split_gain=1489.2 141.897 50.3556 32.0294 17.7451 8.76856 8.38523 6.83146 6.62436 4.85845 4.83617 4.43542 4.23092 4.74062 4.2162 3.91417 3.6393 4.4414 3.2258 5.37562 5.69932 4.16796 4.1313 4.55355 3.19614 2.81851 3.59955 2.66347 3.6345 2.55666
threshold=-1.0000000180025095e-35 7.5000000000000009 -1.0000000180025095e-35 9.5000000000000018 1.0000000180025095e-35 2.5000000000000004 9.5000000000000018 8.5000000000000018 29.000000000000004 10.500000000000002 1.5838250000000003 2.5000000000000004 11.500000000000002 7.5000000000000009 9.5000000000000018 12.500000000000002 11.500000000000002 9.5000000000000018 10.500000000000002 9.5000000000000018 7.5000000000000009 7.5000000000000009 0.85907450000000007 11.500000000000002 5.5000000000000009 33.500000000000007 9.5000000000000018 11.500000000000002 1.1521150000000002 10.500000000000002
decision_type=2 2 2 2 2 2 2 2 2 2 2 2 2 2 2 2 2 2 2 2 2 2 2 2 2 2 2 2 2 2
left_child=-1 2 -2 6 -3 -6 14 24 11 10 16 -7 25 -14 -4 -15 17 -10 19 20 -13 -20 -23 29 -5 26 -11 28 -21 -24
right_child=1 4 3 7 5 8 -8 -9 9 12 -12 18 13 15 -16 -17 -18 -19 21 27 -22 22 23 -25 -26 -27 -28 -29 -30 -31
leaf_value=-0.063387521374305991 -0.065215416464552908 0.051263262576999286 0.05068558884465401 0.0012969735869953071 0.038648392514730068 0.018371664986694045 0.0059636639658092756 -0.022614339376451239 0.027494051458053 -0.0335861754988174 -0.021314056192072883 -0.021994380407517129 -0.05683970158780375 -0.023368144973825208 0.023224408170042388 0.023422196274778907 0.044424103249740124 -0.020484462682660798 -0.065646344493527173 0.0070818879444637288 0.024367091203840081 0.012959185143303754 0.005640036496926998 -0.059663042822432392 0.041800361184970679 0.029137349903885959 0.013970069536523808 -0.04815705937563633 -0.040294748260328556 -0.034901089738636031
leaf_weight=593.90284901857376 10.064357012510298 16.218189239501953 731.02862000465393 9.9199268519878405 11.889601320028303 9.2604538798332197 10.888573676347731 16.391171216964722 14.341324001550676 6.5122086107730928 7.0398051738739005 11.228409618139269 6.6296871006488827 13.755402296781542 14.249747842550276 6.6209405958652487 13.530991554260252 7.2680840194225302 6.4728825688362113 8.9120967090129906 16.183223694562912 6.7841751277446773 7.70532473921776 8.9002600610256177 9.5688083469867689 9.8890651762485486 10.228930652141569 9.1314807832241041 7.4173145294189444 7.8514780700206757
leaf_count=1846 31 62 2797 34 42 30 35 52 47 20 22 36 20 42 50 21 44 23 20 28 52 21 24 27 32 32 32 28 23 24
internal_value=0 0.0360999 0.0459217 0.0473339 0.000893428 -0.00304247 0.0495241 0.00117531 -0.00557584 0.00381566 0.0165119 -0.0145882 -0.00616879 -0.0201137 0.0501605 -0.00816443 0.0240897 0.011357 -0.0179576 -0.00998881 0.00537641 -0.0291293 -0.0215634 -0.0311396 0.0211838 0.0079729 -0.00452904 -0.0265313 -0.014438 -0.014821
internal_weight=0 1025.88 802.111 792.047 223.771 207.553 756.167 35.8799 195.664 95.8164 42.1802 99.8471 53.6362 27.006 745.278 20.3763 35.1404 21.6094 90.5866 52.8725 27.4116 37.7141 31.2412 24.4571 19.4887 26.6302 16.7411 25.4609 16.3294 15.5568
internal_count=5597 3751 3031 3000 720 658 2882 118 616 303 136 313 167 83 2847 63 114 70 283 167 88 116 96 75 66 84 52 79 51 48
is_linear=0
shrinkage=0.05


Tree=28
num_leaves=31
num_cat=0
split_feature=19 6 17 5 12 16 11 18 0 8 4 16 15 16 8 6 6 16 0 5 12 10 8 6 15 7 7 4 15 16
split_gain=613.012 38.8814 19.3501 12.9923 9.65247 7.91216 7.28332 5.52203 5.26737 4.75938 4.58247 8.57919 3.7897 4.22727 3.59731 3.81089 3.65467 8.92644 3.50268 3.38795 3.55804 4.72552 3.54347 4.06215 3.35501 4.43619 5.87903 3.64166 3.53846 3.49888
threshold=-1.0000000180025095e-35 8.5000000000000018 -1.0000000180025095e-35 8.5000000000000018 1.0000000180025095e-35 1.7183500000000003 5.5000000000000009 31.000000000000004 7.5000000000000009 6.5000000000000009 9.5000000000000018 1.3812000000000002 3.5000000000000004 1.0330100000000002 2.5000000000000004 12.500000000000002 9.5000000000000018 1.1571650000000002 10.500000000000002 2.5000000000000004 6.5000000000000009 3.5000000000000004 1.0000000180025095e-35 3.5000000000000004 7.5000000000000009 4.5000000000000009 1.0000000180025095e-35 1.0000000180025095e-35 2.5000000000000004 1.4528800000000002
decision_type=2 2 2 2 2 2 2 2 2 2 2 2 2 2 2 2 2 2 2 2 2 2 2 2 2 2 2 2 2 2
left_child=4 2 -2 -4 6 7 12 8 24 -7 -5 -12 -1 -14 -3 16 17 -16 -19 20 21 -9 -21 -24 25 26 27 28 -6 -28
right_child=1 14 3 10 5 9 -8 19 -10 -11 11 -13 13 -15 15 -17 -18 18 -20 22 -22 -23 23 -25 -26 -27 29 -29 -30 -31
leaf_value=0.056621970045827003 0.025305848341443789 -0.039744029060922927 -0.043010686445208272 -0.026706088215368542 0.056416436363313421 0.024969378821612369 0.0045449581162547237 0.034318194009712998 -0.0076777570615546064 -0.0085918756734383438 0.035678072290734525 -0.047304949054624144 0.053198478510338168 0.019745330182526319 -0.03036670486016212 0.006402994308523563 -0.018623772595260862 0.0089885606563212938 0.066800493663366226 0.00646818090815928 0.026583057808610196 0.07675523686817981 0.058460729703857572 0.037005719526481094 0.059986879323647158 0.019000873951566674 0.052566727453774713 0.0077022019039099422 0.016320567784275538 0.015837941795557232
leaf_weight=103.46149864792824 11.309611499309538 8.660234719514845 470.4920537173748 20.469832941889763 11.383208513259889 49.756502985954285 8.7092060446739179 9.4224756956100482 8.5417410433292371 13.410876139998434 10.058097094297407 4.5117806345224372 21.048484206199646 17.127614200115204 8.9620519429445284 39.230543613433838 60.981044307351112 5.2943463474512082 5.1868703067302704 7.6589476168155661 8.0645095109939557 21.593010395765305 27.794081330299377 106.96811890602112 10.466572135686873 52.642104536294937 48.371893674135208 20.357348412275314 10.650878667831419 7.4879501163959494
leaf_count=324 40 45 2959 103 36 173 29 30 30 49 44 21 66 56 42 170 281 24 22 25 26 68 89 347 34 180 154 70 35 25
internal_value=0 -0.0332602 -0.0393762 -0.0408232 0.038072 0.0341361 0.048925 0.0370647 0.0305865 0.0178441 -0.0114512 0.00998114 0.0516539 0.0381898 -0.00862541 -0.00637315 -0.0126053 0.00627086 0.0375981 0.0431289 0.0561699 0.0638629 0.0395505 0.0414307 0.032612 0.0307132 0.0369885 0.0229486 0.0370348 0.0476433
internal_weight=0 645.156 516.841 505.532 564.917 414.57 150.347 351.403 169.902 63.1674 35.0397 14.5699 141.638 38.1761 128.315 119.655 80.4243 19.4433 10.4812 181.501 39.08 31.0155 142.421 134.762 161.36 150.893 98.2513 42.3914 22.0341 55.8598
internal_count=5597 3751 3167 3127 1846 1371 475 1149 564 222 168 65 446 122 584 539 369 88 46 585 124 98 461 436 534 500 320 141 71 179
is_linear=0
shrinkage=0.05


Tree=29
num_leaves=31
num_cat=0
split_feature=19 19 4 13 17 2 2 16 7 16 18 12 4 7 15 16 11 5 14 7 3 9 7 18 16 12 10 3 1 13
split_gain=226.851 39.233 16.0869 15.6072 9.90718 9.67297 5.94302 7.59128 7.06002 5.82427 6.23507 6.98456 6.59725 6.57691 9.585 6.41358 5.79204 6.40196 5.41898 5.28838 5.1986 4.93763 5.32775 5.98771 5.31904 7.29217 5.58274 6.14745 4.74607 5.19856
threshold=-1.0000000180025095e-35 1.0000000180025095e-35 4.5000000000000009 1.5000000000000002 -1.0000000180025095e-35 1.0000000180025095e-35 5.5000000000000009 1.8366400000000003 7.5000000000000009 0.56019100000000011 36.000000000000007 4.5000000000000009 4.5000000000000009 3.5000000000000004 4.5000000000000009 0.90674900000000014 7.5000000000000009 1.5000000000000002 2.5000000000000004 6.5000000000000009 5.5000000000000009 5.5000000000000009 5.5000000000000009 27.500000000000004 0.93749400000000016 1.0000000180025095e-35 1.5000000000000002 1.5000000000000002 6.5000000000000009 3.5000000000000004
decision_type=2 2 2 2 2 2 2 2 2 2 2 2 2 2 2 2 2 2 2 2 2 2 2 2 2 2 2 2 2 2
left_child=3 -2 4 5 -3 -1 7 9 16 -5 13 -12 -13 14 18 -16 17 -8 -11 -9 -14 22 24 -24 25 -7 27 -26 29 -15
right_child=1 2 -4 6 -6 21 8 19 -10 10 11 12 20 28 15 -17 -18 -19 -20 -21 -22 -23 23 -25 26 -27 -28 -29 -30 -31
