tree
version=v3
num_class=3
num_tree_per_iteration=3
label_index=0
max_feature_idx=7
objective=multiclass num_class:3
feature_names=Column_0 Column_1 Column_2 Column_3 Column_4 Column_5 Column_6 Column_7
feature_infos=[0:20] [0:20] [0:21] [0:20] [0:14400000] [-1:1] [16:42] [-1:1]
tree_sizes=3291 3295 3324 3367 3347 3353 3363 3377 3357 3400 3373 3366 3384 3400 3364 3401 3398 3369 3383 3389 3370 3392 3393 3367 3392 3397 3370 3400 3389 3369 3408 3406 3366 3387 3393 3377 3407 3406 3377 3395 3413 3376 3407 3417 3383 3398 3407 3379 3396 3409 3369 3405 3410 3384 3392 3400 3387 3388 3394 3386

Tree=0
num_leaves=31
num_cat=0
split_feature=7 4 4 4 7 4 4 4 4 4 1 2 3 0 0 2 3 6 4 1 4 1 5 1 2 3 4 3 0 4
split_gain=4976.66 1265.05 212.455 124.617 119.381 33.8543 26.603 15.0396 13.0498 11.5882 8.97364 7.4417 7.33932 6.54973 8.91728 6.68294 6.22665 5.81031 5.58306 8.35225 9.71011 6.73191 5.57762 5.4861 5.0524 4.94772 5.40637 4.59457 4.25959 6.99692
threshold=-1.0000000180025095e-35 1.0929200000000001 0.72899550000000013 1.6234450000000002 1.0000000180025095e-35 0.61406400000000005 0.91548300000000016 1.3001800000000003 0.64175050000000011 2.0429700000000004 11.500000000000002 8.5000000000000018 3.5000000000000004 6.5000000000000009 2.5000000000000004 3.5000000000000004 3.5000000000000004 31.000000000000004 0.8138375000000001 2.5000000000000004 0.75542550000000008 2.5000000000000004 1.0000000180025095e-35 8.5000000000000018 3.5000000000000004 4.5000000000000009 0.83871600000000013 8.5000000000000018 1.5000000000000002 1.0001600000000004
decision_type=2 2 2 2 2 2 2 2 2 2 2 2 2 2 2 2 2 2 2 2 2 2 2 2 2 2 2 2 2 2
left_child=1 2 5 7 -2 -1 18 13 12 22 27 17 -6 14 15 -3 -9 -7 19 20 -4 -20 -5 28 -16 26 -23 -10 29 -8
right_child=4 3 6 9 8 11 23 16 10 -11 -12 -13 -14 -15 24 -17 -18 -19 21 -21 -22 25 -24 -25 -26 -27 -28 -29 -30 -31
leaf_value=-1.596911495712249 -1.7973085523074475 -1.7540757911964096 -1.7389443248075465 -1.7104408648657343 -1.7973085523074475 -1.6347147267211311 -1.613372805035032 -1.707054592256054 -1.7896542273894276 -1.7689446286626358 -1.7641470594097763 -1.5638516423078432 -1.7466463489644248 -1.7220410239469193 -1.6708527260576618 -1.7024666826201083 -1.7290837018966041 -1.6022281206639426 -1.6247534449164356 -1.634903745351201 -1.6496113235321876 -1.6805800973076455 -1.750877531173697 -1.6194366208791777 -1.6980279295286684 -1.6690925350695696 -1.6375748770445604 -1.7748486056814692 -1.6773673875370085 -1.6805800973076455
leaf_weight=220.8116297274828 2576.2784616798162 11.565303593873979 4.2834457755088797 9.2094084173440915 7.9243746846914283 115.01051907241344 7.0676855295896521 41.549424022436142 78.387057691812515 137.49860939383507 150.7772912979126 4.2834457755088797 73.032750472426414 39.193528845906258 20.560539722442627 13.707026481628416 140.71119372546673 15.634577080607412 14.777887925505636 88.667327553033829 10.494442149996756 9.4235807061195356 115.22469136118889 4.4976180642843238 101.73183716833591 67.46427096426487 32.554187893867493 158.05914911627769 186.75823581218719 8.5668915510177595
leaf_count=1031 12029 54 20 43 37 537 33 194 366 642 704 20 341 183 96 64 657 73 69 414 49 44 538 21 475 315 152 738 872 40
internal_value=-1.75702 -1.67977 -1.63762 -1.73257 -1.79309 -1.60897 -1.66108 -1.71384 -1.76986 -1.75894 -1.77368 -1.6287 -1.75161 -1.70387 -1.69905 -1.72608 -1.72406 -1.63083 -1.64928 -1.6407 -1.6755 -1.65643 -1.74788 -1.67405 -1.69346 -1.66071 -1.64723 -1.77976 -1.67527 -1.6502
internal_weight=0 1421.25 790.296 630.952 3044.46 355.74 434.556 369.019 468.181 261.933 387.223 134.929 80.9571 186.758 147.565 25.2723 182.261 130.645 227.665 103.445 14.7779 124.22 124.434 206.89 122.292 109.442 41.9778 236.446 202.393 15.6346
internal_count=20851 6636 3690 2946 14215 1661 2029 1723 2186 1223 1808 630 378 872 689 118 851 610 1063 483 69 580 581 966 571 511 196 1104 945 73
is_linear=0
shrinkage=1


Tree=1
num_leaves=31
num_cat=0
split_feature=7 4 4 7 4 4 4 4 4 4 2 0 0 2 2 3 1 6 4 1 4 1 5 1 2 3 4 0 4 2
split_gain=4867.46 1276.03 214.299 127.066 125.698 34.1481 26.8339 15.1701 13.4496 11.6888 7.50628 6.60657 8.99466 6.74094 6.31762 6.28069 6.11192 5.86073 5.63151 8.42473 9.79437 6.79033 5.62602 5.53371 5.09624 4.99066 5.45329 4.29655 7.05764 5.15963
threshold=-1.0000000180025095e-35 1.0929200000000001 0.72899550000000013 1.0000000180025095e-35 1.6234450000000002 0.61406400000000005 0.91548300000000016 1.3001800000000003 1.4112550000000004 2.0429700000000004 8.5000000000000018 6.5000000000000009 2.5000000000000004 3.5000000000000004 7.5000000000000009 3.5000000000000004 3.5000000000000004 31.000000000000004 0.8138375000000001 2.5000000000000004 0.75542550000000008 2.5000000000000004 1.0000000180025095e-35 8.5000000000000018 3.5000000000000004 4.5000000000000009 0.83871600000000013 1.5000000000000002 1.0001600000000004 5.5000000000000009
decision_type=2 2 2 2 2 2 2 2 2 2 2 2 2 2 2 2 2 2 2 2 2 2 2 2 2 2 2 2 2 2
left_child=1 2 5 -2 7 -1 18 11 14 22 17 12 13 -3 -5 -9 -10 -7 19 20 -4 -20 -6 27 -14 26 -23 28 -8 -29
right_child=3 4 6 8 9 10 23 15 16 -11 -12 -13 24 -15 -16 -17 -18 -19 21 -21 -22 25 -24 -25 -26 -27 -28 29 -30 -31
leaf_value=-1.774769477828015 -1.8081162274294971 -1.6162412973278186 -1.6315040758586339 -1.797442782953071 -1.660254891230635 -1.7366381871910099 -1.7581653158741015 -1.6636705501997189 -1.8081162274294971 -1.6012434268355888 -1.8081162274294971 -1.6485540649902473 -1.700186579247303 -1.6682982741025638 -1.7810576369196756 -1.6414502700871301 -1.7618524025255382 -1.7694067147564312 -1.7466859138396316 -1.7364475282413208 -1.7216123164560131 -1.6903747930489217 -1.6194673121208427 -1.7520488777244612 -1.6727755470678252 -1.7019620453212958 -1.7337532162417653 -1.6863311478277705 -1.6903747930489217 -1.7031795644271805
leaf_weight=218.91189058125019 2554.1136098951101 11.465802222490312 4.2465934157371512 74.952373787760735 9.1301758438348752 114.02103321254253 7.0068791359663001 41.191956132650375 7.6438681483268729 136.31564864516258 4.2465934157371512 38.856329753994942 20.38364839553833 13.589098930358885 273.4806159734726 139.50059370696545 108.07580243051052 15.500065967440603 14.650747284293173 87.904483705759048 10.404153868556021 9.3425055146217328 114.23336288332939 4.4589230865240088 100.85659362375736 66.883846297860146 32.274109959602356 105.10318703949451 8.4931868314743024 80.048285886645317
leaf_count=1031 12029 54 20 353 43 537 33 194 36 642 20 183 96 64 1288 657 509 73 69 414 49 44 538 21 475 315 152 495 40 377
internal_value=-1.76792 -1.69119 -1.73371 -1.80374 -1.63794 -1.76261 -1.71005 -1.65682 -1.77968 -1.61133 -1.7427 -1.66688 -1.67175 -1.64448 -1.78458 -1.64652 -1.76491 -1.74056 -1.72194 -1.7306 -1.69549 -1.71474 -1.62249 -1.69696 -1.67738 -1.71042 -1.72402 -1.69573 -1.72102 -1.69362
internal_weight=0 1409.02 783.496 3018.27 625.523 352.68 430.817 365.844 464.153 259.679 133.768 185.151 146.295 25.0549 348.433 180.693 115.72 129.521 225.706 102.555 14.6507 123.151 123.364 205.11 121.24 108.5 41.6166 200.652 15.5001 185.151
internal_count=20851 6636 3690 14215 2946 1661 2029 1723 2186 1223 630 872 689 118 1641 851 545 610 1063 483 69 580 581 966 571 511 196 945 73 872
is_linear=0
shrinkage=1


Tree=2
num_leaves=31
num_cat=0
split_feature=7 7 2 3 6 1 2 4 2 3 2 1 3 0 4 4 3 6 4 0 1 1 4 0 2 6 1 3 2 1
split_gain=12416.4 310.749 21.5459 9.19207 6.41839 7.28585 4.216 4.31523 3.87311 3.57395 3.48138 3.00709 2.7623 3.99101 2.70819 2.58598 3.51657 2.47743 2.42417 3.30648 2.12097 2.08866 1.92203 3.68722 3.51023 1.80646 1.7802 1.65022 2.07533 1.52517
threshold=-1.0000000180025095e-35 1.0000000180025095e-35 5.5000000000000009 6.5000000000000009 29.000000000000004 14.500000000000002 13.500000000000002 1.5220000000000002 15.500000000000002 8.5000000000000018 13.500000000000002 9.5000000000000018 14.500000000000002 10.500000000000002 0.82255800000000012 0.63000700000000009 9.5000000000000018 33.500000000000007 1.4112550000000004 8.5000000000000018 11.500000000000002 1.5000000000000002 1.6099500000000002 8.5000000000000018 9.5000000000000018 18.000000000000004 10.500000000000002 8.5000000000000018 9.5000000000000018 8.5000000000000018
decision_type=2 2 2 2 2 2 2 2 2 2 2 2 2 2 2 2 2 2 2 2 2 2 2 2 2 2 2 2 2 2
left_child=-1 -2 21 18 5 6 12 8 14 -6 -7 -11 15 -14 -8 16 -5 -13 -4 -20 29 -3 27 -24 -25 -23 -18 28 -17 -16
right_child=1 2 3 4 9 10 7 -9 -10 11 -12 17 13 -15 20 22 26 -19 19 -21 -22 25 23 24 -26 -27 -28 -29 -30 -31
leaf_value=-0.51755651543881198 -0.36968953759477585 -0.36968953759477585 -0.38447623537917947 -0.43992635207069303 -0.38222063741206708 -0.44362302651679397 -0.44362302651679397 -0.4534808250397297 -0.39366796643434931 -0.39334825404982166 -0.40802542073952597 -0.41172021965318339 -0.4047106639262581 -0.44362302651679397 -0.42144297984018853 -0.37747201011288301 -0.40069390391691245 -0.38864684244657538 -0.37708288648697769 -0.42027560896247246 -0.43690180025115594 -0.4100168951886039 -0.43927399775667525 -0.4288363287323903 -0.39540553374156479 -0.38389145072103925 -0.42378721241576472 -0.40546891339001373 -0.40341358517324027 -0.38897653470486754
leaf_weight=2243.9087802171707 4067.5073413550854 24.3462073802948 47.339847683906555 13.525670766830443 19.950364381074905 27.727625072002411 13.525670766830443 10.144253075122831 12.511245459318159 42.267721146345139 9.1298277676105482 98.737396597862244 12.849387228488924 13.525670766830443 6.7628353834152239 12.84938722848892 20.964789688587189 13.187528997659681 6.7628353834152248 12.84938722848892 7.4391189217567435 7.4391189217567435 11.496820151805876 11.834961920976637 23.331782072782516 59.851093143224716 13.863812536001204 157.91220620274544 19.274080842733383 7.7772606909275055
leaf_count=6636 12029 72 140 40 59 82 40 30 37 125 27 292 38 40 20 38 62 39 20 38 22 22 34 35 69 177 41 467 57 23
internal_value=-0.420444 -0.375109 -0.404931 -0.408143 -0.410166 -0.413607 -0.411493 -0.42385 -0.41759 -0.402134 -0.434805 -0.404711 -0.409185 -0.424666 -0.42602 -0.407753 -0.418289 -0.409002 -0.3906 -0.405382 -0.415187 -0.382239 -0.4056 -0.414693 -0.406656 -0.38678 -0.409886 -0.403367 -0.393037 -0.404077
internal_weight=0 4806.69 739.178 647.541 580.589 406.446 369.589 58.1604 48.0161 174.143 36.8575 154.193 311.429 26.3751 35.5049 285.054 48.3543 111.925 66.9521 19.6122 21.9792 91.6364 236.699 46.6636 35.1667 67.2902 34.8286 190.036 32.1235 14.5401
internal_count=20851 14215 2186 1915 1717 1202 1093 172 142 515 109 456 921 78 105 843 143 331 198 58 65 271 700 138 104 199 103 562 95 43
is_linear=0
shrinkage=1


Tree=3
num_leaves=31
num_cat=0
split_feature=7 4 4 7 4 4 4 4 4 4 1 3 0 0 2 3 2 5 3 2 4 2 1 6 1 0 2 4 4 2
split_gain=4204.03 948.944 143.537 117.658 105.696 23.4268 17.1766 12.2883 12.1098 10.4089 8.53242 6.85218 5.20393 7.05765 5.56562 5.08999 5.00928 4.74403 4.42758 4.39554 6.78994 6.66556 5.26329 6.49301 5.15064 4.58241 4.16449 4.02392 10.3888 3.89755
threshold=-1.0000000180025095e-35 1.0929200000000001 0.74330950000000018 1.0000000180025095e-35 1.6234450000000002 0.61406400000000005 0.87982550000000004 0.64175050000000011 1.3001800000000003 2.0429700000000004 11.500000000000002 3.5000000000000004 6.5000000000000009 2.5000000000000004 3.5000000000000004 3.5000000000000004 2.5000000000000004 1.0000000180025095e-35 8.5000000000000018 5.5000000000000009 0.98411650000000017 6.5000000000000009 4.5000000000000009 26.000000000000004 5.5000000000000009 1.5000000000000002 8.5000000000000018 0.97549750000000002 1.0349750000000002 9.5000000000000018
decision_type=2 2 2 2 2 2 2 2 2 2 2 2 2 2 2 2 2 2 2 2 2 2 2 2 2 2 2 2 2 2
left_child=1 2 5 -2 8 -1 -4 11 12 17 18 -5 13 14 -3 -10 -7 -6 -9 20 25 24 -23 -24 -21 -8 -18 -25 -29 -12
right_child=3 4 6 7 9 16 19 10 15 -11 29 -13 -14 -15 -16 -17 26 -19 -20 21 -22 22 23 27 -26 -27 -28 28 -30 -31
leaf_value=0.13079645243795768 -0.039795770211818071 0.001438745239090828 0.092547289767732507 -0.039837061353848117 0.040588365215493249 0.082760820824304027 0.11794520979047847 -0.031983584440188256 0.043513514383633274 -0.012549519393448443 -0.018719788171317586 0.010093723235119693 0.030447484089212374 0.055100045262294076 0.047451728149482911 0.024198289424658161 0.1082760299661934 0.0044032234024069293 -0.017229300928839165 0.10872050254032771 0.057329411700950121 0.048039217272566326 0.098859697317942946 0.037129807023291557 0.077132406710555643 0.074370697108545034 0.15434546886709974 0.13295229131873906 0.03743091580371409 -0.0012892585273504983
leaf_weight=255.85651363432407 2454.2685311287642 11.895686835050585 191.54927624762058 7.5811791867017737 9.8053654432296735 19.278306797146797 6.5702343583106986 75.616040274500847 44.354822516441345 139.73632004857063 46.612382724881172 73.36987878382206 41.352910861372948 131.9282468855381 14.684665679931639 147.64250931143761 142.94734399020672 118.82117521762848 155.23372136056423 27.309636294841766 79.567409589886665 19.56101430952549 21.390754103660583 10.176625028252603 24.466101765632629 73.854927226901054 5.0797361135482779 5.1629737317562086 6.3440676629543304 102.80220574140549
leaf_count=1031 12029 54 801 37 43 80 27 366 194 642 220 341 183 571 64 657 591 538 738 116 340 83 91 43 104 314 20 22 27 484
internal_value=0 0.0664825 0.100202 -0.0354415 0.0210726 0.121283 0.0810572 -0.012271 0.0376284 -0.00310193 -0.0160366 0.00541764 0.0462434 0.0503643 0.0268592 0.0286605 0.106735 0.00716166 -0.0220621 0.0730365 0.0676852 0.0805199 0.0695474 0.0793147 0.0937939 0.0779305 0.109857 0.0600336 0.0802894 -0.006727
internal_weight=0 1549.34 889.115 2915.48 660.222 423.162 465.953 461.215 391.859 268.363 380.264 80.9511 199.862 158.509 26.5804 191.997 167.305 128.627 230.85 274.404 159.993 114.411 62.6354 43.0744 51.7757 80.4252 148.027 21.6837 11.507 149.415
internal_count=20851 6636 3690 14215 2946 1722 1968 2186 1723 1223 1808 378 872 689 118 851 691 581 1104 1167 681 486 266 183 220 341 611 92 49 704
is_linear=0
shrinkage=0.05


Tree=4
num_leaves=31
num_cat=0
split_feature=7 4 4 7 4 4 4 4 3 4 4 3 1 2 1 1 1 6 3 1 4 4 3 4 2 6 4 5 2 0
split_gain=4111.84 944.026 138.847 125.198 115.615 33.023 22.965 12.613 8.83775 7.55756 7.43527 6.20627 6.19635 6.01917 5.76973 5.56493 5.44897 4.95341 4.405 4.52396 4.8089 4.37095 4.27656 5.81267 4.76241 4.66108 6.48453 4.0189 5.67095 8.20142
threshold=-1.0000000180025095e-35 1.0183000000000002 0.61406400000000005 1.0000000180025095e-35 1.6234450000000002 0.82255800000000012 1.1217650000000001 1.4112550000000004 3.5000000000000004 2.3913400000000005 1.3526850000000004 4.5000000000000009 2.5000000000000004 7.5000000000000009 3.5000000000000004 2.5000000000000004 4.5000000000000009 31.000000000000004 4.5000000000000009 3.5000000000000004 0.99684500000000009 0.69404150000000009 6.5000000000000009 1.1579500000000003 5.5000000000000009 26.000000000000004 1.2362850000000003 1.0000000180025095e-35 2.5000000000000004 3.5000000000000004
decision_type=2 2 2 2 2 2 2 2 2 2 2 2 2 2 2 2 2 2 2 2 2 2 2 2 2 2 2 2 2 2
left_child=1 2 -1 -2 6 15 -3 13 27 -6 11 -10 -7 -5 -9 -4 22 -17 19 -14 -21 -15 23 -13 -24 26 -25 -8 29 -29
right_child=3 4 5 7 9 12 8 14 10 -11 -12 16 18 21 -16 17 -18 -19 -20 20 -22 -23 24 25 -26 -27 -28 28 -30 -31
leaf_value=-0.0077332294871025721 -0.039713007651316912 0.070137792825101991 0.046097537770565813 -0.028822608774908984 0.12271099041523587 0.031270596954443959 0.11169597873207107 -0.039801868723113164 0.11115113707143338 0.13972042967156617 0.10839910726256496 0.014150287268481849 0.081068193653335147 -0.022810165745322936 0.0059834909722152841 0.027021254220293722 0.094343059681494854 0.0047794510599532131 0.060584606301518053 0.036750331458091992 0.075016966800222462 -0.0086247574705026857 0.11305343283520726 0.089739360213949015 0.054452916079819169 0.10373756210648757 0.021630824867130315 0.094616793149993911 0.083435960053608205 0.015230961500059332
leaf_weight=223.39977389574051 2432.9461358636618 123.0206750780344 33.31812547147274 72.48793089389801 204.36182937026024 30.486622750759125 9.4661280959844571 7.3479797393083564 34.389917343854904 95.972450375556946 124.93289351463318 5.402590379118922 8.1933291256427747 75.390727549791336 108.23711585998535 198.433912307024 88.721079230308533 28.646268457174301 142.09986960887909 61.771346688270569 9.4685009419918043 194.15175610780716 10.358375325798987 6.8591312170028704 5.2113976925611487 7.5747124701738349 7.12489053606987 5.504460543394087 63.261719584465027 7.9557093232870102
leaf_count=1031 12029 530 147 353 835 135 40 36 145 388 520 23 36 360 509 888 375 130 618 272 41 928 44 29 22 32 30 23 268 34
internal_value=0 0.0660372 0.0251613 -0.0352 0.103628 0.0395024 0.0888945 -0.0112066 0.095019 0.128146 0.0991896 0.0922435 0.0524048 -0.0160321 0.00307282 0.0270153 0.0872894 0.0242154 0.0553132 0.045883 0.0418364 -0.0125924 0.0725753 0.0605268 0.0934391 0.0721486 0.0550379 0.0809581 0.0771656 0.0476953
internal_weight=0 1535.94 735.818 2890.56 800.118 512.418 499.784 457.616 376.763 300.334 290.575 165.642 252.02 342.03 115.585 260.398 131.252 227.08 221.533 79.4332 71.2398 269.542 42.5311 26.9613 15.5698 21.5587 13.984 86.188 76.7219 13.4602
internal_count=20851 6636 3298 14215 3338 2267 2115 2186 1585 1223 1220 700 1102 1641 545 1165 555 1018 967 349 313 1288 180 114 66 91 59 365 325 57
is_linear=0
shrinkage=0.05


Tree=5
num_leaves=31
num_cat=0
split_feature=7 7 2 3 6 1 2 4 2 3 2 1 3 0 4 0 4 6 4 3 1 1 6 4 0 2 1 3 2 1
split_gain=10696.6 294.384 20.1448 8.57867 6.10005 6.75759 3.9571 3.94729 3.65789 3.38535 3.23376 2.82684 2.61341 3.7153 2.48684 2.36013 3.61117 2.35492 2.32676 3.28361 2.00099 1.96451 1.75136 1.75 3.48222 3.32921 1.67981 1.54755 1.98802 1.53303
threshold=-1.0000000180025095e-35 1.0000000180025095e-35 5.5000000000000009 6.5000000000000009 29.000000000000004 14.500000000000002 13.500000000000002 1.5220000000000002 15.500000000000002 8.5000000000000018 13.500000000000002 9.5000000000000018 14.500000000000002 10.500000000000002 0.82255800000000012 8.5000000000000018 1.4112550000000004 33.500000000000007 0.63000700000000009 9.5000000000000018 1.5000000000000002 11.500000000000002 18.000000000000004 1.6099500000000002 8.5000000000000018 9.5000000000000018 10.500000000000002 8.5000000000000018 9.5000000000000018 10.500000000000002
decision_type=2 2 2 2 2 2 2 2 2 2 2 2 2 2 2 2 2 2 2 2 2 2 2 2 2 2 2 2 2 2
left_child=-1 -2 20 15 5 6 12 8 14 29 -7 -11 18 -14 -8 -4 -17 -13 19 -5 -3 -16 -22 27 -25 -26 -21 28 -20 -6
right_child=1 2 3 4 9 10 7 -9 -10 11 -12 17 13 -15 21 16 -18 -19 23 26 22 -23 -24 24 25 -27 -28 -29 -30 -31
leaf_value=-0.086835626317729342 0.049239339685047831 0.049377546443087394 0.042598231319755993 -0.018805584330917783 0.021858758439819676 -0.022509766726337796 -0.022542569432494771 -0.031797327782270637 0.025839520896006354 0.026132198474148438 0.011855437606719491 0.0082249662845687872 0.014942154226862665 -0.022651332697592112 0.015486844783106111 0.031195605700516035 -0.00019328540583518663 0.030857517854574384 0.041727416703839483 0.019162898625575846 0.0094524915843159189 -0.016130238875120696 0.03532220178814971 -0.018440182133605633 -0.0083115524911523235 0.02429017134139529 -0.0032978556794943043 0.014178623472230478 0.016123609407666814 0.049925052389803139
leaf_weight=2354.2501962184906 3945.8107329308987 23.689586818218231 20.902773946523666 13.598019480705259 8.9575106501579302 27.870063990354538 13.591704636812208 10.233801126480101 12.360260576009749 41.740294814109802 9.0745043754577619 98.22793635725975 12.735354691743852 13.580483525991438 14.394483745098116 32.215039938688278 12.80514222383499 13.01642659306526 12.582446962594988 20.820810616016388 7.3621954023838034 7.4588809311389914 58.747489482164383 11.532303392887114 11.843182921409605 23.112850368022919 13.869510740041731 156.51463252305984 19.074673771858215 10.650345623493193
leaf_count=6636 12029 72 63 40 27 82 40 30 37 125 27 292 38 40 43 97 38 39 38 62 22 22 177 34 35 69 41 467 57 32
internal_value=0 0.0438351 0.0147262 0.0116271 0.00967437 0.0063147 0.00836494 -0.00361488 0.0024182 0.0175434 -0.0140688 0.0150364 0.0106132 -0.00445824 -0.00574919 0.028714 0.0222676 0.0108731 0.0120149 0.00201972 0.0369092 0.00469546 0.0324413 0.0140717 0.00538462 0.0132446 0.0101829 0.0162179 0.0263001 0.0371035
internal_weight=0 4678.37 732.563 642.763 576.84 404.248 367.303 58.0391 47.8053 172.593 36.9446 152.985 309.264 26.3158 35.4451 65.923 45.0202 111.244 282.948 48.2883 89.7993 21.8534 66.1097 234.66 46.4883 34.956 34.6903 188.172 31.6571 19.6079
internal_count=20851 14215 2186 1915 1717 1202 1093 172 142 515 109 456 921 78 105 198 135 331 843 143 271 65 199 700 138 104 103 562 95 59
is_linear=0
shrinkage=0.05


Tree=6
num_leaves=31
num_cat=0
split_feature=7 4 7 4 4 4 4 3 4 4 4 1 0 0 2 3 5 6 4 1 6 2 2 1 0 2 2 2 3 4
split_gain=3615.96 742.03 116.091 104.767 90.8971 16.3867 13.0528 11.588 10.6611 10.0101 9.47892 5.83115 4.36639 5.86707 4.80619 4.22226 4.19082 3.87564 3.81876 5.95797 5.17722 3.8053 3.80342 3.7008 3.65345 4.80074 3.62701 3.54268 3.3826 3.31204
threshold=-1.0000000180025095e-35 1.0929200000000001 1.0000000180025095e-35 0.74330950000000018 1.6234450000000002 0.61406400000000005 0.91548300000000016 7.5000000000000009 0.64175050000000011 1.3001800000000003 2.0429700000000004 11.500000000000002 6.5000000000000009 2.5000000000000004 3.5000000000000004 3.5000000000000004 1.0000000180025095e-35 36.000000000000007 0.58282050000000007 9.5000000000000018 29.000000000000004 2.5000000000000004 9.5000000000000018 8.5000000000000018 2.5000000000000004 2.5000000000000004 8.5000000000000018 3.5000000000000004 4.5000000000000009 0.68900300000000014
decision_type=2 2 2 2 2 2 2 2 2 2 2 2 2 2 2 2 2 2 2 2 2 2 2 2 2 2 2 2 2 2
left_child=1 3 -2 5 9 -1 17 -4 18 12 16 -10 13 14 -3 -11 -6 24 -9 -20 -21 29 -13 -8 25 -5 -26 28 -15 -7
right_child=2 4 7 6 10 21 23 8 11 15 -12 22 -14 27 -16 -17 -18 -19 19 20 -22 -23 -24 -25 26 -27 -28 -29 -30 -31
leaf_value=0.11095420960579612 -0.039343359963058523 9.3317249820889915e-05 -0.027898105769177631 0.057200071770368177 0.036450391487130855 0.08790354544794643 0.06136702806989635 0.0028345807904792929 -0.017962308787057769 0.038481039806477241 -0.01290066749295108 -0.016920528241395786 0.026771933241114626 0.085409216836207447 0.042042656448915507 0.021316876103636223 0.0031620114536241467 0.11733343719034375 -0.0093488550626551516 0.074289607171514865 0.0060670946179579447 0.094390865942239152 0.0017574757654545432 0.1029150003273144 0.076257040173651966 0.10432554631496196 0.035894215795436384 0.045137816265427143 0.047831532467557947 0.047249121729402037
leaf_weight=285.38430961966515 2335.2487834841013 12.200669318437578 89.047354593873024 6.9954748302698162 10.252844050526617 12.597708582878115 238.04926224052906 48.550485119223595 168.7090157866478 46.754526481032372 141.00333949923515 38.977211654186249 43.238599061965942 11.748712047934534 15.505347415804861 153.33312773704529 121.47486445307732 6.240321844816207 6.4535697400569942 7.8420816361904127 4.3088176101446152 162.95752277970314 90.629961177706718 5.4830948114395133 217.76791328191757 23.75897191464901 5.7117647379636756 116.01957632601261 12.215033382177351 8.3174099922180158
leaf_count=1031 12029 54 442 27 43 48 945 224 819 194 642 187 183 47 64 657 538 24 30 36 20 611 428 21 838 91 22 475 49 32
internal_value=0 0.0584085 -0.0348436 0.0864531 0.0184889 0.103454 0.0706241 -0.0117242 -0.00778344 0.0333392 -0.00389106 -0.0118352 0.040939 0.044592 0.0235698 0.0253276 0.00575297 0.0784045 0.0102154 0.0294764 0.0500973 0.091814 -0.00385962 0.0623025 0.0774489 0.0936063 0.0752254 0.0487528 0.0662548 0.0717363
internal_weight=0 1657.01 2789.77 973.264 683.747 469.257 504.007 454.518 365.471 411.016 272.731 298.316 210.928 167.689 27.706 200.088 131.728 260.474 67.155 18.6045 12.1509 183.873 129.607 243.532 254.234 30.7544 223.48 139.983 23.9637 20.9151
internal_count=20851 6636 14215 3690 2946 1722 1968 2186 1744 1723 1223 1434 872 689 118 851 581 1002 310 86 56 691 615 966 978 118 860 571 96 80
is_linear=0
shrinkage=0.05


Tree=7
num_leaves=31
num_cat=0
split_feature=7 4 7 4 4 4 4 4 4 2 1 1 3 1 6 1 2 2 3 2 4 6 4 3 4 6 4 4 6 4
split_gain=3536.61 733.88 123.495 119.328 83.774 27.191 14.754 11.8229 8.46959 5.74619 5.69366 5.67722 5.54348 5.44901 5.11839 4.99314 4.79618 4.74634 5.3879 4.62887 4.41429 4.36346 4.32288 3.94806 4.26348 3.73209 3.95624 3.80972 3.44651 3.74755
threshold=-1.0000000180025095e-35 1.0183000000000002 1.0000000180025095e-35 0.61406400000000005 1.5334750000000004 0.8138375000000001 1.1027600000000002 1.4112550000000004 2.0429700000000004 5.5000000000000009 2.5000000000000004 2.5000000000000004 3.5000000000000004 3.5000000000000004 29.000000000000004 14.500000000000002 13.500000000000002 5.5000000000000009 3.5000000000000004 6.5000000000000009 1.3526850000000004 31.000000000000004 0.83871600000000013 5.5000000000000009 1.1955050000000003 27.500000000000004 0.53379800000000011 0.60706450000000012 26.000000000000004 1.0660350000000001
decision_type=2 2 2 2 2 2 2 2 2 2 2 2 2 2 2 2 2 2 2 2 2 2 2 2 2 2 2 2 2 2
left_child=1 3 -2 25 6 10 17 9 -6 -4 -5 -7 -8 -9 15 -11 22 -3 19 -19 23 -12 -17 24 -14 26 -1 -28 29 -20
right_child=2 4 7 5 8 11 12 13 -10 14 21 -13 20 -15 -16 16 -18 18 28 -21 -22 -23 -24 -25 -26 -27 27 -29 -30 -31
leaf_value=-0.010726358451765302 -0.039267835549432306 0.0681321988682239 -0.032496448134603846 0.042641965268867779 0.099869780332854541 0.026595853340874404 0.069306526466723514 -0.039439258081025413 0.11480612160668041 -0.011137122344315712 0.023090045335982738 0.048453455547551608 0.07369023817271253 0.0058984244551913163 -0.023283243601591872 -0.00058871968491279502 -0.028861293132035639 0.045124452695859719 0.04027664860775277 0.11198034451250752 0.092061595215299163 0.0019947630061850348 0.054910932454060035 0.072747366849124473 0.095945278111652765 -0.025725342366253047 0.0077421139126597387 -0.040547726789430721 0.054478978957973795 -0.0061927296883967642
leaf_weight=135.80865754187107 2314.7808542251587 65.220770657062531 42.968751147389412 33.22551403939724 203.99177101254463 33.791679114103317 88.896001785993576 7.0589456111192694 177.4911048412323 189.52175690233707 197.44120053946972 245.81408609449863 36.097120389342308 108.38907326757908 84.657625094056129 6.3229078799486178 4.5330320447683325 5.1640552729368192 11.546184480190279 5.1921044588088989 100.53471922874451 27.988055840134621 7.8827214986085892 107.83629179000854 53.291412368416786 26.986211434006691 59.018625006079674 4.3880018591880789 16.052125245332718 6.9503329545259467
leaf_count=619 12029 261 218 139 759 143 348 36 642 920 850 1011 141 509 414 30 22 21 47 21 380 124 37 420 205 123 269 20 65 28
internal_value=0 0.0580179 -0.0346028 0.0221971 0.0891971 0.0350032 0.0756649 -0.0106771 0.106819 -0.0154215 0.0233189 0.0458119 0.0802635 0.0031263 -0.0129167 -0.00870271 0.0159187 0.0595191 0.0470093 0.0786429 0.0835347 0.020471 0.0302081 0.0791882 0.0869582 -0.00827561 -0.00591183 0.00440026 0.0375269 0.0228151
internal_weight=0 1642.73 2766.12 764.462 878.264 538.261 496.781 451.335 381.483 335.887 258.655 279.606 386.656 115.448 292.918 208.26 18.7387 110.126 44.9048 10.3562 297.76 225.429 14.2056 197.225 89.3885 226.201 199.215 63.4066 34.5486 18.4965
internal_count=20851 6636 14215 3298 3338 2267 1937 2186 1401 1641 1113 1154 1494 545 1423 1009 89 443 182 42 1146 974 67 766 346 1031 908 289 140 75
is_linear=0
shrinkage=0.05


Tree=8
num_leaves=31
num_cat=0
split_feature=7 7 2 3 6 1 2 4 2 3 2 1 3 0 4 0 4 6 4 3 1 1 6 4 0 2 1 1 1 0
split_gain=9359.91 280.454 18.8107 8.01892 5.79786 6.26262 3.69655 3.60931 3.45073 3.2144 3.01877 2.65784 2.46585 3.45768 2.30889 2.2782 3.40509 2.24707 2.15014 3.0692 1.93821 1.80691 1.69776 1.59449 3.28605 3.17377 1.58692 1.51691 1.46867 1.46861
threshold=-1.0000000180025095e-35 1.0000000180025095e-35 5.5000000000000009 6.5000000000000009 29.000000000000004 14.500000000000002 13.500000000000002 1.5220000000000002 15.500000000000002 8.5000000000000018 13.500000000000002 9.5000000000000018 14.500000000000002 10.500000000000002 0.82255800000000012 8.5000000000000018 1.4112550000000004 33.500000000000007 0.63000700000000009 9.5000000000000018 1.5000000000000002 11.500000000000002 18.000000000000004 1.6099500000000002 8.5000000000000018 9.5000000000000018 10.500000000000002 10.500000000000002 8.5000000000000018 6.5000000000000009
decision_type=2 2 2 2 2 2 2 2 2 2 2 2 2 2 2 2 2 2 2 2 2 2 2 2 2 2 2 2 2 2
left_child=-1 -2 20 15 5 6 12 8 14 27 -7 -11 18 -14 -8 -4 -17 -13 19 -5 -3 28 -22 29 -25 -26 -21 -6 -16 -20
right_child=1 2 3 4 9 10 7 -9 -10 11 -12 17 13 -15 21 16 -18 -19 23 26 22 -23 -24 24 25 -27 -28 -29 -30 -31
leaf_value=-0.079166013433086324 0.047884959030335461 0.048139754000426797 0.041461953060732637 -0.018317732943285647 0.020808219473793736 -0.021870714265987801 -0.02198627898640991 -0.030576718464180176 0.024957698374139588 0.025212547116782953 0.011378935134791423 0.0077517266697458721 0.014202350968458823 -0.022109796777205547 -0.00241970214656459 0.030084585736279864 -0.00050363312667866405 0.029991964745297674 0.027403710971575457 0.018475524880871983 0.0085050844798010752 -0.015638645827334974 0.034123906342495583 -0.018023495457691076 -0.0082690091504123969 0.023607508293075549 -0.0033978738274802246 0.048967575167111553 0.02973893115234439 0.013778398086126098
leaf_weight=2426.4309999644756 3816.9181118607521 22.999902248382568 20.45197057723999 13.64967957139015 8.8315170109272021 28.004408746957779 13.648855000734327 10.320475816726683 12.211842447519301 41.213679611682892 9.0268975496292096 97.736588001251221 12.625672906637194 13.636145055294035 6.67182904481888 31.66628709435463 12.766277492046354 12.850643366575239 22.490659087896347 20.648108273744583 7.285092204809188 7.4883281886577597 57.583256244659424 11.569544821977614 11.847351610660551 22.906045705080032 13.856851726770399 10.431269168853758 7.5884248614311218 163.89346334338188
leaf_count=6636 12029 72 63 40 27 82 40 30 37 125 27 292 38 40 20 97 38 39 68 62 22 22 177 34 35 69 41 32 23 494
internal_value=0 0.0424672 0.0139796 0.0109927 0.00910666 0.00582653 0.00781398 -0.00377101 0.00203978 0.0168166 -0.0137656 0.014375 0.00999915 -0.00465231 -0.00586673 0.0276524 0.021296 0.0103361 0.0113691 0.00175206 0.0356686 0.0042495 0.0312468 0.0133592 0.00505722 0.0127409 0.00969138 0.0360572 0.0146931 0.0154225
internal_weight=0 4542.82 725.901 638.033 573.148 402.085 365.053 57.9298 47.6093 171.064 37.0313 151.801 307.124 26.2618 35.3974 64.8845 44.4326 110.587 280.862 48.1546 87.8683 21.7486 64.8683 232.707 46.3229 34.7534 34.505 19.2628 14.2603 186.384
internal_count=20851 14215 2186 1915 1717 1202 1093 172 142 515 109 456 921 78 105 198 135 331 843 143 271 65 199 700 138 104 103 59 43 562
is_linear=0
shrinkage=0.05


Tree=9
num_leaves=31
num_cat=0
split_feature=7 4 7 4 4 4 3 4 4 4 4 2 0 4 2 1 1 4 0 3 3 2 0 2 4 5 3 4 1 4
split_gain=3150.66 597.258 114.663 84.6952 75.7774 16.9494 10.9565 9.88647 8.77808 7.57752 7.15611 6.39057 8.56889 5.63587 6.19154 5.52053 4.63487 8.44069 6.65449 4.62998 3.83727 3.82758 3.82296 4.00752 5.2751 3.76069 7.40384 3.69225 3.48944 3.48805
threshold=-1.0000000180025095e-35 1.1027600000000002 1.0000000180025095e-35 0.78452700000000009 1.6234450000000002 0.61406400000000005 7.5000000000000009 0.64175050000000011 2.3913400000000005 1.3526850000000004 0.93912800000000007 5.5000000000000009 3.5000000000000004 1.3286000000000002 1.0000000180025095e-35 11.500000000000002 6.5000000000000009 1.2122450000000002 5.5000000000000009 3.5000000000000004 4.5000000000000009 6.5000000000000009 13.500000000000002 13.500000000000002 0.96370200000000017 1.0000000180025095e-35 1.0000000180025095e-35 1.2727850000000001 1.0000000180025095e-35 0.58282050000000007
decision_type=2 2 2 2 2 2 2 2 2 2 2 2 2 2 2 2 2 2 2 2 2 2 2 2 2 2 2 2 2 2
left_child=1 3 -2 5 9 -1 -4 29 25 11 -5 12 27 14 -14 -9 18 -18 20 -11 21 -13 23 -17 -25 26 -6 -3 -7 -8
right_child=2 4 6 10 8 28 7 15 -10 19 -12 16 13 -15 -16 22 17 -19 -20 -21 -22 -23 -24 24 -26 -27 -28 -29 -30 -31
leaf_value=0.096596046775088623 -0.038924572600358115 0.027548745612389791 -0.027217358566260869 0.06613449445238069 -0.022314004129744033 0.055179903856432101 0.0027846598070664923 -0.017376099145546494 -0.017730437710662125 0.036421941991171589 0.053942211855022543 0.050100380409703882 0.094242495613810234 0.09200998453886769 0.042635587208115631 -0.0039094369665025356 0.039237200010198814 -0.013490027851014885 0.015866680287406693 0.016377990710225356 0.054904462513529456 0.0006594922930848522 -0.023223530763280546 -0.014997106280953779 0.043723263727306901 -0.00047510127594859223 0.051714873080317851 -0.016241281369107533 0.080743978050196771 0.028089054432553353
leaf_weight=310.02814733982086 2219.524474799633 27.287535101175308 86.183108016848564 249.12705525755882 5.2025234699249259 14.096279144287108 48.588842749595642 165.59557119011879 85.351136267185211 37.450406044721603 232.82542839646339 7.5661457926034918 6.2003610730171195 7.0919610112905493 92.781873688101768 91.369217023253441 13.455256655812265 17.412520006299019 35.305883526802063 124.88374263048172 30.81723327934742 8.111353784799574 20.762475818395615 5.9488646537065533 10.711051329970358 175.42693202197552 9.6280738711357099 5.8447703123092642 251.67067340016365 18.922025501728058
leaf_count=1031 12029 111 442 903 22 51 224 819 388 149 875 30 24 29 366 438 53 70 142 520 122 32 99 28 50 773 40 24 881 86
internal_value=0 0.0521039 -0.0342669 0.0757092 0.0159081 0.0886534 -0.0111956 -0.00738018 -0.00440782 0.029426 0.0602445 0.0348552 0.0420202 0.0489533 0.0458683 -0.0113377 0.0260025 0.00949376 0.0322321 0.0210021 0.0446592 0.0245202 -0.00357379 0.000202762 0.0227556 0.00156882 0.0257458 0.0198239 0.0793881 0.00987701
internal_weight=0 1747.57 2667.61 1057.75 689.818 575.795 448.081 361.898 275.609 414.209 481.952 251.875 139.207 106.074 98.9822 294.387 112.668 30.8678 81.8006 162.334 46.4947 15.6775 128.792 108.029 16.6599 190.258 14.8306 33.1323 265.767 67.5109
internal_count=20851 6636 14215 3741 2895 1963 2186 1744 1223 1672 1778 1003 554 419 390 1434 449 123 326 669 184 62 615 516 78 835 62 135 932 310
is_linear=0
shrinkage=0.05


Tree=10
num_leaves=31
num_cat=0
split_feature=7 4 7 4 4 4 4 4 4 2 1 2 1 3 2 0 3 4 1 6 6 4 4 2 4 0 1 4 0 0
split_gain=3081.44 589.789 121.912 96.5013 70.4527 19.4156 14.7823 11.0804 6.37598 5.53514 5.14537 5.00767 4.94062 4.80112 4.65919 4.50345 4.37109 4.30833 4.0631 3.86845 3.53692 3.68096 3.39409 3.34126 8.19488 6.44497 4.26669 8.44785 5.3939 3.29809
threshold=-1.0000000180025095e-35 0.99684500000000009 1.0000000180025095e-35 0.61406400000000005 1.5334750000000004 0.8138375000000001 1.1027600000000002 1.4112550000000004 2.0429700000000004 7.5000000000000009 3.5000000000000004 5.5000000000000009 2.5000000000000004 3.5000000000000004 6.5000000000000009 2.5000000000000004 3.5000000000000004 0.69404150000000009 3.5000000000000004 31.000000000000004 27.500000000000004 0.53379800000000011 1.3526850000000004 5.5000000000000009 1.3286000000000002 2.5000000000000004 6.5000000000000009 1.2122450000000002 3.5000000000000004 14.500000000000002
decision_type=2 2 2 2 2 2 2 2 2 2 2 2 2 2 2 2 2 2 2 2 2 2 2 2 2 2 2 2 2 2
left_child=1 3 -2 20 6 12 11 9 -6 -4 -9 -3 -5 14 -13 18 -8 -11 -7 -14 21 -1 23 24 25 -18 28 -28 -25 -12
right_child=2 4 7 5 8 15 16 10 -10 17 29 13 19 -15 -16 -17 22 -19 -20 -21 -22 -23 -24 26 -26 -27 27 -29 -30 -31
leaf_value=-0.010940217880567371 -0.038855533351725778 0.059908773635588101 -0.027536968884260604 0.038462234071832524 0.08729900469445534 -0.0036936243881056556 0.061321253252618772 -0.03910037197725276 0.099736920676524385 -0.021866539325546417 0.0084188660786541948 0.037268849172026712 0.0206450896138545 0.032805445874001554 0.092610570993802308 0.042231567178705458 0.095887370253051676 -0.0075523734689136313 0.036092734580655837 0.0009815553599557597 -0.025609800107948413 0.0035647595733158534 0.080746617428117493 0.039392089827580495 0.0064865681981698051 0.061726650372433502 0.061642042735689018 0.11660523840216142 0.076076865750716996 -0.023343754738302233
leaf_weight=136.51872555911541 2199.9153134524822 87.763303995132446 68.035445973277092 34.686360538005829 220.68360248208046 10.471462279558184 94.682311862707138 6.7747665494680396 193.27748435735703 72.797691091895103 99.631317883729935 7.4934183657169324 203.84066525101662 44.330073609948158 7.7226949036121368 235.34063675999641 16.375925809144974 189.16241204738617 16.572860240936279 28.510698065161705 26.866546958684921 64.358308330178261 108.36162865161896 12.014470160007475 5.8940109610557547 88.024053275585175 12.3197418153286 16.163025498390198 60.362484693527222 8.9031157046556455
leaf_count=619 12029 332 353 139 759 43 348 36 642 360 467 29 850 172 29 926 58 928 66 124 123 289 380 44 21 321 45 58 219 42
internal_value=0 0.0517552 -0.0340262 0.0186439 0.0774564 0.0303514 0.0659188 -0.0101681 0.0931062 -0.0148303 0.00317455 0.0523153 0.02086 0.0411234 0.0653567 0.040011 0.0707569 -0.0115302 0.0206876 0.0182323 -0.00857179 -0.00629302 0.073553 0.0698613 0.0638467 0.067085 0.0764386 0.0928318 0.0699872 0.00581337
internal_weight=0 1732.63 2645.22 757.166 975.468 529.423 561.507 445.305 413.961 329.996 115.309 147.309 267.038 59.5462 15.2161 262.385 414.198 261.96 27.0443 232.351 227.744 200.877 319.515 211.154 110.294 104.4 100.86 28.4828 72.377 108.534
internal_count=20851 6636 14215 3179 3457 2148 2056 2186 1401 1641 545 562 1113 230 58 1035 1494 1288 109 974 1031 908 1146 766 400 379 366 103 263 509
is_linear=0
shrinkage=0.05


Tree=11
num_leaves=31
num_cat=0
split_feature=7 7 2 3 6 1 2 4 2 3 2 1 3 0 0 4 6 4 4 3 3 1 0 4 1 1 4 1 1 3
split_gain=8283.33 268.473 17.5592 7.43549 5.32278 5.60592 3.46629 3.30711 3.26182 3.06492 2.66316 2.48655 2.3236 3.21839 2.21024 3.22015 2.1431 2.12216 1.92224 2.87759 1.90305 1.65784 1.54115 3.64645 1.90382 4.29208 1.94135 1.4966 1.48256 1.40175
threshold=-1.0000000180025095e-35 1.0000000180025095e-35 5.5000000000000009 6.5000000000000009 29.000000000000004 14.500000000000002 13.500000000000002 1.5220000000000002 15.500000000000002 8.5000000000000018 13.500000000000002 9.5000000000000018 14.500000000000002 10.500000000000002 8.5000000000000018 1.4112550000000004 33.500000000000007 0.82255800000000012 0.63000700000000009 9.5000000000000018 1.0000000180025095e-35 11.500000000000002 10.500000000000002 0.73373500000000014 12.500000000000002 11.500000000000002 1.6845300000000003 10.500000000000002 10.500000000000002 11.500000000000002
decision_type=2 2 2 2 2 2 2 2 2 2 2 2 2 2 2 2 2 2 2 2 2 2 2 2 2 2 2 2 2 2
left_child=-1 -2 20 14 5 6 12 8 17 27 -7 -11 18 -14 -4 -16 29 -8 19 -5 -3 -19 23 -20 25 26 -25 -6 -21 -13
right_child=1 2 3 4 9 10 7 -9 -10 11 -12 16 13 -15 15 -17 -18 21 22 28 -22 -23 -24 24 -26 -27 -28 -29 -30 -31
leaf_value=-0.073213017760821411 0.0466699335325187 0.045516207717043039 0.040365518076683114 -0.01765645932722892 0.019771367719754587 -0.020566920806888482 -0.021343051385923746 -0.029425926345238392 0.024149264483269581 0.024200149142783456 0.010715780941304853 0.01464756717586743 0.013545662160856673 -0.02152338391669429 0.028968396375358692 -0.00089823705379202517 0.02906537509142447 0.013896439161944829 0.033553140709988126 0.017966086947523163 0.02946411576574447 -0.015172102501096846 0.016609658751760636 0.011617677318750007 0.019103515832564123 -0.023888373434178788 -0.0093277942992762274 0.048007446818306793 -0.0031914897225445342 0.0023558182350897901
leaf_weight=2468.5182690322399 3682.7334298789501 26.873326033353806 19.978194504976273 13.718292176723478 8.7026684284210223 28.274136155843735 13.713673889636992 10.400533139705656 12.070125907659529 40.609652251005173 8.9592708945274335 38.269368976354599 12.525768786668779 13.695641428232191 31.08588695526123 12.716957837343214 12.664716124534605 14.119463473558428 12.77602434158325 20.516460657119751 59.005484879016876 7.5159559547901145 120.24849185347557 50.500900119543076 19.557340741157532 13.582945764064787 14.165942966938017 10.185055106878279 13.882311046123503 58.881471931934357
leaf_count=6636 12029 86 63 40 27 82 40 30 37 125 27 115 38 40 97 38 39 43 39 62 185 22 365 154 59 41 42 32 41 177
internal_value=0 0.0412131 0.013271 0.010394 0.00858104 0.00543711 0.00733234 -0.0038927 0.00170754 0.0160127 -0.0130395 0.0136289 0.00945912 -0.00477117 0.0265834 0.0202974 0.00971968 -0.00595529 0.0107968 0.00170581 0.0344872 0.00379828 0.0126918 0.0084315 0.00514999 0.00166252 0.00702935 0.0349974 0.00942752 0.00719775
internal_weight=0 4401.93 719.196 633.317 569.536 400.223 362.99 57.8198 47.4192 169.313 37.2334 150.425 305.17 26.2214 63.781 43.8028 109.816 35.3491 278.949 48.1171 85.8788 21.6354 230.832 110.583 97.8071 78.2498 64.6668 18.8877 34.3988 97.1508
internal_count=20851 14215 2186 1915 1717 1202 1093 172 142 515 109 456 921 78 198 135 331 105 843 143 271 65 700 335 296 237 196 59 103 292
is_linear=0
shrinkage=0.05


Tree=12
num_leaves=31
num_cat=0
split_feature=7 4 7 4 4 4 3 4 4 4 4 2 4 1 3 4 2 4 5 3 4 4 2 3 1 3 3 4 3 2
split_gain=2771.81 490.778 113.333 67.9672 66.408 13.5821 10.3288 9.12532 8.11591 6.46786 5.82743 5.40478 4.9915 4.12814 4.50308 3.92368 3.57683 4.95111 3.40929 6.6217 3.3649 3.82218 5.81686 5.06718 4.40657 3.95828 3.34507 3.49023 4.15707 4.06104
threshold=-1.0000000180025095e-35 1.1027600000000002 1.0000000180025095e-35 0.78452700000000009 1.6234450000000002 0.61406400000000005 7.5000000000000009 0.64175050000000011 2.3913400000000005 1.3001800000000003 0.91548300000000016 8.5000000000000018 1.0483150000000003 11.500000000000002 10.500000000000002 0.96794750000000007 10.500000000000002 1.0001600000000004 1.0000000180025095e-35 1.0000000180025095e-35 1.3136000000000003 1.3526850000000004 5.5000000000000009 5.5000000000000009 5.5000000000000009 3.5000000000000004 3.5000000000000004 1.2122450000000002 1.5000000000000002 2.5000000000000004
decision_type=2 2 2 2 2 2 2 2 2 2 2 2 2 2 2 2 2 2 2 2 2 2 2 2 2 2 2 2 2 2
left_child=1 3 -2 5 9 -1 -4 -8 18 26 -5 -9 15 -14 -15 -13 -17 -18 19 -6 -11 22 23 -22 -24 -23 27 29 -29 -3
right_child=2 4 6 10 8 -7 7 11 -10 20 -12 12 13 14 -16 16 17 -19 -20 -21 21 25 24 -25 -26 -27 -28 28 -30 -31
leaf_value=0.085701906560222446 -0.03853668953083516 0.065494127346599554 -0.02653761902710966 0.060132173094265474 -0.022195117154646487 0.070759728267125607 0.009500648634085767 -0.02326300893122641 -0.01758238728252727 -0.0040679769924609095 0.049326950696438318 -0.0028434726249659073 -0.021932277770710076 0.015594713429936312 -0.013256968098164415 -0.0098935339848170122 0.076230542244473551 0.0074183222492570011 -0.00097896503641313015 0.047414475896242106 0.038200814696648142 0.033027896928082889 0.042757837430662776 0.097409147813455527 -0.0074713189328294502 0.014796962169280149 0.029367507244309012 0.03052741536629083 0.085982353869516304 0.026318885284228623
leaf_weight=330.33148449659348 2107.3383042514324 8.7253186106681806 83.386862903833389 222.27992060780525 5.1827623695135108 281.83926939964294 67.911092296242714 67.422743260860443 84.981457531452179 13.057815983891485 284.47997117042542 77.128978371620178 68.021192416548729 19.775662690401077 42.78082463145256 5.034904107451438 5.1644452810287458 5.293279305100441 177.11313682794571 10.02440497279167 9.8631716668605787 38.828712344169617 8.8090621680021304 5.7030480504035941 8.6580526232719404 127.66660749912262 164.36104542016983 5.4454534649848929 8.9073983728885633 27.356719344854355
leaf_count=1031 12029 33 442 761 22 932 310 339 388 52 1017 379 342 95 203 25 25 26 773 40 38 149 35 22 35 520 629 21 34 104
internal_value=0 0.0470261 -0.0337089 0.0676106 0.0143409 0.0788226 -0.0106873 -0.00700085 -0.00471434 0.0267047 0.0540664 -0.0108568 -0.00710925 -0.0134066 -0.00413623 0.00176879 0.0247306 0.0414006 0.000971724 0.0236908 0.0205219 0.0221311 0.0376674 0.0598932 0.0178604 0.0190486 0.0328239 0.0440879 0.0649428 0.0357922
internal_weight=0 1823.61 2549.26 1118.93 704.684 612.171 441.92 358.533 277.302 427.382 506.76 290.622 223.199 130.578 62.5565 92.6216 15.4926 10.4577 192.32 15.2072 212.586 199.529 33.0333 15.5662 17.4671 166.495 214.796 50.4349 14.3529 36.082
internal_count=20851 6636 14215 3741 2895 1963 2186 1744 1223 1672 1778 1434 1095 640 298 455 76 51 835 62 851 799 130 60 70 669 821 192 55 137
is_linear=0
shrinkage=0.05


Tree=13
num_leaves=31
num_cat=0
split_feature=7 4 7 4 4 4 4 4 1 4 4 2 3 2 0 3 2 1 6 6 2 0 1 6 1 2 4 5 2 3
split_gain=2710.9 483.68 120.455 84.4572 56.267 16.4321 11.7862 10.523 6.88001 5.18392 4.67891 4.23457 4.09859 3.86575 3.77437 3.61943 3.54549 3.53199 3.46249 3.36727 3.55501 3.34414 4.71345 3.26758 3.26716 4.87011 3.23423 8.80764 3.07504 3.0221
threshold=-1.0000000180025095e-35 0.99684500000000009 1.0000000180025095e-35 0.61406400000000005 1.5334750000000004 0.82255800000000012 1.1027600000000002 1.0568800000000003 3.5000000000000004 2.0429700000000004 2.0052750000000006 5.5000000000000009 3.5000000000000004 6.5000000000000009 2.5000000000000004 3.5000000000000004 6.5000000000000009 2.5000000000000004 31.000000000000004 27.500000000000004 8.5000000000000018 11.500000000000002 15.500000000000002 29.000000000000004 10.500000000000002 10.500000000000002 0.45460200000000001 1.0000000180025095e-35 5.5000000000000009 4.5000000000000009
decision_type=2 2 2 2 2 2 2 2 2 2 2 2 2 2 2 2 2 2 2 2 2 2 2 2 2 2 2 2 2 2
left_child=1 3 -2 19 6 17 11 16 -9 -6 28 -3 13 -13 -7 -8 -4 -5 -19 20 26 22 -18 -23 25 -12 -1 -28 -10 -17
right_child=2 4 7 5 9 14 15 8 10 -11 24 12 -14 -15 -16 29 21 18 -20 -21 -22 23 -24 -25 -26 -27 27 -29 -30 -31
leaf_value=-0.015177641330917827 -0.038473483861859559 0.053950206834564154 -0.031032638743499704 0.033495268009620931 0.077555359786129319 0.018889525961124556 0.054860307821845401 -0.035406119863377432 -0.02687546698726663 0.088420524890940114 0.062875320946554167 0.033560682709538457 0.029461004505109901 0.082689636776135805 0.038700673585062212 0.074817778193997139 -0.022044500878630659 0.019326773978441014 0.0013329924674327638 -0.025389637994321836 0.037644124541248498 0.00029323128421238353 0.026268828190729766 -0.022117374676721497 0.0039917097647164277 0.0045955719585684786 0.049230550295744406 -0.005826280993306919 -0.00067274263696102618 0.063248799334581621
leaf_weight=80.580898225307465 2088.5850428789854 92.219906508922577 37.98165500164032 37.993259653449059 234.79318523406982 26.814838662743568 99.735717475414276 14.035761862993239 12.090671584010122 206.18529111146927 7.7488959431648237 7.7868333756923702 45.970690727233887 8.2422663271427137 232.46964535117149 71.621216058731079 108.16278159618378 219.06425243616104 30.451624482870102 26.63944673538208 4.4647264927625647 54.930334314703941 5.2954550236463538 23.107398852705956 18.044549614191055 6.6702788472175598 7.7834684997797003 108.84579558670521 151.46720023453236 266.47714075446129
leaf_count=365 12029 332 206 147 759 105 348 76 63 642 36 29 172 29 878 240 542 888 130 123 20 271 26 118 84 31 35 488 733 906
internal_value=0 0.0467139 -0.0334668 0.0168595 0.0691144 0.0275245 0.0590435 -0.00967573 -0.00158955 0.0826355 0.000831826 0.0471568 0.0370521 0.0588231 0.0366518 0.0632304 -0.0170776 0.0192933 0.0171308 -0.00868235 -0.00647547 -0.0143097 -0.0197896 -0.00634267 0.0181709 0.0359152 -0.00747431 -0.00215196 -0.00260972 0.0656995
internal_weight=0 1808.14 2528.12 775.108 1033.03 546.794 592.054 439.535 210.057 440.978 196.022 154.22 61.9998 16.0291 259.284 437.834 229.478 287.509 249.516 228.314 201.675 191.496 113.458 78.0377 32.4637 14.4192 197.21 116.629 163.558 338.098
internal_count=20851 6636 14215 3179 3457 2148 2056 2186 1023 1401 947 562 230 58 983 1494 1163 1165 1018 1031 908 957 568 389 151 67 888 523 796 1146
is_linear=0
shrinkage=0.05


Tree=14
num_leaves=31
num_cat=0
split_feature=7 7 2 3 6 1 2 4 2 3 2 1 3 0 0 4 6 4 1 4 3 6 1 1 0 4 1 1 4 1
split_gain=7393.49 258.14 16.498 6.89759 5.05318 5.19435 3.19265 2.98009 3.09024 2.91524 2.51989 2.32954 2.18988 2.99359 2.15086 3.04234 2.03915 1.98871 1.87807 1.78635 2.70299 1.69718 1.50413 1.49293 1.67999 4.35407 2.32158 3.28214 1.56792 1.47019
threshold=-1.0000000180025095e-35 1.0000000180025095e-35 5.5000000000000009 6.5000000000000009 29.000000000000004 14.500000000000002 13.500000000000002 1.5220000000000002 15.500000000000002 8.5000000000000018 13.500000000000002 9.5000000000000018 14.500000000000002 10.500000000000002 8.5000000000000018 1.4112550000000004 33.500000000000007 0.82255800000000012 1.5000000000000002 0.63000700000000009 9.5000000000000018 18.000000000000004 11.500000000000002 2.5000000000000004 10.500000000000002 0.73373500000000014 12.500000000000002 11.500000000000002 1.6845300000000003 10.500000000000002
decision_type=2 2 2 2 2 2 2 2 2 2 2 2 2 2 2 2 2 2 2 2 2 2 2 2 2 2 2 2 2 2
left_child=-1 -2 18 14 5 6 12 8 17 29 -7 -11 19 -14 -4 -16 -13 -8 -3 20 -5 -20 -19 -21 25 -25 27 28 -27 -6
right_child=1 2 3 4 9 10 7 -9 -10 11 -12 16 13 -15 15 -17 -18 22 21 23 -22 -23 -24 24 -26 26 -28 -29 -30 -31
leaf_value=-0.068454389996388892 0.045576306351567931 0.046108555374280873 0.039338603004840891 -0.017291236456345969 0.018906973987418023 -0.020044004053679346 -0.020863896511034055 -0.028036447309110382 0.023412497212607596 0.023338444464272037 0.010414016236016186 0.0067884185087174328 0.012861338445048867 -0.021005836303087888 0.027885687540585454 -0.0012632770693558415 0.028252480172121737 0.013174767815953909 0.0059364546425234328 0.034588149983592852 0.0089534319165917586 0.031958688559447411 -0.014511276604715049 0.035580342112274149 0.015417060838418773 0.0083275246993941825 0.018471902000041646 -0.023076113460285864 -0.011385103743888975 0.047147822585922913
leaf_weight=2486.659937441349 3544.9337131977081 21.627611488103867 19.497713685035706 13.755317419767378 8.5921660661697405 28.379789680242538 13.761480957269667 10.493795484304426 11.93675860762596 40.077275574207306 8.9267815351486188 96.709814518690109 12.419662415981295 13.747348606586455 30.497793823480606 12.670685112476347 12.494991213083265 13.99194845557213 7.0670694410800925 7.1123845577239981 34.211600720882416 55.267162799835205 7.5543633401393881 11.599876016378401 117.48475220799446 46.841096997261047 19.397118598222733 13.672519832849501 12.855771392583845 9.9397117197513563
leaf_count=6636 12029 72 63 40 27 82 40 30 37 125 27 292 38 40 97 38 39 43 22 22 103 177 22 36 360 144 59 41 38 32
internal_value=0 0.0400564 0.0125961 0.00981561 0.0080728 0.0050055 0.00684185 -0.00393396 0.0014196 0.01535 -0.012756 0.0130281 0.00889458 -0.00493144 0.0255554 0.01933 0.00924429 -0.00601569 0.0334132 0.010201 0.00142733 0.0290084 0.00346775 0.012039 0.0113161 0.00669973 0.00308839 -0.000978644 0.00408239 0.0340542
internal_weight=0 4257.52 712.584 628.623 565.956 398.142 360.836 57.7383 47.2446 167.814 37.3066 149.282 303.097 26.167 62.6662 43.1685 109.205 35.3078 83.9618 276.93 47.9669 62.3342 21.5463 228.964 221.851 104.366 92.7665 73.3694 59.6969 18.5319
internal_count=20851 14215 2186 1915 1717 1202 1093 172 142 515 109 456 921 78 198 135 331 105 271 843 143 199 65 700 678 318 282 223 182 59
is_linear=0
shrinkage=0.05


Tree=15
num_leaves=31
num_cat=0
split_feature=7 4 7 4 4 3 4 4 4 4 4 2 4 1 3 4 6 0 0 0 2 3 5 4 1 6 0 1 4 4
split_gain=2456.78 409.49 112.097 60.8053 54.3652 9.74664 8.68208 8.45095 7.52557 6.97211 6.22679 5.15204 4.7499 3.92003 4.23572 3.61124 3.60814 3.47298 3.35155 4.47146 3.96144 3.27098 7.6281 3.19588 5.09488 4.42412 3.09976 6.00846 3.05522 3.32402
threshold=-1.0000000180025095e-35 1.0929200000000001 1.0000000180025095e-35 1.6234450000000002 0.74330950000000018 7.5000000000000009 0.53379800000000011 0.64175050000000011 2.3913400000000005 0.87982550000000004 1.3001800000000003 8.5000000000000018 1.0483150000000003 11.500000000000002 10.500000000000002 0.96794750000000007 27.500000000000004 11.500000000000002 6.5000000000000009 2.5000000000000004 3.5000000000000004 1.0000000180025095e-35 1.0000000180025095e-35 0.58282050000000007 8.5000000000000018 29.000000000000004 3.5000000000000004 2.5000000000000004 1.3136000000000003 1.3526850000000004
decision_type=2 2 2 2 2 2 2 2 2 2 2 2 2 2 2 2 2 2 2 2 2 2 2 2 2 2 2 2 2 2
left_child=1 4 -2 10 6 -4 -1 23 21 -6 18 -9 15 -14 -15 -13 -8 -17 19 20 -3 -5 -23 -7 -25 -26 27 -10 -12 -30
right_child=2 3 5 8 9 7 16 11 26 -11 28 12 13 14 -16 17 -18 -19 -20 -21 -22 22 -24 24 25 -27 -28 -29 29 -31
leaf_value=0.079696864413266566 -0.038177236114429025 -0.0044983652989853554 -0.025877668598330641 -0.024654412971332001 0.057132605672522645 0.0023828720213793686 0.065247786616354927 -0.022670270407873987 0.051559191649733396 0.046112492275981048 -0.0045847531129793945 -0.0025559787664403274 -0.02137243569206115 0.015090243705795287 -0.012868297832908352 0.049002564508277183 0.081529438125122616 0.0018380608091039417 0.01866614011905824 0.03689927871049388 0.031810493323080911 0.043889804515065099 -0.00027879036492290733 -0.013710491312016508 0.063041152964102384 0.0028935256014928977 -0.022935747102658395 -0.014241447072457954 0.034490778788518889 0.017393655733081197
leaf_weight=237.68700039386749 1998.8761500120163 13.310565412044527 80.739260658621788 12.054146587848662 246.96943992376328 48.932370319962502 290.45222547650337 65.846415832638741 4.3476167321205166 342.66871377825737 13.182520613074301 76.639542698860168 66.595297485589981 19.923555165529251 42.326026901602745 7.2966936230659476 38.542628079652786 8.3922934681177122 47.830128863453865 157.00640138983727 17.244867324829102 10.366900265216826 171.29167567193508 5.6158103346824673 9.1009190231561643 4.6037668734788886 62.823061779141426 17.17308609187603 34.132628887891769 170.11873078346252
leaf_count=706 12029 54 442 52 801 224 899 339 20 1167 52 379 342 95 203 35 117 41 183 571 64 40 743 26 39 21 289 79 130 669
internal_value=0 0.0428398 -0.0331667 0.0135446 0.0613567 -0.0101962 0.0724156 -0.00663243 -0.00485961 0.0507283 0.0248456 -0.0103929 -0.0067378 -0.0129405 -0.00391991 0.00191808 0.0671552 0.0237735 0.0304807 0.0334936 0.0159936 0.000568155 0.00224183 0.00918141 0.0263998 0.042836 -0.0173256 -0.000948389 0.0187451 0.0202508
internal_weight=0 1887.2 2434.89 730.882 1156.32 436.012 566.682 355.273 278.056 589.638 452.826 287.02 221.173 128.845 62.2496 92.3285 328.995 15.689 235.392 187.562 30.5554 193.713 181.659 68.2529 19.3205 13.7047 84.3438 21.5207 217.434 204.251
internal_count=20851 6636 14215 2946 3690 2186 1722 1744 1223 1968 1723 1434 1095 640 298 455 1016 76 872 689 118 835 783 310 86 60 388 99 851 799
is_linear=0
shrinkage=0.05


Tree=16
num_leaves=31
num_cat=0
split_feature=7 4 7 4 4 4 4 4 1 0 4 2 4 4 3 6 2 4 0 4 0 1 6 4 1 6 4 0 3 1
split_gain=2402.75 403.095 119.062 74.2515 46.7374 14.028 11.1107 9.92315 6.48396 4.50174 4.22861 4.13633 3.84641 7.19367 3.73687 4.03731 3.40544 3.36987 3.45829 3.25885 3.22978 4.43388 3.2164 3.32256 3.12073 3.08395 3.04349 3.01662 2.93386 2.93088
threshold=-1.0000000180025095e-35 0.99684500000000009 1.0000000180025095e-35 0.61406400000000005 1.6234450000000002 0.78452700000000009 1.1217650000000001 1.0568800000000003 3.5000000000000004 1.0000000180025095e-35 2.0052750000000006 2.5000000000000004 0.75917000000000012 0.72024300000000008 3.5000000000000004 36.000000000000007 6.5000000000000009 0.91171600000000008 4.5000000000000009 0.91171600000000008 11.500000000000002 15.500000000000002 27.500000000000004 0.53379800000000011 1.0000000180025095e-35 29.000000000000004 2.3913400000000005 5.5000000000000009 5.5000000000000009 10.500000000000002
decision_type=2 2 2 2 2 2 2 2 2 2 2 2 2 2 2 2 2 2 2 2 2 2 2 2 2 2 2 2 2 2
left_child=1 3 -2 22 6 11 -3 16 -9 19 -10 12 13 27 -8 -16 -4 18 -11 -7 21 -18 23 -1 -13 -22 -6 -5 -26 -12
right_child=2 4 7 5 26 9 14 8 10 17 29 24 -14 -15 15 -17 20 -19 -20 -21 25 -23 -24 -25 28 -27 -28 -29 -30 -31
leaf_value=-0.010943617908044899 -0.038119281188278641 0.043928321583214303 -0.030450005080482168 0.038426043790254431 0.072793416334930958 0.022836860791367593 0.050148923573127502 -0.034936005513937302 -0.002352126833005742 0.018573061528189345 0.033844108636028596 0.040307900893018528 -0.0051365340317182616 0.082096207191676596 0.059912512471186001 0.097636537646242777 -0.021482871682033534 0.039479665695536181 0.033376659254891215 -0.024846778811763445 0.00048912552337076933 0.025042194246120954 -0.025087861317102847 0.0027707762617044064 0.0064313823594957485 -0.021484141459932399 0.082044378522776171 -0.0066317461065399722 0.018821674605965625 0.0038245856843237488
leaf_weight=136.52576307952404 1980.970901787281 186.18733239173889 36.576972380280495 11.126048818230638 275.18492677807808 9.8810539543628675 109.58038711547852 13.450545296072958 162.61309568583965 56.609056234359741 14.765015155076979 10.150230199098585 5.3430037498474112 7.5864352881908408 371.96273219585419 7.2303117811679831 105.87768767774105 125.67230308055878 130.16858191788197 5.6217627674341193 54.703120976686478 5.3812181651592246 26.330191165208817 65.279562786221504 108.89170148968697 22.551162675023079 131.34165132045746 5.5765293091535559 85.125989019870758 18.0955670773983
leaf_count=619 12029 649 206 44 835 38 365 76 796 214 67 38 21 29 1197 23 542 455 487 22 271 26 123 289 437 118 388 22 341 84
internal_value=0 0.042557 -0.0329228 0.0154038 0.062389 0.0251731 0.0543223 -0.00920426 -0.00135685 0.0318444 0.000953736 0.0158152 0.0332722 0.0417211 0.0582816 0.0606318 -0.0164881 0.0331493 0.0288899 0.00554542 -0.0137791 -0.0192326 -0.00865178 -0.00650731 0.0132816 -0.00592505 0.0757822 0.0233825 0.0118677 0.017313
internal_weight=0 1871.38 2414.99 789.888 1081.49 561.753 674.961 434.014 208.924 327.953 195.474 233.8 29.632 24.289 488.773 379.193 225.09 312.45 186.778 15.5028 188.513 111.259 228.136 201.805 204.168 77.2543 406.527 16.7026 194.018 32.8606
internal_count=20851 6636 14215 3179 3457 2148 2234 2186 1023 1216 947 932 116 95 1585 1220 1163 1156 701 60 957 568 1031 908 816 389 1223 66 778 151
is_linear=0
shrinkage=0.05


Tree=17
num_leaves=31
num_cat=0
split_feature=7 7 2 3 6 1 2 3 4 2 2 1 1 3 0 4 1 6 0 4 0 4 0 4 1 1 0 3 4 1
split_gain=6643.96 249.103 15.3511 6.37182 4.71946 4.79968 2.97454 2.78568 2.77499 2.90583 2.36182 2.18932 2.15177 2.11131 2.88217 3.08773 2.02175 2.92006 1.89831 1.85999 1.83096 1.99815 1.7241 1.73378 2.41759 2.37319 1.68153 1.66909 1.48056 1.45355
threshold=-1.0000000180025095e-35 1.0000000180025095e-35 5.5000000000000009 6.5000000000000009 29.000000000000004 14.500000000000002 13.500000000000002 8.5000000000000018 1.5220000000000002 15.500000000000002 13.500000000000002 9.5000000000000018 13.500000000000002 13.500000000000002 9.5000000000000018 0.85902150000000022 10.500000000000002 33.500000000000007 4.5000000000000009 0.82255800000000012 11.500000000000002 1.0838350000000003 12.500000000000002 1.5579100000000004 13.500000000000002 14.500000000000002 8.5000000000000018 13.500000000000002 1.4112550000000004 10.500000000000002
decision_type=2 2 2 2 2 2 2 2 2 2 2 2 2 2 2 2 2 2 2 2 2 2 2 2 2 2 2 2 2 2
left_child=-1 -2 18 12 5 6 13 29 9 19 -7 -9 26 -5 -15 -16 -13 22 -3 -8 -17 -22 23 24 -18 -26 -4 -24 -28 -6
right_child=1 2 3 4 7 10 8 11 -10 -11 -12 16 -14 14 15 20 17 -19 -20 -21 21 -23 27 -25 25 -27 28 -29 -30 -31
leaf_value=-0.064566052986431546 0.044588984920094298 0.041490475628989082 0.040691597979700407 0.01028793510814489 0.018035757648054367 -0.019417489391718647 -0.020280105078664908 0.022490142086109256 -0.027158517382272235 0.022687472870296908 0.010096054039192471 -0.0055281763667047006 0.0013022859465485488 0.016898358858191031 -0.031844286025287806 -0.017225576235961573 0.016738869228757391 0.037699722333565847 0.025996797996214606 0.0032354441504375089 -0.0092700505914783994 0.027092737445158523 0.011536970288268257 -0.013534916307577999 -0.02676138821181966 0.011953668931191187 0.028559161579763948 0.041881960166188309 0.0059638704519241487 0.046378887387389357
leaf_weight=2485.6344506144524 3404.9834021925926 33.366527497768402 18.084388613700867 250.99941202998161 8.4785299599170703 28.504281789064407 13.819298058748243 39.537752956151962 10.551263660192488 11.802694678306578 8.8936753273010236 20.188109785318375 8.5617712140083295 15.612942874431608 10.350932717323301 8.9396629333496112 30.609428107738495 9.8303633034229261 48.514381915330887 21.478396505117416 6.6997185647487631 8.6629003286361677 14.500963836908342 11.009045302867888 7.8854247033596021 7.9481957256793976 24.619183927774429 6.5913316607475272 10.275928050279616 9.6971650719642621
leaf_count=6636 12029 112 60 769 27 82 40 125 30 37 27 62 27 48 31 27 93 31 159 65 20 26 44 33 24 24 80 20 31 32
internal_value=0 0.0389845 0.0119551 0.00928462 0.00761372 0.00464743 0.00642359 0.0146838 -0.00398164 0.00121036 -0.0123988 0.0124166 0.0245595 0.00841478 -0.00093862 -0.00897504 0.00874792 0.0120091 0.0323105 -0.00597106 0.000765529 0.0112347 0.00879377 0.00430525 0.00853416 -0.00732712 0.0283179 0.0210198 0.0219053 0.0331575
internal_weight=0 4111 706.014 624.133 562.591 396.315 358.917 166.276 57.6517 47.1004 37.398 148.101 61.5413 301.266 50.2662 34.6532 108.563 88.3748 81.8809 35.2977 24.3023 15.3626 78.5444 57.4521 46.443 15.8336 52.9795 21.0923 34.8951 18.1757
internal_count=20851 14215 2186 1915 1717 1202 1093 515 172 142 109 456 198 921 152 104 331 269 271 105 73 46 238 174 141 48 171 64 111 59
is_linear=0
shrinkage=0.05


Tree=18
num_leaves=31
num_cat=0
split_feature=7 4 7 4 4 3 4 4 4 4 3 2 4 5 4 1 3 3 4 2 0 1 4 2 3 6 0 4 4 1
split_gain=2190.33 345.76 110.92 51.5168 47.9753 9.17067 7.88395 7.3877 7.03962 6.3095 5.12544 4.8958 4.69188 4.49644 4.45915 3.75151 4.00745 3.49772 3.76446 3.43088 5.47731 4.22933 3.33959 3.25095 4.14479 3.07365 2.94397 3.75986 5.15014 4.68912
threshold=-1.0000000180025095e-35 1.1027600000000002 1.0000000180025095e-35 1.6234450000000002 0.74330950000000018 7.5000000000000009 0.64175050000000011 0.53379800000000011 2.0429700000000004 0.91548300000000016 3.5000000000000004 8.5000000000000018 1.3526850000000004 1.0000000180025095e-35 1.0483150000000003 11.500000000000002 10.500000000000002 5.5000000000000009 1.1955050000000003 2.5000000000000004 3.5000000000000004 1.5000000000000002 0.96794750000000007 10.500000000000002 10.500000000000002 27.500000000000004 6.5000000000000009 0.58282050000000007 0.60131600000000007 9.5000000000000018
decision_type=2 2 2 2 2 2 2 2 2 2 2 2 2 2 2 2 2 2 2 2 2 2 2 2 2 2 2 2 2 2
left_child=1 4 -2 10 7 -4 26 -1 -5 -6 13 -8 17 -3 22 -16 -17 18 -12 20 -15 -21 -13 -24 -25 -9 -7 -28 -29 -30
right_child=2 3 5 8 9 6 11 25 -10 -11 12 14 -14 19 15 16 -18 -19 -20 21 -22 -23 23 24 -26 -27 27 28 29 -31
leaf_value=0.072493649853340614 -0.0378439543993489 0.0028977165935375688 -0.025216536775068594 0.0031671641244814907 0.050929069443222869 -0.024179870867949663 -0.02208941432053874 0.059408113292616152 -0.01274627127449208 0.040880926241197768 0.02889233390525775 -0.0023749688992150998 0.012170638810476149 0.019531163618657844 -0.020838206586208934 0.014740263616175914 -0.012456578827398992 0.030021717423434308 0.0085672639386166222 0.0022141228990148957 0.078314470429249911 0.035924497251622639 -0.010200046425579557 0.076607410640251755 0.013296061807003221 0.07413785885575884 0.0044059087328688715 0.073351575325481574 -0.028481105922327478 0.035965450911308781
leaf_weight=246.82012543082237 1894.2737013548613 11.74896916747093 78.170813992619514 137.61263041198254 319.15930417180061 6.1110569238662711 64.338211432099342 301.32004129886627 140.40029439330101 306.03475829958916 39.009161069989204 76.329331710934639 132.45983818173409 6.3635254204273251 65.264494299888611 20.025871828198433 41.851553916931152 115.46891681849957 54.762744143605232 10.79262727499008 10.503885596990584 67.470605343580246 5.0740027129650107 4.2734732180833799 6.5432582497596741 40.133512735366821 44.509550899267197 5.2184147089719799 4.2499835342168799 8.4031887203454954
leaf_count=706 12029 43 442 581 1002 28 339 899 642 1017 141 379 520 24 342 95 203 420 205 39 36 244 25 20 31 117 204 22 20 36
internal_value=0 0.0393207 -0.0326381 0.0120423 0.0556542 -0.00972407 -0.00628544 0.0659033 -0.00486934 0.0460105 0.0225235 -0.00996117 0.0195344 0.0320799 -0.00640399 -0.0124753 -0.00365465 0.0241961 0.0170225 0.0356839 0.0561374 0.0312758 0.00196643 0.0228199 0.0383091 0.0611394 0.0089397 0.0121842 0.0315562 0.014319
internal_weight=0 1940.06 2324.64 726.593 1213.47 430.363 352.192 588.274 278.013 625.194 448.58 283.7 341.701 106.88 219.362 127.142 61.8774 209.241 93.7719 95.1306 16.8674 78.2632 92.2201 15.8907 10.8167 341.454 68.4922 62.3811 17.8716 12.6532
internal_count=20851 6636 14215 2895 3741 2186 1744 1722 1223 2019 1672 1434 1286 386 1095 640 298 766 346 343 60 283 455 76 51 1016 310 282 78 56
is_linear=0
shrinkage=0.05


Tree=19
num_leaves=31
num_cat=0
split_feature=7 4 7 4 4 4 4 4 1 4 4 2 2 4 4 6 2 2 5 0 4 4 0 0 2 6 3 3 1 0
split_gain=2142.06 340.064 117.753 54.4984 52.4845 9.92497 9.41675 7.90635 7.2822 6.20689 4.06225 3.75651 3.66902 3.4478 6.1196 3.0614 3.22315 3.05814 3.09186 2.91088 5.74462 3.69284 2.90915 3.78468 2.90486 2.8936 3.97305 3.14469 2.77897 2.71263
threshold=-1.0000000180025095e-35 0.93912800000000007 1.0000000180025095e-35 0.61406400000000005 1.3001800000000003 1.6234450000000002 0.98779950000000005 0.78452700000000009 3.5000000000000004 1.0929200000000001 2.0052750000000006 5.5000000000000009 2.5000000000000004 0.75917000000000012 0.72024300000000008 27.500000000000004 8.5000000000000018 1.0000000180025095e-35 1.0000000180025095e-35 1.5000000000000002 1.0001600000000004 0.95230100000000018 6.5000000000000009 2.5000000000000004 3.5000000000000004 29.000000000000004 14.500000000000002 1.5000000000000002 1.0000000180025095e-35 5.5000000000000009
decision_type=2 2 2 2 2 2 2 2 2 2 2 2 2 2 2 2 2 2 2 2 2 2 2 2 2 2 2 2 2 2
left_child=1 3 -2 15 9 -6 25 12 -8 19 11 -10 13 14 29 16 17 18 -1 20 -3 -21 23 24 -11 27 -27 -4 -14 -5
right_child=2 4 6 7 5 -7 8 -9 10 22 -12 -13 28 -15 -16 -17 -18 -19 -20 21 -22 -23 -24 -25 -26 26 -28 -29 -30 -31
leaf_value=0.036058869683715182 -0.037790745528286443 -0.019804325193479529 -0.038385309539251476 0.035648616733566785 0.056741460464765137 0.068928763311334004 -0.035127617788860983 0.027374133110940786 -0.02772454490372361 0.074588510944077299 0.016633815287842066 -0.00034764823432246577 0.037360656073168845 -0.0054937855939541647 0.074730398429307468 -0.024697712751147835 0.034910671566914978 -0.0092399026747636091 -0.0084930420136644178 0.060780999636790137 0.038729125901514359 0.036846405699606531 0.058083915281050093 0.042427243561063165 0.046836775483183046 -0.032205735747703357 0.011254075307727648 -0.011101750225311265 0.010896442742513376 -0.0068233469580390952
leaf_weight=7.8107051849365234 1877.2037398070097 6.4887826442718533 11.437716394662855 11.45098216831685 276.42219799757004 422.21340230107307 15.324961453676222 248.00921361148357 13.545899108052252 17.747267931699753 33.178798466920853 167.10101298987865 10.446607708930967 5.3785792589187613 7.9918645918369284 25.934069529175758 4.603361874818801 181.34389705955982 7.7665398716926557 17.503383725881577 11.840908020734785 203.26779425144196 58.37276366353035 177.00058105587959 20.11893430352211 44.372493579983711 5.9658692926168433 137.823989123106 196.74171312153339 5.5970225334167472
leaf_count=35 12029 25 67 44 851 1223 90 903 75 54 151 820 38 21 29 123 20 818 35 61 40 698 183 571 64 240 32 711 778 22
internal_value=0 0.0390625 -0.0323909 0.0116693 0.0551928 0.0641067 -0.00874896 0.0211295 -0.00183323 0.0430375 0.000552991 -0.00240052 0.0146115 0.0308269 0.0386287 -0.0085278 -0.00644691 -0.00741371 0.0138461 0.0371544 0.0180081 0.038744 0.0481856 0.0454965 0.0598436 -0.0166886 -0.0270551 -0.0131925 0.0122308 0.0217047
internal_weight=0 1924.05 2305.95 713.075 1210.98 698.636 428.751 485.616 229.151 512.34 213.826 180.647 237.607 30.4184 25.0399 227.459 201.525 196.921 15.5772 239.101 18.3297 220.771 273.24 214.867 37.8662 199.6 50.3384 149.262 207.188 17.048
internal_count=20851 6636 14215 2866 3770 2074 2186 1835 1136 1696 1046 895 932 116 95 1031 908 888 70 824 65 759 872 689 118 1050 272 778 816 66
is_linear=0
shrinkage=0.05


Tree=20
num_leaves=31
num_cat=0
split_feature=7 7 2 3 6 1 2 3 4 2 2 1 1 3 0 4 1 6 0 4 0 4 0 0 4 1 1 3 4 1
split_gain=6002.76 241.211 14.3694 5.88929 4.38403 4.43477 2.77021 2.66442 2.55813 2.72601 2.21482 2.06415 2.06022 2.00824 2.69363 2.8265 1.92783 2.81688 1.87414 1.72384 1.71912 1.8754 1.64535 1.63383 1.61073 2.26653 2.23972 1.59783 1.46184 1.44077
threshold=-1.0000000180025095e-35 1.0000000180025095e-35 5.5000000000000009 6.5000000000000009 29.000000000000004 14.500000000000002 13.500000000000002 8.5000000000000018 1.5220000000000002 15.500000000000002 13.500000000000002 13.500000000000002 9.5000000000000018 13.500000000000002 9.5000000000000018 0.85902150000000022 10.500000000000002 33.500000000000007 4.5000000000000009 0.82255800000000012 11.500000000000002 1.0838350000000003 8.5000000000000018 12.500000000000002 1.5579100000000004 13.500000000000002 14.500000000000002 13.500000000000002 1.2240950000000002 10.500000000000002
decision_type=2 2 2 2 2 2 2 2 2 2 2 2 2 2 2 2 2 2 2 2 2 2 2 2 2 2 2 2 2 2
left_child=-1 -2 18 11 5 6 13 29 9 19 -7 22 -9 -5 -15 -16 -14 23 -3 -8 -17 -22 -4 24 25 -18 -27 28 -25 -6
right_child=1 2 3 4 7 10 8 12 -10 -11 -12 -13 16 14 15 20 17 -19 -20 -21 21 -23 -24 27 -26 26 -28 -29 -30 -31
leaf_value=-0.061329409442290608 0.043695203840696709 0.040578142978291792 0.039776064737958465 0.0097909820132333555 0.017166862880993523 -0.018816391318856415 -0.019660817942862445 0.021655330042346176 -0.026189552265096391 0.021948311052967559 0.0097902681070663206 0.00076827470126734129 -0.0057005562513981773 0.016179454911325577 -0.030664999724673039 -0.016927762355701335 0.016035598880122178 0.036915881433667551 0.024979688672934583 0.0029622579582385396 -0.009129375053822034 0.026183789807244864 0.02096917542178113 -0.0042711495982989504 -0.013230698745854509 -0.02607864211143859 0.011527384825446756 0.040915488255701737 0.027610189732918164 0.045660135329246669
leaf_weight=2469.3325643837452 3264.1508420407772 32.371326237916946 17.587044060230255 249.43426287174225 8.3632799386978167 28.620358735322952 13.878594994544981 38.994122922420502 10.613365203142164 11.662415027618406 8.8610273599624616 8.5062461495399457 20.151859164237976 15.459617406129835 10.440615624189375 8.9607927799224871 30.33103546500206 9.6621328592300397 47.531305015087128 21.410762399435043 6.7083146572113028 8.5539708137512189 34.331562727689743 7.5055992305278796 11.038098454475401 7.9293483197689039 7.9079168140888214 6.4680499136447898 6.9019062519073486 9.4493729770183545
leaf_count=6636 12029 112 60 769 27 82 40 125 30 37 27 27 62 48 31 27 93 31 159 65 20 26 111 23 33 24 24 20 21 32
internal_value=0 0.0379848 0.0113431 0.00877012 0.00716804 0.00430814 0.00602535 0.01402 -0.0040203 0.000991017 -0.0120535 0.0235993 0.0118054 0.0079558 -0.00117683 -0.00891754 0.00824557 0.0114485 0.0312992 -0.00593494 0.000456031 0.0106624 0.0273399 0.00829711 0.00392798 0.00803034 -0.00730107 0.0202701 0.0110016 0.0322822
internal_weight=0 3963.79 699.634 619.732 559.307 394.604 357.123 164.703 57.5651 46.9518 37.4814 60.4249 146.89 299.558 50.1233 34.6637 107.896 87.7441 79.9026 35.2894 24.2231 15.2623 51.9186 78.082 57.2064 46.1683 15.8373 20.8756 14.4075 17.8127
internal_count=20851 14215 2186 1915 1717 1202 1093 515 172 142 109 198 456 921 152 104 331 269 271 105 73 46 171 238 174 141 48 64 44 59
is_linear=0
shrinkage=0.05


Tree=21
num_leaves=31
num_cat=0
split_feature=7 4 7 4 4 4 4 1 4 4 3 3 4 6 0 3 3 4 3 5 2 4 3 0 1 2 2 4 4 0
split_gain=1961.94 294.326 109.781 45.4934 41.5151 8.65808 6.6848 6.68463 6.57179 5.44861 4.92313 4.53443 4.07616 4.0173 3.83394 3.80775 3.09821 3.35278 3.08186 6.8705 3.02189 4.34318 3.29651 2.99836 5.52348 2.98825 4.60601 3.46462 3.55882 3.41137
threshold=-1.0000000180025095e-35 1.1027600000000002 1.0000000180025095e-35 1.6234450000000002 0.74330950000000018 0.64175050000000011 2.3913400000000005 11.500000000000002 0.53379800000000011 0.87982550000000004 3.5000000000000004 3.5000000000000004 1.3526850000000004 21.000000000000004 13.500000000000002 8.5000000000000018 5.5000000000000009 1.1955050000000003 1.0000000180025095e-35 1.0000000180025095e-35 13.500000000000002 0.96370200000000017 9.5000000000000018 3.5000000000000004 2.5000000000000004 5.5000000000000009 6.5000000000000009 0.98411650000000017 0.95230100000000018 6.5000000000000009
decision_type=2 2 2 2 2 2 2 2 2 2 2 2 2 2 2 2 2 2 2 2 2 2 2 2 2 2 2 2 2 2
left_child=1 4 -2 11 8 10 18 15 -1 -6 -4 13 16 -3 20 -7 17 -13 -5 -20 -9 -22 -23 24 -8 27 -27 28 -11 -30
right_child=2 3 5 6 9 7 23 14 -10 25 -12 12 -14 -15 -16 -17 -18 -19 19 -21 21 22 -24 -25 -26 26 -28 -29 29 -31
leaf_value=0.066615723497663856 -0.03753478371363194 -0.0015088965513399026 -0.038044171463311738 -0.024344340205760803 0.047758323699710017 -0.028800037021108612 0.048953959375314028 -0.0044319467514444284 0.05605771321240885 0.035442485886562201 0.0089995031704084225 0.026732087565134888 0.011268189085289031 0.032704217545223048 -0.02362170755766017 -0.013967186829472459 0.027798165071482597 0.0077243286379524633 0.040810409037414584 -0.00052270459802351832 -0.016802157341956867 0.066891607046488083 0.015100923160663799 -0.022289966014924462 -0.0136084410176477 0.05313108372510298 0.035959377797191293 0.028578648997213213 0.046291419668539821 0.085867250586981997
leaf_weight=253.72007131576538 1793.6220152825117 9.3850787132978422 6.0098237991332999 11.922853693366049 264.13616794347763 62.510954588651657 4.4599437713623074 99.327780336141586 351.67962992191315 77.883038341999054 74.523082911968231 39.909237384796143 134.15453377366066 100.02490444481373 21.866535261273384 140.54840885102749 118.20219704508781 55.410661533474922 10.67777097225189 172.0573697835207 6.509964361786845 4.6720240712165824 8.974401727318762 61.411080598831177 16.883285030722618 70.837170958518982 87.030021578073502 113.83441391587257 22.908225536346439 7.1429651081562033
leaf_count=706 12029 34 37 52 801 366 20 498 1016 245 341 141 520 352 110 738 420 205 40 743 32 23 41 289 79 224 279 374 73 23
internal_value=0 0.0363146 -0.0321211 0.0111977 0.051083 -0.0092705 -0.0047752 -0.0127217 0.0604825 0.0422437 0.00548884 0.0208919 0.0180983 0.0297695 -0.00437268 -0.0185334 0.0223896 0.0156826 0.000285501 0.00189252 -0.000849953 0.0168016 0.0328321 -0.0166792 -0.000535218 0.0384068 0.0436646 0.0346641 0.0410821 0.0556983
internal_weight=0 1983.67 2218.56 734.499 1249.17 424.943 277.412 344.41 605.4 643.772 80.5329 457.087 347.677 109.41 141.351 203.059 213.522 95.3199 194.658 182.735 119.484 20.1564 13.6464 82.7543 21.3432 379.636 157.867 221.769 107.934 30.0512
internal_count=20851 6636 14215 2895 3741 2186 1223 1808 1722 2019 378 1672 1286 386 704 1104 766 346 835 783 594 96 64 388 99 1218 503 715 341 96
is_linear=0
shrinkage=0.05


Tree=22
num_leaves=31
num_cat=0
split_feature=7 4 7 4 4 4 4 4 2 3 6 1 3 4 4 4 2 3 0 2 4 6 4 5 1 1 3 1 4 4
split_gain=1918.57 289.821 116.499 58.052 34.2413 10.3494 9.18185 6.58204 6.33969 4.55713 4.8328 6.14306 4.08784 3.73725 3.67866 3.4609 3.44244 3.40101 3.25581 3.14434 3.10857 2.91866 3.1479 7.52667 2.89865 2.81241 3.38402 4.27292 2.80857 3.4859
threshold=-1.0000000180025095e-35 0.99684500000000009 1.0000000180025095e-35 0.61406400000000005 1.5334750000000004 0.82255800000000012 0.71599550000000012 1.1027600000000002 5.5000000000000009 14.500000000000002 29.000000000000004 14.500000000000002 16.500000000000004 2.0429700000000004 1.9774000000000003 1.0059400000000001 5.5000000000000009 3.5000000000000004 7.5000000000000009 6.5000000000000009 2.4652350000000003 27.500000000000004 0.44204350000000009 1.0000000180025095e-35 10.500000000000002 2.5000000000000004 4.5000000000000009 3.5000000000000004 1.7897050000000003 1.5828650000000002
decision_type=2 2 2 2 2 2 2 2 2 2 2 2 2 2 2 2 2 2 2 2 2 2 2 2 2 2 2 2 2 2
left_child=1 3 -2 21 7 -5 -4 16 -8 10 11 14 -11 -6 28 -12 -3 19 25 -18 24 22 -1 -24 -16 -7 27 -27 29 -10
right_child=2 4 6 5 13 18 8 -9 9 12 15 -13 -14 -15 20 -17 17 -19 -20 -21 -22 -23 23 -25 -26 26 -28 -29 -30 -31
leaf_value=-0.014548361178455158 -0.037485872313243504 0.042058343092784611 -0.022438196419716578 0.015093144962815089 0.05804866734919642 0.01241081717578364 -0.024356175311574479 0.047654829643561991 -0.0063541435656331059 0.028906038529246461 -0.031762512228193929 0.027117175875103858 -0.020915248309432005 0.06675768381904347 0.061587898208596593 -0.0080181761843764448 0.024576825762487511 0.020924663477266577 0.043692887983276245 0.066727274948744461 -0.0039003421897722324 -0.024254854048785107 0.045051906097329002 -0.0047138172965839123 0.010673044317002722 0.054662045169524713 0.033079097051329533 0.016144012885284238 -0.033977613933463484 0.018916348900045503
leaf_weight=73.33144274353981 1777.3704912811518 101.88279908895493 90.453423961997032 303.69824066758156 264.18162682652473 31.012491956353188 35.794095873832703 490.34542405605316 132.88142201304436 19.590536385774616 21.233284816145897 19.141673922538757 5.2127550840377799 230.80411741137505 5.3408292829990405 55.353616401553154 8.5506832301616686 50.456231772899628 30.957797765731812 9.1689362525939924 9.5356216579675657 25.489807069301605 8.1140497326850873 119.39177824556828 5.8654042780399323 8.0275290310382825 142.29982423782349 69.850717455148697 8.1101508736610395 15.208600446581839
leaf_count=337 12029 332 489 1165 759 113 213 1494 678 95 117 86 25 642 23 278 29 172 107 29 44 123 35 536 27 28 489 246 39 72
internal_value=0 0.0360781 -0.0318694 0.01319 0.0521672 0.0214986 -0.00831025 0.0447152 -0.00447573 -0.00208358 -0.00395008 0.000210054 0.0184354 0.0621095 -0.00270077 -0.0146012 0.0362391 0.0275427 0.0283934 0.0463874 0.0170833 -0.00831691 -0.0062941 -0.00154689 0.0349388 0.0265078 0.0284934 0.0201144 -0.00532791 -0.00375891
internal_weight=0 1967.56 2201.09 812.174 1155.39 585.847 423.721 660.404 333.268 297.474 272.671 196.084 24.8033 494.986 176.942 76.5869 170.059 68.1759 282.148 17.7196 20.7419 226.327 200.837 127.506 11.2062 251.191 220.178 77.8782 156.2 148.09
internal_count=20851 6636 14215 3179 3457 2148 2186 2056 1697 1484 1364 969 120 1401 883 395 562 230 983 58 94 1031 908 571 50 876 763 274 789 750
is_linear=0
shrinkage=0.05


Tree=23
num_leaves=31
num_cat=0
split_feature=7 7 2 3 6 1 2 3 4 2 2 1 1 3 0 3 1 6 0 4 3 0 3 4 3 4 1 1 0 4
split_gain=5447.57 234.204 13.3921 5.41037 4.06965 4.12098 2.5685 2.54447 2.3697 2.53531 2.05477 1.98542 1.92635 1.90889 2.62727 1.86932 1.83843 2.70743 1.62134 1.60035 1.57286 1.55278 1.53383 1.49934 2.64737 1.48159 2.13926 2.08793 1.47725 3.29638
threshold=-1.0000000180025095e-35 1.0000000180025095e-35 5.5000000000000009 6.5000000000000009 29.000000000000004 14.500000000000002 13.500000000000002 8.5000000000000018 1.5220000000000002 15.500000000000002 13.500000000000002 13.500000000000002 9.5000000000000018 14.500000000000002 10.500000000000002 1.0000000180025095e-35 10.500000000000002 33.500000000000007 8.5000000000000018 0.82255800000000012 5.5000000000000009 12.500000000000002 13.500000000000002 0.63000700000000009 9.5000000000000018 1.5579100000000004 13.500000000000002 14.500000000000002 10.500000000000002 0.73373500000000014
decision_type=2 2 2 2 2 2 2 2 2 2 2 2 2 2 2 2 2 2 2 2 2 2 2 2 2 2 2 2 2 2
left_child=-1 -2 15 11 5 6 13 -6 9 19 -7 18 -9 23 -15 -3 -14 21 -4 -8 -17 25 -23 24 -5 26 -18 -28 29 -25
right_child=1 2 3 4 7 10 8 12 -10 -11 -12 -13 16 14 -16 20 17 -19 -20 -21 -22 22 -24 28 -26 -27 27 -29 -30 -31
leaf_value=-0.05859422200524439 0.04288408714797088 0.042000556418808566 0.038919730435320384 -0.017849021397655398 0.031438795912588184 -0.018231318183206776 -0.018988054453375453 0.020836982973265569 -0.025274598561734238 0.021203373231567887 0.0093643387350237361 0.00019430034581389445 -0.00582841919373069 0.011500394890769466 -0.020349031719011267 0.0081831660151140701 0.015391951924108553 0.036149382900312395 0.02002084639625493 0.0027890963971970162 0.029443275725992615 0.010528407909206425 0.040052462435108627 0.030796476210090913 0.0082029164544758296 -0.01281331181394306 -0.025336435877306482 0.010980360688914797 0.01437704791456537 0.0031366972513436051
leaf_weight=2440.8914575874805 3123.5244148671627 23.720272034406662 17.093331843614578 13.6889251768589 17.449656277894974 28.730182349681854 13.941320061683653 38.449843555688858 10.669862508773802 11.519968777894972 8.8154073059558851 8.4457146525382978 20.123905390501022 12.194861054420473 13.804911136627195 10.888831585645674 30.069453209638596 9.4896249473094922 33.767508119344711 21.364980846643448 43.269663542509079 14.323421895504 6.3490713238716117 12.140759021043776 33.903068691492081 11.077730000019072 7.9761763513088209 7.8554742634296417 116.70269745588303 95.514062821865082
leaf_count=6636 12029 86 60 40 59 82 40 125 30 37 27 27 62 38 40 38 93 31 111 65 147 44 20 39 103 33 24 24 365 296
internal_value=0 0.0370488 0.0107605 0.00828856 0.0067577 0.00400174 0.00566581 0.0133956 -0.00400973 0.000835699 -0.0117521 0.0226444 0.0112349 0.00753293 -0.00541046 0.0302954 0.00779291 0.0109386 0.0263724 -0.00581 0.0251688 0.00785759 0.019596 0.00877038 0.000709576 0.00359876 0.00755964 -0.00731648 0.0104803 0.00625603
internal_weight=0 3816.87 693.341 615.462 556.155 392.991 355.445 163.164 57.4961 46.8263 37.5456 59.3066 145.715 297.949 25.9998 77.8788 107.265 87.141 50.8608 35.3063 54.1585 77.6513 20.6725 271.95 47.592 56.9788 45.9011 15.8317 224.358 107.655
internal_count=20851 14215 2186 1915 1717 1202 1093 515 172 142 109 198 456 921 78 271 331 269 171 105 185 238 64 843 143 174 141 48 700 335
is_linear=0
shrinkage=0.05


Tree=24
num_leaves=31
num_cat=0
split_feature=7 4 7 4 4 3 4 4 4 4 1 3 2 5 4 2 6 3 3 3 2 0 1 3 5 0 1 4 2 4
split_gain=1764.06 252.135 108.701 40.3098 36.6582 8.24543 6.82038 6.22918 5.52195 5.0859 4.59652 4.02336 3.66286 3.62274 3.60302 3.4741 3.44687 3.27603 6.63773 3.44712 2.95593 4.57792 3.7115 2.91932 6.25399 2.88349 5.06047 2.86433 4.94053 3.08578
threshold=-1.0000000180025095e-35 1.1027600000000002 1.0000000180025095e-35 1.6234450000000002 0.72024300000000008 7.5000000000000009 0.77579000000000009 2.3913400000000005 0.87982550000000004 0.53379800000000011 11.500000000000002 3.5000000000000004 10.500000000000002 1.0000000180025095e-35 1.3526850000000004 15.500000000000002 27.500000000000004 9.5000000000000018 8.5000000000000018 14.500000000000002 2.5000000000000004 3.5000000000000004 1.5000000000000002 1.0000000180025095e-35 1.0000000180025095e-35 3.5000000000000004 2.5000000000000004 1.3286000000000002 5.5000000000000009 1.3001800000000003
decision_type=2 2 2 2 2 2 2 2 2 2 2 2 2 2 2 2 2 2 2 2 2 2 2 2 2 2 2 2 2 2
left_child=1 4 -2 11 9 -4 15 23 -6 -1 -8 13 -12 -3 27 -7 -11 18 -14 -19 21 -15 -22 -5 -25 26 -9 29 -29 -13
right_child=2 3 5 7 8 6 10 25 -10 16 12 14 17 20 -16 -17 -18 19 -20 -21 22 -23 -24 24 -26 -27 -28 28 -30 -31
leaf_value=0.061658692775646534 -0.037247843334922315 0.0017549522333142064 -0.024019286145831972 -0.02391751136310118 0.044430170430872579 0.006585007203116687 -0.016678290107039036 0.046126792905397583 0.035471343325196102 0.050359042181433548 -0.013112674079043957 0.021206966021042592 -0.010389846051033725 0.016378295418044166 0.010488999471992812 -0.03970772007203973 0.066404429687883987 -0.0043088062440912187 0.068995769198489987 0.039337444423647512 5.2459648882281071e-05 0.068848789996639834 0.031099719221701461 0.038485377962464762 -0.00053397503593789796 -0.021792072342305766 -0.013169936582560875 0.076318165653601722 0.020915637899811858 0.00024689925177987887
leaf_weight=258.75275099277496 1696.9725354164839 11.947894960641859 73.676703810691833 11.748191580176352 308.40637192130089 104.31677182018757 129.8204707056284 4.5872524380683926 388.88426131010056 284.4483448266983 47.387448698282242 179.94162814319134 5.0780013799667341 6.6142690479755428 135.63591632246971 4.216639131307601 37.934309750795364 44.78263695538044 5.469109520316124 5.0321129560470572 11.141433626413344 11.189329683780668 70.766222715377808 10.920901745557783 172.08724598586559 60.340444728732109 16.68565808236599 6.1571389138698605 11.614664345979689 19.458718284964561
leaf_count=706 12029 43 442 52 909 491 700 20 1218 803 242 629 25 24 520 21 105 216 25 24 39 36 244 40 743 289 79 21 43 73
internal_value=0 0.0337135 -0.0316124 0.010504 0.0471632 -0.00883118 -0.00559801 -0.00461585 0.0394338 0.0564376 -0.0103422 0.0195006 -0.00270813 0.0277726 0.0168826 0.00478649 0.0522471 0.00546001 0.0307749 0.000100186 0.0308902 0.0493553 0.0268765 0.00024347 0.00179448 -0.0162118 -0.000383296 0.0208758 0.0401101 0.0191616
internal_weight=0 2019.26 2116.75 740.837 1278.43 419.78 346.103 276.37 697.291 581.135 237.57 464.467 107.749 111.659 352.808 108.533 322.383 60.3619 10.5471 49.8147 99.7113 17.8036 81.9077 194.756 183.008 81.6134 21.2729 217.172 17.7718 199.4
internal_count=20851 6636 14215 2895 3741 2186 1744 1223 2127 1614 1232 1672 532 386 1286 512 908 290 50 240 343 60 283 835 783 388 99 766 64 702
is_linear=0
shrinkage=0.05


Tree=25
num_leaves=31
num_cat=0
split_feature=7 4 7 4 4 4 4 4 1 4 4 2 2 2 0 2 1 0 4 4 0 6 1 4 4 1 2 0 6 2
split_gain=1724.94 248.407 115.247 43.1264 39.6473 8.80142 6.48639 5.99646 5.90347 5.61822 4.99753 3.79663 3.65266 3.48975 5.12891 3.81454 3.33429 4.50717 4.37872 3.28265 3.17249 3.02356 4.01454 3.10597 3.24576 5.6206 2.87071 2.8228 2.80107 2.96454
threshold=-1.0000000180025095e-35 0.93912800000000007 1.0000000180025095e-35 0.61406400000000005 1.3526850000000004 0.71599550000000012 2.0429700000000004 0.74330950000000018 3.5000000000000004 1.0929200000000001 1.9774000000000003 5.5000000000000009 3.5000000000000004 5.5000000000000009 2.5000000000000004 1.0000000180025095e-35 6.5000000000000009 5.5000000000000009 1.2122450000000002 1.3356900000000003 2.5000000000000004 29.000000000000004 14.500000000000002 1.7897050000000003 1.4726750000000002 8.5000000000000018 3.5000000000000004 4.5000000000000009 27.500000000000004 8.5000000000000018
decision_type=2 2 2 2 2 2 2 2 2 2 2 2 2 2 2 2 2 2 2 2 2 2 2 2 2 2 2 2 2 2
left_child=1 3 -2 28 9 -4 -6 12 -7 -3 11 -10 27 14 26 -16 17 -15 -18 -17 -9 22 23 24 -13 -26 -11 -5 29 -1
right_child=2 4 5 7 6 8 -8 20 10 13 -12 21 -14 16 15 19 18 -19 -20 -21 -22 -23 -24 -25 25 -27 -28 -29 -30 -31
leaf_value=-0.0070042831319787726 -0.037202828377021852 0.031746494192728854 -0.021901060579119492 0.042589837837964516 0.051517057523838408 -0.029096697095074332 0.061804082539173757 0.0086129295114793728 -0.024564888503376139 0.065797905214474081 0.014943373645305725 -0.0037908044102712372 0.0076087726353283357 0.03389689956272883 0.0017223871108870627 0.036861495967929869 0.040927080553612549 0.054073568811134599 0.073150495230877202 0.0015395259966634956 0.024179204562392607 -0.011555096625065445 0.022992902149344824 -0.033395051859132288 0.0518365439742157 0.0010363863230514834 0.035047833055639181 0.01314787275002197 -0.023799850120050176 0.033211544150383882
leaf_weight=195.09105785191059 1681.5197318941355 251.27015647292137 88.441291972994804 14.446548655629156 439.20769885182381 22.113989070057869 235.34860369563103 36.972169369459152 22.085886895656586 21.544319987297058 36.782821282744408 124.86455516517162 146.6149916946888 64.039551317691803 8.9728709161281568 145.75420784950256 18.789365828037262 48.748244345188141 24.019712775945663 6.888583540916442 285.39550743997097 72.273821383714676 17.953887939453125 7.4828254729509345 7.5826355814933804 19.313647165894508 11.718147009611128 18.652660146355629 25.039685815572739 4.6927430778741828
leaf_count=888 12029 824 489 53 1250 136 642 134 134 62 166 640 567 194 28 442 57 145 70 21 1010 381 79 36 35 90 35 71 123 20
internal_value=0 0.0334951 -0.0313572 0.0101645 0.0467828 -0.00789159 0.0551061 0.0183141 -0.00414216 0.0374524 -0.00235243 -0.00469517 0.0109957 0.0415431 0.0370849 0.033405 0.0471268 0.0426175 0.0590073 0.0352675 0.0223939 -0.00293609 0.000579351 -0.00194766 -0.000397092 0.015358 0.0549649 0.0259982 -0.00803546 -0.00605965
internal_weight=0 2003.21 2100.42 726.905 1276.3 418.895 674.556 502.082 330.454 601.745 308.34 271.557 179.714 350.475 194.878 161.616 155.597 112.788 42.8091 152.643 322.368 249.471 177.198 159.244 151.761 26.8963 33.2625 33.0992 224.823 199.784
internal_count=20851 6636 14215 2866 3770 2186 1892 1835 1697 1878 1561 1395 691 1054 588 491 466 339 127 463 1144 1261 880 801 765 125 97 124 1031 908
is_linear=0
shrinkage=0.05


Tree=26
num_leaves=31
num_cat=0
split_feature=7 7 3 2 6 1 3 2 0 4 2 3 0 4 4 1 3 1 1 6 1 0 4 4 0 3 4 4 1 1
split_gain=4962.37 227.915 12.5504 5.47622 4.27847 5.02034 3.39719 2.54783 2.24834 2.89847 2.80789 2.15061 2.46886 2.58236 2.14301 2.54627 2.01699 1.82334 1.74711 2.60794 1.66531 1.62172 1.74201 1.58973 1.45079 1.48104 1.42281 1.36964 2.01794 1.9398
threshold=-1.0000000180025095e-35 1.0000000180025095e-35 2.5000000000000004 5.5000000000000009 29.000000000000004 14.500000000000002 8.5000000000000018 13.500000000000002 9.5000000000000018 0.96794750000000007 15.500000000000002 13.500000000000002 9.5000000000000018 0.85902150000000022 0.72427600000000003 15.500000000000002 5.5000000000000009 9.5000000000000018 10.500000000000002 33.500000000000007 11.500000000000002 11.500000000000002 1.0838350000000003 0.9317335000000001 12.500000000000002 13.500000000000002 1.2240950000000002 1.5579100000000004 13.500000000000002 14.500000000000002
decision_type=2 2 2 2 2 2 2 2 2 2 2 2 2 2 2 2 2 2 2 2 2 2 2 2 2 2 2 2 2 2
left_child=-1 -2 -3 16 5 7 -6 11 9 -9 20 -5 -13 -14 -7 -16 -4 -8 -19 24 23 -15 -23 -10 27 26 -26 28 -20 -30
right_child=1 2 3 4 6 14 17 8 10 -11 -12 12 13 21 15 -17 -18 18 19 -21 -22 22 -24 -25 25 -27 -28 -29 29 -31
leaf_value=-0.0562573123703283 0.042146313782112373 0.036127825225461631 -0.0013452861857953362 0.0097902862887729036 0.029585476463003399 0.0087674176192526852 0.020060123440270288 0.0035002666519844921 -0.012347305509864324 -0.032274640664028166 0.025580784494972787 0.015242947207258762 -0.029576178922894776 -0.016734034562805811 -0.032540399724052919 -0.004231144887890924 0.02852625438063602 -0.0059884946026320706 0.014744926385889284 0.0353785506175575 -0.020353765088102986 -0.008897354164318869 0.025241068565797577 0.017256388123427065 -0.0052283761635439716 0.039145546626589228 0.026449788301084898 -0.012495083549270182 -0.024612061650891855 0.010406263972778816
leaf_weight=2402.7806760668755 2984.0299266129732 43.723557859659195 6.5218033492565146 268.12725043296814 28.314769327640533 9.4231778681278211 37.926549434661865 10.625485479831697 7.8250655531883302 12.119778066873549 11.039186775684355 15.253233939409254 10.515468388795851 8.966095834970476 15.883494108915331 15.888707071542738 42.324982553720474 20.088951945304871 29.803208708763123 9.3098516464233381 10.167375683784483 6.7157779633998862 8.424345910549162 10.785662859678267 7.4297538697719592 6.2165710926055899 6.7784652709960938 11.107636600732802 8.021897614002226 7.799758404493331
leaf_count=6636 12029 159 23 843 97 28 125 32 23 37 35 48 31 27 46 46 147 62 93 31 29 20 26 33 23 20 21 33 24 24
internal_value=0 0.0361681 0.0102061 0.00844456 0.00712238 0.00440749 0.0137488 0.00620228 -0.00302129 -0.0155623 0.00414267 0.00801689 -0.0015169 -0.00890076 -0.0121729 -0.0183834 0.0245379 0.0106453 0.00729425 0.0103802 -0.00408092 0.000118139 0.0100981 0.00480922 0.00736393 0.0187906 0.00988466 0.0032501 0.00708335 -0.00734873
internal_weight=0 3671.16 687.128 643.404 594.558 421.76 172.797 380.565 62.5626 22.7453 39.8173 318.002 49.8749 34.6217 41.1954 31.7722 48.8468 144.483 106.556 86.4671 28.7781 24.1062 15.1401 18.6107 77.1573 20.4248 14.2082 56.7325 45.6249 15.8217
internal_count=20851 14215 2186 2027 1857 1304 553 1184 189 69 120 995 152 104 120 92 170 456 331 269 85 73 46 56 238 64 44 174 141 48
is_linear=0
shrinkage=0.05


Tree=27
num_leaves=31
num_cat=0
split_feature=7 4 7 4 4 3 4 4 4 2 4 4 4 4 1 3 0 1 6 0 1 3 5 4 2 0 2 4 0 0
split_gain=1591 217.153 107.646 37.1278 31.3795 7.78317 6.40159 5.78989 4.72192 4.51953 4.45177 4.11206 4.30628 3.62503 3.2992 3.75079 3.18478 3.17521 3.12923 2.77594 4.65168 2.76735 5.70763 2.74402 2.92277 4.32761 3.72527 2.89226 2.70673 3.24415
threshold=-1.0000000180025095e-35 1.0929200000000001 1.0000000180025095e-35 1.6234450000000002 0.72024300000000008 7.5000000000000009 0.66746100000000008 2.3913400000000005 0.53379800000000011 8.5000000000000018 0.87982550000000004 1.0483150000000003 0.71599550000000012 1.3001800000000003 11.500000000000002 10.500000000000002 6.5000000000000009 15.500000000000002 27.500000000000004 3.5000000000000004 2.5000000000000004 1.0000000180025095e-35 1.0000000180025095e-35 1.3136000000000003 3.5000000000000004 1.0000000180025095e-35 1.5000000000000002 1.4023400000000004 6.5000000000000009 2.5000000000000004
decision_type=2 2 2 2 2 2 2 2 2 2 2 2 2 2 2 2 2 2 2 2 2 2 2 2 2 2 2 2 2 2
left_child=1 4 -2 13 8 -4 16 21 -1 -8 -6 12 -11 28 -13 -16 -7 -14 -10 20 -9 -5 -23 -15 26 -26 -25 -28 29 -3
right_child=2 3 5 7 10 6 9 19 18 11 -12 14 17 23 15 -17 -18 -19 -20 -21 -22 22 -24 24 25 -27 27 -29 -30 -31
leaf_value=0.057446841200000258 -0.036981416132385828 0.010826011233163168 -0.023412296724957773 -0.02346822614241896 0.041172613565563718 -0.025293017344330468 -0.021080460641887552 0.043710171744803183 0.046663638801934804 -0.02890320472613267 0.033139523859275703 -0.019435181050675831 0.0096933002066275798 -0.0075096136661853483 0.014697053823811576 -0.011713392979619881 0.010783676462272218 -0.030615679085929916 0.061822956101561327 -0.021255997559996367 -0.012681950569831613 0.036432557245053176 -0.0004970454605943695 0.0079060385851726471 0.056143556225223525 0.01103153067891352 0.017143765256656448 0.050334999209037834 0.01245818271544921 0.028022133169327047
leaf_weight=262.11165609955788 1604.3428278714418 32.658007815480232 71.535143554210663 11.565890073776243 314.82439893484116 6.7144560962915412 59.355742633342743 4.7006842494010952 289.53504893183708 9.4292632490396482 381.41442510485649 61.897915184497833 70.925389185547829 13.89255255460739 20.006744354963303 40.9795803129673 68.79329314827919 5.2469245195388785 38.578057527542114 59.206280320882797 16.468793466687202 11.140602231025694 171.96012522280216 16.378669828176498 5.491014063358306 167.01224052906036 10.485413223505022 17.547286331653595 51.695349454879761 171.23501119017601
leaf_count=706 12029 118 442 52 909 32 331 20 803 48 1167 342 357 52 95 203 311 25 105 289 79 40 743 60 20 617 37 65 183 571
internal_value=0 0.0314357 -0.0311107 0.0102725 0.0439618 -0.00840878 -0.00528287 -0.00440986 0.0524432 -0.00890783 0.0367719 -0.00544229 0.00297106 0.018575 -0.0113031 -0.00304937 0.00757559 0.00691672 0.048446 -0.0156997 -0.000160075 0.000251598 0.0017499 0.0140327 0.0154124 0.0124675 0.0268511 0.0379201 0.0226769 0.0252678
internal_weight=0 2047.9 2019.23 761.438 1286.46 414.884 343.349 275.042 590.225 267.842 696.239 208.486 85.6016 486.396 122.884 60.9863 75.5077 76.1723 328.113 80.3758 21.1695 194.667 183.101 230.807 216.915 172.503 44.4114 28.0327 255.588 203.893
internal_count=20851 6636 14215 2946 3690 2186 1744 1223 1614 1401 2076 1070 430 1723 640 298 343 382 908 388 99 835 783 851 799 637 162 102 872 689
is_linear=0
shrinkage=0.05


Tree=28
num_leaves=31
num_cat=0
split_feature=7 4 7 4 4 4 4 4 1 3 4 3 3 6 1 3 0 0 1 1 4 3 4 4 0 2 5 1 3 1
split_gain=1555.64 214.149 114.024 46.1795 26.9 8.40189 7.97995 5.92799 5.59345 4.69061 4.13809 3.90335 3.63589 3.38658 4.09195 3.63614 2.91421 3.2379 4.19574 3.10163 3.57642 4.26489 2.87119 4.12335 2.80519 2.79191 2.70267 2.60742 2.55801 3.14029
threshold=-1.0000000180025095e-35 1.0001600000000004 1.0000000180025095e-35 0.61406400000000005 1.6234450000000002 0.71599550000000012 0.82255800000000012 1.3001800000000003 3.5000000000000004 14.500000000000002 1.5457900000000002 16.500000000000004 7.5000000000000009 29.000000000000004 14.500000000000002 11.500000000000002 6.5000000000000009 10.500000000000002 12.500000000000002 7.5000000000000009 1.3846100000000001 10.500000000000002 1.2727850000000001 0.8426840000000001 7.5000000000000009 1.0000000180025095e-35 1.0000000180025095e-35 2.5000000000000004 3.5000000000000004 3.5000000000000004
decision_type=2 2 2 2 2 2 2 2 2 2 2 2 2 2 2 2 2 2 2 2 2 2 2 2 2 2 2 2 2 2
left_child=1 3 -2 25 7 -4 -5 -3 -7 10 13 22 -12 14 16 -16 -10 18 19 -18 21 -21 23 -11 27 26 -1 -8 29 -29
right_child=2 4 5 6 -6 8 24 -9 9 11 12 -13 -14 -15 15 -17 17 -19 -20 20 -22 -23 -24 -25 -26 -27 -28 28 -30 -31
leaf_value=0.032579071430126755 -0.036939938736859863 0.035334805935397388 -0.021353872477651414 0.013276363246024351 0.054431322789788128 -0.028573022485503832 0.0098389916916089074 0.04442400016779291 -0.026515015218950756 0.054422396023601875 0.02945776695070277 -0.020578222655378668 0.00089287996776907892 -0.018188793024824811 0.0052705605059154741 0.057853500606725665 -0.011380423482476858 -0.010548951730548366 -0.023254299544350959 0.037453786740795643 0.060965842046882407 -0.0061832293842366401 0.052811395647413939 -0.0056091118177791421 0.038460294140615719 -0.0092501474147336678 -0.0085446655366387073 0.047374169969008464 0.027549627392434509 0.0097590116115206429
leaf_weight=8.1566226929426175 1589.6666975617409 449.44957149028778 86.462853938341141 311.01142360270023 450.20714670419693 21.357134103775024 32.947090268135071 298.55018693208694 16.206487402319908 4.2424665689468446 13.597041442990301 5.1455074697732917 61.647934183478355 55.606816053390503 11.907774269580843 4.5416164845228186 8.958265468478201 71.471316203474998 9.4286302477121335 10.43490175902844 4.9531125575304022 12.083152472972868 7.4826725572347632 8.7807172089815122 33.002828598022461 207.05340634286404 7.8311620503664008 6.3837557137012473 184.98225849866867 42.412365078926086
leaf_count=36 12029 1362 489 1165 1223 136 116 851 90 21 64 25 287 307 54 20 47 376 50 55 24 63 34 44 109 959 36 21 614 144
internal_value=0 0.0312344 -0.0308512 0.011776 0.0447747 -0.00748898 0.0188871 0.0389626 -0.00383239 -0.00210838 -0.0039778 0.0183584 0.00605466 -0.00764959 -0.0037422 0.0197885 -0.00664079 -0.0038956 0.00647387 0.0141681 0.0224994 0.0140382 0.0281287 0.0139469 0.024709 -0.00769568 0.0124358 0.0230075 0.0248634 0.01468
internal_weight=0 2031.99 2003.98 833.781 1198.21 414.308 610.74 748 327.846 306.488 280.837 25.6514 75.245 205.592 149.985 16.4494 133.536 117.329 45.8581 36.4294 27.4712 22.5181 20.5059 13.0232 299.728 223.041 15.9878 266.725 233.778 48.7961
internal_count=20851 6636 14215 3200 3436 2186 2169 2213 1697 1561 1437 124 351 1086 779 74 705 615 239 189 142 118 99 65 1004 1031 72 895 779 165
is_linear=0
shrinkage=0.05


Tree=29
num_leaves=31
num_cat=0
split_feature=7 7 3 2 6 1 3 2 0 4 2 3 0 4 3 4 2 2 1 6 1 0 4 4 3 3 0 0 2 3
split_gain=4534.56 222.294 11.8609 5.07829 3.96985 4.50249 3.21014 2.40038 2.10234 2.63394 2.6091 2.00092 2.30828 2.38608 1.98036 1.94132 2.82359 4.20543 1.71974 1.55695 1.50879 1.49169 1.65968 1.48065 1.44361 2.36129 2.51508 1.92399 1.83109 1.43466
threshold=-1.0000000180025095e-35 1.0000000180025095e-35 2.5000000000000004 5.5000000000000009 29.000000000000004 14.500000000000002 8.5000000000000018 13.500000000000002 9.5000000000000018 0.96794750000000007 15.500000000000002 13.500000000000002 9.5000000000000018 0.85902150000000022 5.5000000000000009 1.0612650000000003 12.500000000000002 10.500000000000002 8.5000000000000018 33.500000000000007 11.500000000000002 11.500000000000002 1.0838350000000003 0.9317335000000001 11.500000000000002 12.500000000000002 11.500000000000002 12.500000000000002 9.5000000000000018 13.500000000000002
decision_type=2 2 2 2 2 2 2 2 2 2 2 2 2 2 2 2 2 2 2 2 2 2 2 2 2 2 2 2 2 2
left_child=-1 -2 -3 14 5 7 -6 11 9 -9 20 -5 -13 -14 -4 16 17 -7 -8 24 23 -15 -23 -10 27 26 -26 -20 -27 -30
right_child=1 2 3 4 6 15 18 8 10 -11 -12 12 13 21 -16 -17 -18 -19 19 -21 -22 22 -24 -25 25 28 -28 -29 29 -31
